<?xml version="1.0" encoding="ISO-8859-1"?>
<smile version="1.0" id="SpeciesVA" numsamples="1000" discsamples="10000">
	<nodes>
		<cpt id="Number_of_future_compatible_bioregions">
			<state id="Few" />
			<state id="Many" />
			<probabilities>0.5 0.5</probabilities>
		</cpt>
		<cpt id="Pioneer_species">
			<state id="No" />
			<state id="Yes" />
			<probabilities>0.95 0.05</probabilities>
		</cpt>
		<cpt id="Degree_of_point_dispersion">
			<state id="Clustered" />
			<state id="Widespread" />
			<probabilities>0.5 0.5</probabilities>
		</cpt>
		<cpt id="Fraction_of_Tol_pts">
			<state id="Small" />
			<state id="Medium" />
			<state id="Large" />
			<probabilities>0.3333 0.3333 0.3334</probabilities>
		</cpt>
		<cpt id="Number_of_bioregions_currently_present">
			<state id="Few" />
			<state id="Many" />
			<probabilities>0.5 0.5</probabilities>
		</cpt>
		<cpt id="Occupancy">
			<state id="widespread" />
			<state id="Limited" />
			<parents>Degree_of_point_dispersion Fraction_of_Tol_pts Number_of_bioregions_currently_present</parents>
			<probabilities>0 1 0.25 0.75 0.25 0.75 0.5 0.5 0.25 0.75 0.5 0.5 0.5 0.5 0.75 0.25 0.5 0.5 0.75 0.25 0.75 0.25 1 0</probabilities>
		</cpt>
		<cpt id="Distr_wrt_natural_barriers">
			<state id="Favorable" />
			<state id="Unfavorable" />
			<probabilities>0.5 0.5</probabilities>
		</cpt>
		<cpt id="Distr_wrt_anthrop_barriers">
			<state id="Favorable" />
			<state id="Unfavorable" />
			<probabilities>0.5 0.5</probabilities>
		</cpt>
		<cpt id="Distr_wrt_barriers">
			<state id="Favorable" />
			<state id="Unfavorable" />
			<parents>Distr_wrt_natural_barriers Distr_wrt_anthrop_barriers</parents>
			<probabilities>0.5 0.5 0.5 0.5 0.5 0.5 0.5 0.5</probabilities>
		</cpt>
		<cpt id="MRF_fragmentation">
			<state id="Small" />
			<state id="Medium" />
			<state id="Large" />
			<probabilities>0.3333 0.3333 0.3334</probabilities>
		</cpt>
		<cpt id="Mig_fragmentation">
			<state id="Small" />
			<state id="Medium" />
			<state id="Large" />
			<probabilities>0.3333 0.3333 0.3334</probabilities>
		</cpt>
		<cpt id="Tol_fragmentation">
			<state id="Small" />
			<state id="Medium" />
			<state id="Large" />
			<probabilities>0.3333 0.3333 0.3334</probabilities>
		</cpt>
		<cpt id="Landscape_connectivity">
			<state id="Low" />
			<state id="High" />
			<parents>Distr_wrt_barriers</parents>
			<probabilities>0.5 0.5 0.5 0.5</probabilities>
		</cpt>
		<cpt id="Projected_change_in_CE_area">
			<state id="Large_decrease" />
			<state id="Medium_decrease" />
			<state id="Small_decr_or_inc" />
			<probabilities>0.3333 0.3333 0.3334</probabilities>
		</cpt>
		<cpt id="Overlap_between_current_and_future_suitable_range">
			<state id="Small" />
			<state id="Medium" />
			<state id="Large" />
			<probabilities>0.3333 0.3333 0.3334</probabilities>
		</cpt>
		<cpt id="Distance_between_current_and_future_suitable_range">
			<state id="Small" />
			<state id="Medium" />
			<state id="Large" />
			<probabilities>0.3333 0.3333 0.3334</probabilities>
		</cpt>
		<cpt id="Required_migration_distance">
			<state id="Small" />
			<state id="Large" />
			<parents>Overlap_between_current_and_future_suitable_range Distance_between_current_and_future_suitable_range</parents>
			<probabilities>0.5 0.5 0.25 0.75 0 1 0.75 0.25 0.5 0.5 0.25 0.75 1 0 0.75 0.25 0.5 0.5</probabilities>
		</cpt>
		<cpt id="Proximity_to_max_height_of_Mtn">
			<state id="Close" />
			<state id="Far" />
			<probabilities>0.5 0.5</probabilities>
		</cpt>
		<cpt id="Dispersion">
			<state id="Favorable" />
			<state id="Unfavorable" />
			<parents>Number_of_future_compatible_bioregions Occupancy Landscape_connectivity Projected_change_in_CE_area Required_migration_distance Proximity_to_max_height_of_Mtn</parents>
			<probabilities>0.333333333 0.666666667 0.5 0.5 0.166666667 0.833333333 0.333333333 0.666666667 0.416666667 0.583333333 0.583333333 0.416666667 0.25 0.75 0.416666667 0.583333333 0.5 0.5 0.666666667 0.333333333 0.333333333 0.666666667 0.5 0.5 0.5 0.5 0.666666667 0.333333333 0.333333333 0.666666667 0.5 0.5 0.583333333 0.416666667 0.75 0.25 0.416666667 0.583333333 0.583333333 0.416666667 0.666666667 0.333333333 0.833333333 0.166666667 0.5 0.5 0.666666667 0.333333333 0.166666667 0.833333333 0.333333333 0.666666667 0 1 0.166666667 0.833333333 0.25 0.75 0.416666667 0.583333333 0.083333333 0.916666667 0.25 0.75 0.333333333 0.666666667 0.5 0.5 0.166666667 0.833333333 0.333333333 0.666666667 0.333333333 0.666666667 0.5 0.5 0.166666667 0.833333333 0.333333333 0.666666667 0.416666667 0.583333333 0.583333333 0.416666667 0.25 0.75 0.416666667 0.583333333 0.5 0.5 0.666666667 0.333333333 0.333333333 0.666666667 0.5 0.5 0.5 0.5 0.666666667 0.333333333 0.333333333 0.666666667 0.5 0.5 0.583333333 0.416666667 0.75 0.25 0.416666667 0.583333333 0.583333333 0.416666667 0.666666667 0.333333333 0.833333333 0.166666667 0.5 0.5 0.666666667 0.333333333 0.666666667 0.333333333 0.833333333 0.166666667 0.5 0.5 0.666666667 0.333333333 0.75 0.25 0.916666667 0.083333333 0.583333333 0.416666667 0.75 0.25 0.833333333 0.166666667 1 0 0.666666667 0.333333333 0.833333333 0.166666667 0.333333333 0.666666667 0.5 0.5 0.166666667 0.833333333 0.333333333 0.666666667 0.416666667 0.583333333 0.583333333 0.416666667 0.25 0.75 0.416666667 0.583333333 0.5 0.5 0.666666667 0.333333333 0.333333333 0.666666667 0.5 0.5 0.5 0.5 0.666666667 0.333333333 0.333333333 0.666666667 0.5 0.5 0.583333333 0.416666667 0.75 0.25 0.416666667 0.583333333 0.583333333 0.416666667 0.666666667 0.333333333 0.833333333 0.166666667 0.5 0.5 0.666666667 0.333333333</probabilities>
		</cpt>
		<cpt id="MRF_total_area">
			<state id="Small" />
			<state id="Medium" />
			<state id="Large" />
			<probabilities>0.3333333 0.3333333 0.3333334</probabilities>
		</cpt>
		<cpt id="x_MRF_uninhabitalble_by_lava_flows">
			<state id="Small" />
			<state id="Medium" />
			<state id="Large" />
			<probabilities>0.3333333 0.3333333 0.3333334</probabilities>
		</cpt>
		<cpt id="LULCC_response_in_MRF">
			<state id="Small" />
			<state id="Large" />
			<probabilities>0.5 0.5</probabilities>
		</cpt>
		<cpt id="x_MRF_uninhabitable">
			<state id="Small" />
			<state id="Medium" />
			<state id="Large" />
			<parents>LULCC_response_in_MRF</parents>
			<probabilities>0.3333333 0.3333333 0.3333334 0.3333333 0.3333333 0.3333334</probabilities>
		</cpt>
		<cpt id="x_MRF_in_novel_lost_climate">
			<state id="Small" />
			<state id="Medium" />
			<state id="Large" />
			<probabilities>0.3333 0.3333 0.3334</probabilities>
		</cpt>
		<cpt id="x_MRF_irreversably_destroyed_by_CC">
			<state id="Small" />
			<state id="Medium" />
			<state id="Large" />
			<probabilities>0.3333333 0.3333333 0.3333334</probabilities>
		</cpt>
		<cpt id="Effective_MRF_area">
			<state id="Favorable" />
			<state id="Unfavorable" />
			<parents>Pioneer_species MRF_total_area x_MRF_uninhabitable x_MRF_irreversably_destroyed_by_CC x_MRF_uninhabitalble_by_lava_flows</parents>
			<probabilities>0.6 0.4 0.5 0.5 0.4 0.6 0.5 0.5 0.4 0.6 0.3 0.7 0.4 0.6 0.3 0.7 0.2 0.8 0.5 0.5 0.4 0.6 0.3 0.7 0.4 0.6 0.3 0.7 0.2 0.8 0.3 0.7 0.2 0.8 0.1 0.9 0.4 0.6 0.3 0.7 0.2 0.8 0.3 0.7 0.2 0.8 0.1 0.9 0.2 0.8 0.1 0.9 0 1 0.8 0.2 0.7 0.3 0.6 0.4 0.7 0.3 0.6 0.4 0.5 0.5 0.6 0.4 0.5 0.5 0.4 0.6 0.7 0.3 0.6 0.4 0.5 0.5 0.6 0.4 0.5 0.5 0.4 0.6 0.5 0.5 0.4 0.6 0.3 0.7 0.6 0.4 0.5 0.5 0.4 0.6 0.5 0.5 0.4 0.6 0.3 0.7 0.4 0.6 0.3 0.7 0.2 0.8 1 0 0.9 0.1 0.8 0.2 0.9 0.1 0.8 0.2 0.7 0.3 0.8 0.2 0.7 0.3 0.6 0.4 0.9 0.1 0.8 0.2 0.7 0.3 0.8 0.2 0.7 0.3 0.6 0.4 0.7 0.3 0.6 0.4 0.5 0.5 0.8 0.2 0.7 0.3 0.6 0.4 0.7 0.3 0.6 0.4 0.5 0.5 0.6 0.4 0.5 0.5 0.4 0.6 0.5 0.5 0.5 0.5 0.5 0.5 0.375 0.625 0.375 0.625 0.375 0.625 0.25 0.75 0.25 0.75 0.25 0.75 0.375 0.625 0.375 0.625 0.375 0.625 0.25 0.75 0.25 0.75 0.25 0.75 0.125 0.875 0.125 0.875 0.125 0.875 0.25 0.75 0.25 0.75 0.25 0.75 0.125 0.875 0.125 0.875 0.125 0.875 0 1 0 1 0 1 0.75 0.25 0.75 0.25 0.75 0.25 0.625 0.375 0.625 0.375 0.625 0.375 0.5 0.5 0.5 0.5 0.5 0.5 0.625 0.375 0.625 0.375 0.625 0.375 0.5 0.5 0.5 0.5 0.5 0.5 0.375 0.625 0.375 0.625 0.375 0.625 0.5 0.5 0.5 0.5 0.5 0.5 0.375 0.625 0.375 0.625 0.375 0.625 0.25 0.75 0.25 0.75 0.25 0.75 1 0 1 0 1 0 0.875 0.125 0.875 0.125 0.875 0.125 0.75 0.25 0.75 0.25 0.75 0.25 0.875 0.125 0.875 0.125 0.875 0.125 0.75 0.25 0.75 0.25 0.75 0.25 0.625 0.375 0.625 0.375 0.625 0.375 0.75 0.25 0.75 0.25 0.75 0.25 0.625 0.375 0.625 0.375 0.625 0.375 0.5 0.5 0.5 0.5 0.5 0.5</probabilities>
		</cpt>
		<cpt id="Slope_Tol_Zone">
			<state id="Small" />
			<state id="Medium" />
			<state id="Large" />
			<probabilities>0.3333 0.3333 0.3334</probabilities>
		</cpt>
		<cpt id="Aspect_Tol_Zone">
			<state id="Small" />
			<state id="Medium" />
			<state id="Large" />
			<probabilities>0.3333 0.3333 0.3334</probabilities>
		</cpt>
		<cpt id="Topo_divesity_Tol">
			<state id="Small" />
			<state id="Large" />
			<parents>Slope_Tol_Zone Aspect_Tol_Zone</parents>
			<probabilities>1 0 0.833333333 0.166666667 0.666666667 0.333333333 0.666666667 0.333333333 0.5 0.5 0.333333333 0.666666667 0.333333333 0.666666667 0.166666667 0.833333333 0 1</probabilities>
		</cpt>
		<cpt id="Native_cover_in_Tol_zone">
			<state id="Small" />
			<state id="Medium" />
			<state id="Large" />
			<probabilities>0.3333 0.3333 0.3334</probabilities>
		</cpt>
		<cpt id="Change_Tol_Zone_under_protection">
			<state id="Decrease" />
			<state id="Stasis" />
			<state id="Increase" />
			<probabilities>0.3333 0.3333 0.3334</probabilities>
		</cpt>
		<cpt id="Tol_Zone_in_Active_management">
			<state id="Small" />
			<state id="Medium" />
			<state id="Large" />
			<probabilities>0.3333 0.3333 0.3334</probabilities>
		</cpt>
		<cpt id="Tol_Zone_under_Protective_designation">
			<state id="Small" />
			<state id="Medium" />
			<state id="Large" />
			<probabilities>0.3333 0.3333 0.3334</probabilities>
		</cpt>
		<cpt id="x_Tol_Zone_in_ungulate_free_areas">
			<state id="Small" />
			<state id="Medium" />
			<state id="Large" />
			<probabilities>0.3333 0.3333 0.3334</probabilities>
		</cpt>
		<cpt id="x_protected_areas_in_Tol_Zone">
			<state id="Small" />
			<state id="Large" />
			<parents>Change_Tol_Zone_under_protection Tol_Zone_in_Active_management Tol_Zone_under_Protective_designation x_Tol_Zone_in_ungulate_free_areas</parents>
			<probabilities>1 0 0.875 0.125 0.75 0.25 0.833333333 0.166666667 0.708333333 0.291666667 0.583333333 0.416666667 0.666666667 0.333333333 0.541666667 0.458333333 0.416666667 0.583333333 0.916666667 0.083333333 0.791666667 0.208333333 0.666666667 0.333333333 0.75 0.25 0.625 0.375 0.5 0.5 0.583333333 0.416666667 0.458333333 0.541666667 0.333333333 0.666666667 0.833333333 0.166666667 0.708333333 0.291666667 0.583333333 0.416666667 0.666666667 0.333333333 0.541666667 0.458333333 0.416666667 0.583333333 0.5 0.5 0.375 0.625 0.25 0.75 0.875 0.125 0.75 0.25 0.625 0.375 0.708333333 0.291666667 0.583333333 0.416666667 0.458333333 0.541666667 0.541666667 0.458333333 0.416666667 0.583333333 0.291666667 0.708333333 0.791666667 0.208333333 0.666666667 0.333333333 0.541666667 0.458333333 0.625 0.375 0.5 0.5 0.375 0.625 0.458333333 0.541666667 0.333333333 0.666666667 0.208333333 0.791666667 0.708333333 0.291666667 0.583333333 0.416666667 0.458333333 0.541666667 0.541666667 0.458333333 0.416666667 0.583333333 0.291666667 0.708333333 0.375 0.625 0.25 0.75 0.125 0.875 0.75 0.25 0.625 0.375 0.5 0.5 0.583333333 0.416666667 0.458333333 0.541666667 0.333333333 0.666666667 0.416666667 0.583333333 0.291666667 0.708333333 0.166666667 0.833333333 0.666666667 0.333333333 0.541666667 0.458333333 0.416666667 0.583333333 0.5 0.5 0.375 0.625 0.25 0.75 0.333333333 0.666666667 0.208333333 0.791666667 0.083333333 0.916666667 0.583333333 0.416666667 0.458333333 0.541666667 0.333333333 0.666666667 0.416666667 0.583333333 0.291666667 0.708333333 0.166666667 0.833333333 0.25 0.75 0.125 0.875 0 1</probabilities>
		</cpt>
		<cpt id="Habitat_degrade_by_disease_in_Tol_Zone">
			<state id="Small" />
			<state id="Medium" />
			<state id="Large" />
			<probabilities>0.3333 0.3333 0.3334</probabilities>
		</cpt>
		<cpt id="x_Tolg_Zone_overlap_with_key_detrimental_invasive">
			<state id="Small" />
			<state id="Medium" />
			<state id="Large" />
			<probabilities>0.3333 0.3333 0.3334</probabilities>
		</cpt>
		<cpt id="x_Tol_Zone_near_TWI">
			<state id="Small" />
			<state id="Medium" />
			<state id="Large" />
			<probabilities>0.3333 0.3333 0.3334</probabilities>
		</cpt>
		<cpt id="x_Tol_Zone_near_cloud_base_elevation">
			<state id="Small" />
			<state id="Medium" />
			<state id="Large" />
			<probabilities>0.3333 0.3333 0.3334</probabilities>
		</cpt>
		<cpt id="x_of_Tol_Zone_in_ecotone_areas">
			<state id="Small" />
			<state id="Medium" />
			<state id="Large" />
			<probabilities>0.3333 0.3333 0.3334</probabilities>
		</cpt>
		<cpt id="Tol_Zone_Transition_zones">
			<state id="Small" />
			<state id="Large" />
			<parents>x_Tol_Zone_near_TWI x_Tol_Zone_near_cloud_base_elevation x_of_Tol_Zone_in_ecotone_areas</parents>
			<probabilities>0.5 0.5 0.5 0.5 0.5 0.5 0.5 0.5 0.5 0.5 0.5 0.5 0.5 0.5 0.5 0.5 0.5 0.5 0.5 0.5 0.5 0.5 0.5 0.5 0.5 0.5 0.5 0.5 0.5 0.5 0.5 0.5 0.5 0.5 0.5 0.5 0.5 0.5 0.5 0.5 0.5 0.5 0.5 0.5 0.5 0.5 0.5 0.5 0.5 0.5 0.5 0.5 0.5 0.5</probabilities>
		</cpt>
		<cpt id="x_Tol_zone_in_novel_lost_climate">
			<state id="Small" />
			<state id="Medium" />
			<state id="Large" />
			<probabilities>0.3333 0.3333 0.3334</probabilities>
		</cpt>
		<cpt id="Persistence_in_invaded_landscape">
			<state id="No" />
			<state id="Yes" />
			<probabilities>0.5 0.5</probabilities>
		</cpt>
		<cpt id="Tol_Zone_Habitat_qual">
			<state id="Favorable" />
			<state id="Unfavorable" />
			<parents>Persistence_in_invaded_landscape Topo_divesity_Tol Native_cover_in_Tol_zone x_protected_areas_in_Tol_Zone Tol_fragmentation Habitat_degrade_by_disease_in_Tol_Zone x_Tolg_Zone_overlap_with_key_detrimental_invasive Tol_Zone_Transition_zones x_Tol_zone_in_novel_lost_climate</parents>
			<probabilities>0.55 0.45 0.5 0.5 0.45 0.55 0.45 0.55 0.4 0.6 0.35 0.65 0.475 0.525 0.425 0.575 0.375 0.625 0.375 0.625 0.325 0.675 0.275 0.725 0.4 0.6 0.35 0.65 0.3 0.7 0.3 0.7 0.25 0.75 0.2 0.8 0.5 0.5 0.45 0.55 0.4 0.6 0.4 0.6 0.35 0.65 0.3 0.7 0.425 0.575 0.375 0.625 0.325 0.675 0.325 0.675 0.275 0.725 0.225 0.775 0.35 0.65 0.3 0.7 0.25 0.75 0.25 0.75 0.2 0.8 0.15 0.85 0.45 0.55 0.4 0.6 0.35 0.65 0.35 0.65 0.3 0.7 0.25 0.75 0.375 0.625 0.325 0.675 0.275 0.725 0.275 0.725 0.225 0.775 0.175 0.825 0.3 0.7 0.25 0.75 0.2 0.8 0.2 0.8 0.15 0.85 0.1 0.9 0.5 0.5 0.45 0.55 0.4 0.6 0.4 0.6 0.35 0.65 0.3 0.7 0.425 0.575 0.375 0.625 0.325 0.675 0.325 0.675 0.275 0.725 0.225 0.775 0.35 0.65 0.3 0.7 0.25 0.75 0.25 0.75 0.2 0.8 0.15 0.85 0.45 0.55 0.4 0.6 0.35 0.65 0.35 0.65 0.3 0.7 0.25 0.75 0.375 0.625 0.325 0.675 0.275 0.725 0.275 0.725 0.225 0.775 0.175 0.825 0.3 0.7 0.25 0.75 0.2 0.8 0.2 0.8 0.15 0.85 0.1 0.9 0.4 0.6 0.35 0.65 0.3 0.7 0.3 0.7 0.25 0.75 0.2 0.8 0.325 0.675 0.275 0.725 0.225 0.775 0.225 0.775 0.175 0.825 0.125 0.875 0.25 0.75 0.2 0.8 0.15 0.85 0.15 0.85 0.1 0.9 0.05 0.95 0.45 0.55 0.4 0.6 0.35 0.65 0.35 0.65 0.3 0.7 0.25 0.75 0.375 0.625 0.325 0.675 0.275 0.725 0.275 0.725 0.225 0.775 0.175 0.825 0.3 0.7 0.25 0.75 0.2 0.8 0.2 0.8 0.15 0.85 0.1 0.9 0.4 0.6 0.35 0.65 0.3 0.7 0.3 0.7 0.25 0.75 0.2 0.8 0.325 0.675 0.275 0.725 0.225 0.775 0.225 0.775 0.175 0.825 0.125 0.875 0.25 0.75 0.2 0.8 0.15 0.85 0.15 0.85 0.1 0.9 0.05 0.95 0.35 0.65 0.3 0.7 0.25 0.75 0.25 0.75 0.2 0.8 0.15 0.85 0.275 0.725 0.225 0.775 0.175 0.825 0.175 0.825 0.125 0.875 0.075 0.925 0.2 0.8 0.15 0.85 0.1 0.9 0.1 0.9 0.05 0.95 0 1 0.7 0.3 0.65 0.35 0.6 0.4 0.6 0.4 0.55 0.45 0.5 0.5 0.625 0.375 0.575 0.425 0.525 0.475 0.525 0.475 0.475 0.525 0.425 0.575 0.55 0.45 0.5 0.5 0.45 0.55 0.45 0.55 0.4 0.6 0.35 0.65 0.65 0.35 0.6 0.4 0.55 0.45 0.55 0.45 0.5 0.5 0.45 0.55 0.575 0.425 0.525 0.475 0.475 0.525 0.475 0.525 0.425 0.575 0.375 0.625 0.5 0.5 0.45 0.55 0.4 0.6 0.4 0.6 0.35 0.65 0.3 0.7 0.6 0.4 0.55 0.45 0.5 0.5 0.5 0.5 0.45 0.55 0.4 0.6 0.525 0.475 0.475 0.525 0.425 0.575 0.425 0.575 0.375 0.625 0.325 0.675 0.45 0.55 0.4 0.6 0.35 0.65 0.35 0.65 0.3 0.7 0.25 0.75 0.65 0.35 0.6 0.4 0.55 0.45 0.55 0.45 0.5 0.5 0.45 0.55 0.575 0.425 0.525 0.475 0.475 0.525 0.475 0.525 0.425 0.575 0.375 0.625 0.5 0.5 0.45 0.55 0.4 0.6 0.4 0.6 0.35 0.65 0.3 0.7 0.6 0.4 0.55 0.45 0.5 0.5 0.5 0.5 0.45 0.55 0.4 0.6 0.525 0.475 0.475 0.525 0.425 0.575 0.425 0.575 0.375 0.625 0.325 0.675 0.45 0.55 0.4 0.6 0.35 0.65 0.35 0.65 0.3 0.7 0.25 0.75 0.55 0.45 0.5 0.5 0.45 0.55 0.45 0.55 0.4 0.6 0.35 0.65 0.475 0.525 0.425 0.575 0.375 0.625 0.375 0.625 0.325 0.675 0.275 0.725 0.4 0.6 0.35 0.65 0.3 0.7 0.3 0.7 0.25 0.75 0.2 0.8 0.6 0.4 0.55 0.45 0.5 0.5 0.5 0.5 0.45 0.55 0.4 0.6 0.525 0.475 0.475 0.525 0.425 0.575 0.425 0.575 0.375 0.625 0.325 0.675 0.45 0.55 0.4 0.6 0.35 0.65 0.35 0.65 0.3 0.7 0.25 0.75 0.55 0.45 0.5 0.5 0.45 0.55 0.45 0.55 0.4 0.6 0.35 0.65 0.475 0.525 0.425 0.575 0.375 0.625 0.375 0.625 0.325 0.675 0.275 0.725 0.4 0.6 0.35 0.65 0.3 0.7 0.3 0.7 0.25 0.75 0.2 0.8 0.5 0.5 0.45 0.55 0.4 0.6 0.4 0.6 0.35 0.65 0.3 0.7 0.425 0.575 0.375 0.625 0.325 0.675 0.325 0.675 0.275 0.725 0.225 0.775 0.35 0.65 0.3 0.7 0.25 0.75 0.25 0.75 0.2 0.8 0.15 0.85 0.65 0.35 0.6 0.4 0.55 0.45 0.55 0.45 0.5 0.5 0.45 0.55 0.575 0.425 0.525 0.475 0.475 0.525 0.475 0.525 0.425 0.575 0.375 0.625 0.5 0.5 0.45 0.55 0.4 0.6 0.4 0.6 0.35 0.65 0.3 0.7 0.6 0.4 0.55 0.45 0.5 0.5 0.5 0.5 0.45 0.55 0.4 0.6 0.525 0.475 0.475 0.525 0.425 0.575 0.425 0.575 0.375 0.625 0.325 0.675 0.45 0.55 0.4 0.6 0.35 0.65 0.35 0.65 0.3 0.7 0.25 0.75 0.55 0.45 0.5 0.5 0.45 0.55 0.45 0.55 0.4 0.6 0.35 0.65 0.475 0.525 0.425 0.575 0.375 0.625 0.375 0.625 0.325 0.675 0.275 0.725 0.4 0.6 0.35 0.65 0.3 0.7 0.3 0.7 0.25 0.75 0.2 0.8 0.6 0.4 0.55 0.45 0.5 0.5 0.5 0.5 0.45 0.55 0.4 0.6 0.525 0.475 0.475 0.525 0.425 0.575 0.425 0.575 0.375 0.625 0.325 0.675 0.45 0.55 0.4 0.6 0.35 0.65 0.35 0.65 0.3 0.7 0.25 0.75 0.55 0.45 0.5 0.5 0.45 0.55 0.45 0.55 0.4 0.6 0.35 0.65 0.475 0.525 0.425 0.575 0.375 0.625 0.375 0.625 0.325 0.675 0.275 0.725 0.4 0.6 0.35 0.65 0.3 0.7 0.3 0.7 0.25 0.75 0.2 0.8 0.5 0.5 0.45 0.55 0.4 0.6 0.4 0.6 0.35 0.65 0.3 0.7 0.425 0.575 0.375 0.625 0.325 0.675 0.325 0.675 0.275 0.725 0.225 0.775 0.35 0.65 0.3 0.7 0.25 0.75 0.25 0.75 0.2 0.8 0.15 0.85 0.55 0.45 0.5 0.5 0.45 0.55 0.45 0.55 0.4 0.6 0.35 0.65 0.475 0.525 0.425 0.575 0.375 0.625 0.375 0.625 0.325 0.675 0.275 0.725 0.4 0.6 0.35 0.65 0.3 0.7 0.3 0.7 0.25 0.75 0.2 0.8 0.5 0.5 0.45 0.55 0.4 0.6 0.4 0.6 0.35 0.65 0.3 0.7 0.425 0.575 0.375 0.625 0.325 0.675 0.325 0.675 0.275 0.725 0.225 0.775 0.35 0.65 0.3 0.7 0.25 0.75 0.25 0.75 0.2 0.8 0.15 0.85 0.45 0.55 0.4 0.6 0.35 0.65 0.35 0.65 0.3 0.7 0.25 0.75 0.375 0.625 0.325 0.675 0.275 0.725 0.275 0.725 0.225 0.775 0.175 0.825 0.3 0.7 0.25 0.75 0.2 0.8 0.2 0.8 0.15 0.85 0.1 0.9 0.8 0.2 0.75 0.25 0.7 0.3 0.7 0.3 0.65 0.35 0.6 0.4 0.725 0.275 0.675 0.325 0.625 0.375 0.625 0.375 0.575 0.425 0.525 0.475 0.65 0.35 0.6 0.4 0.55 0.45 0.55 0.45 0.5 0.5 0.45 0.55 0.75 0.25 0.7 0.3 0.65 0.35 0.65 0.35 0.6 0.4 0.55 0.45 0.675 0.325 0.625 0.375 0.575 0.425 0.575 0.425 0.525 0.475 0.475 0.525 0.6 0.4 0.55 0.45 0.5 0.5 0.5 0.5 0.45 0.55 0.4 0.6 0.7 0.3 0.65 0.35 0.6 0.4 0.6 0.4 0.55 0.45 0.5 0.5 0.625 0.375 0.575 0.425 0.525 0.475 0.525 0.475 0.475 0.525 0.425 0.575 0.55 0.45 0.5 0.5 0.45 0.55 0.45 0.55 0.4 0.6 0.35 0.65 0.75 0.25 0.7 0.3 0.65 0.35 0.65 0.35 0.6 0.4 0.55 0.45 0.675 0.325 0.625 0.375 0.575 0.425 0.575 0.425 0.525 0.475 0.475 0.525 0.6 0.4 0.55 0.45 0.5 0.5 0.5 0.5 0.45 0.55 0.4 0.6 0.7 0.3 0.65 0.35 0.6 0.4 0.6 0.4 0.55 0.45 0.5 0.5 0.625 0.375 0.575 0.425 0.525 0.475 0.525 0.475 0.475 0.525 0.425 0.575 0.55 0.45 0.5 0.5 0.45 0.55 0.45 0.55 0.4 0.6 0.35 0.65 0.65 0.35 0.6 0.4 0.55 0.45 0.55 0.45 0.5 0.5 0.45 0.55 0.575 0.425 0.525 0.475 0.475 0.525 0.475 0.525 0.425 0.575 0.375 0.625 0.5 0.5 0.45 0.55 0.4 0.6 0.4 0.6 0.35 0.65 0.3 0.7 0.7 0.3 0.65 0.35 0.6 0.4 0.6 0.4 0.55 0.45 0.5 0.5 0.625 0.375 0.575 0.425 0.525 0.475 0.525 0.475 0.475 0.525 0.425 0.575 0.55 0.45 0.5 0.5 0.45 0.55 0.45 0.55 0.4 0.6 0.35 0.65 0.65 0.35 0.6 0.4 0.55 0.45 0.55 0.45 0.5 0.5 0.45 0.55 0.575 0.425 0.525 0.475 0.475 0.525 0.475 0.525 0.425 0.575 0.375 0.625 0.5 0.5 0.45 0.55 0.4 0.6 0.4 0.6 0.35 0.65 0.3 0.7 0.6 0.4 0.55 0.45 0.5 0.5 0.5 0.5 0.45 0.55 0.4 0.6 0.525 0.475 0.475 0.525 0.425 0.575 0.425 0.575 0.375 0.625 0.325 0.675 0.45 0.55 0.4 0.6 0.35 0.65 0.35 0.65 0.3 0.7 0.25 0.75 0.75 0.25 0.7 0.3 0.65 0.35 0.65 0.35 0.6 0.4 0.55 0.45 0.675 0.325 0.625 0.375 0.575 0.425 0.575 0.425 0.525 0.475 0.475 0.525 0.6 0.4 0.55 0.45 0.5 0.5 0.5 0.5 0.45 0.55 0.4 0.6 0.7 0.3 0.65 0.35 0.6 0.4 0.6 0.4 0.55 0.45 0.5 0.5 0.625 0.375 0.575 0.425 0.525 0.475 0.525 0.475 0.475 0.525 0.425 0.575 0.55 0.45 0.5 0.5 0.45 0.55 0.45 0.55 0.4 0.6 0.35 0.65 0.65 0.35 0.6 0.4 0.55 0.45 0.55 0.45 0.5 0.5 0.45 0.55 0.575 0.425 0.525 0.475 0.475 0.525 0.475 0.525 0.425 0.575 0.375 0.625 0.5 0.5 0.45 0.55 0.4 0.6 0.4 0.6 0.35 0.65 0.3 0.7 0.7 0.3 0.65 0.35 0.6 0.4 0.6 0.4 0.55 0.45 0.5 0.5 0.625 0.375 0.575 0.425 0.525 0.475 0.525 0.475 0.475 0.525 0.425 0.575 0.55 0.45 0.5 0.5 0.45 0.55 0.45 0.55 0.4 0.6 0.35 0.65 0.65 0.35 0.6 0.4 0.55 0.45 0.55 0.45 0.5 0.5 0.45 0.55 0.575 0.425 0.525 0.475 0.475 0.525 0.475 0.525 0.425 0.575 0.375 0.625 0.5 0.5 0.45 0.55 0.4 0.6 0.4 0.6 0.35 0.65 0.3 0.7 0.6 0.4 0.55 0.45 0.5 0.5 0.5 0.5 0.45 0.55 0.4 0.6 0.525 0.475 0.475 0.525 0.425 0.575 0.425 0.575 0.375 0.625 0.325 0.675 0.45 0.55 0.4 0.6 0.35 0.65 0.35 0.65 0.3 0.7 0.25 0.75 0.65 0.35 0.6 0.4 0.55 0.45 0.55 0.45 0.5 0.5 0.45 0.55 0.575 0.425 0.525 0.475 0.475 0.525 0.475 0.525 0.425 0.575 0.375 0.625 0.5 0.5 0.45 0.55 0.4 0.6 0.4 0.6 0.35 0.65 0.3 0.7 0.6 0.4 0.55 0.45 0.5 0.5 0.5 0.5 0.45 0.55 0.4 0.6 0.525 0.475 0.475 0.525 0.425 0.575 0.425 0.575 0.375 0.625 0.325 0.675 0.45 0.55 0.4 0.6 0.35 0.65 0.35 0.65 0.3 0.7 0.25 0.75 0.55 0.45 0.5 0.5 0.45 0.55 0.45 0.55 0.4 0.6 0.35 0.65 0.475 0.525 0.425 0.575 0.375 0.625 0.375 0.625 0.325 0.675 0.275 0.725 0.4 0.6 0.35 0.65 0.3 0.7 0.3 0.7 0.25 0.75 0.2 0.8 0.9 0.1 0.85 0.15 0.8 0.2 0.8 0.2 0.75 0.25 0.7 0.3 0.825 0.175 0.775 0.225 0.725 0.275 0.725 0.275 0.675 0.325 0.625 0.375 0.75 0.25 0.7 0.3 0.65 0.35 0.65 0.35 0.6 0.4 0.55 0.45 0.85 0.15 0.8 0.2 0.75 0.25 0.75 0.25 0.7 0.3 0.65 0.35 0.775 0.225 0.725 0.275 0.675 0.325 0.675 0.325 0.625 0.375 0.575 0.425 0.7 0.3 0.65 0.35 0.6 0.4 0.6 0.4 0.55 0.45 0.5 0.5 0.8 0.2 0.75 0.25 0.7 0.3 0.7 0.3 0.65 0.35 0.6 0.4 0.725 0.275 0.675 0.325 0.625 0.375 0.625 0.375 0.575 0.425 0.525 0.475 0.65 0.35 0.6 0.4 0.55 0.45 0.55 0.45 0.5 0.5 0.45 0.55 0.85 0.15 0.8 0.2 0.75 0.25 0.75 0.25 0.7 0.3 0.65 0.35 0.775 0.225 0.725 0.275 0.675 0.325 0.675 0.325 0.625 0.375 0.575 0.425 0.7 0.3 0.65 0.35 0.6 0.4 0.6 0.4 0.55 0.45 0.5 0.5 0.8 0.2 0.75 0.25 0.7 0.3 0.7 0.3 0.65 0.35 0.6 0.4 0.725 0.275 0.675 0.325 0.625 0.375 0.625 0.375 0.575 0.425 0.525 0.475 0.65 0.35 0.6 0.4 0.55 0.45 0.55 0.45 0.5 0.5 0.45 0.55 0.75 0.25 0.7 0.3 0.65 0.35 0.65 0.35 0.6 0.4 0.55 0.45 0.675 0.325 0.625 0.375 0.575 0.425 0.575 0.425 0.525 0.475 0.475 0.525 0.6 0.4 0.55 0.45 0.5 0.5 0.5 0.5 0.45 0.55 0.4 0.6 0.8 0.2 0.75 0.25 0.7 0.3 0.7 0.3 0.65 0.35 0.6 0.4 0.725 0.275 0.675 0.325 0.625 0.375 0.625 0.375 0.575 0.425 0.525 0.475 0.65 0.35 0.6 0.4 0.55 0.45 0.55 0.45 0.5 0.5 0.45 0.55 0.75 0.25 0.7 0.3 0.65 0.35 0.65 0.35 0.6 0.4 0.55 0.45 0.675 0.325 0.625 0.375 0.575 0.425 0.575 0.425 0.525 0.475 0.475 0.525 0.6 0.4 0.55 0.45 0.5 0.5 0.5 0.5 0.45 0.55 0.4 0.6 0.7 0.3 0.65 0.35 0.6 0.4 0.6 0.4 0.55 0.45 0.5 0.5 0.625 0.375 0.575 0.425 0.525 0.475 0.525 0.475 0.475 0.525 0.425 0.575 0.55 0.45 0.5 0.5 0.45 0.55 0.45 0.55 0.4 0.6 0.35 0.65 0.65 0.35 0.6 0.4 0.55 0.45 0.55 0.45 0.5 0.5 0.45 0.55 0.575 0.425 0.525 0.475 0.475 0.525 0.475 0.525 0.425 0.575 0.375 0.625 0.5 0.5 0.45 0.55 0.4 0.6 0.4 0.6 0.35 0.65 0.3 0.7 0.6 0.4 0.55 0.45 0.5 0.5 0.5 0.5 0.45 0.55 0.4 0.6 0.525 0.475 0.475 0.525 0.425 0.575 0.425 0.575 0.375 0.625 0.325 0.675 0.45 0.55 0.4 0.6 0.35 0.65 0.35 0.65 0.3 0.7 0.25 0.75 0.55 0.45 0.5 0.5 0.45 0.55 0.45 0.55 0.4 0.6 0.35 0.65 0.475 0.525 0.425 0.575 0.375 0.625 0.375 0.625 0.325 0.675 0.275 0.725 0.4 0.6 0.35 0.65 0.3 0.7 0.3 0.7 0.25 0.75 0.2 0.8 0.6 0.4 0.55 0.45 0.5 0.5 0.5 0.5 0.45 0.55 0.4 0.6 0.525 0.475 0.475 0.525 0.425 0.575 0.425 0.575 0.375 0.625 0.325 0.675 0.45 0.55 0.4 0.6 0.35 0.65 0.35 0.65 0.3 0.7 0.25 0.75 0.55 0.45 0.5 0.5 0.45 0.55 0.45 0.55 0.4 0.6 0.35 0.65 0.475 0.525 0.425 0.575 0.375 0.625 0.375 0.625 0.325 0.675 0.275 0.725 0.4 0.6 0.35 0.65 0.3 0.7 0.3 0.7 0.25 0.75 0.2 0.8 0.5 0.5 0.45 0.55 0.4 0.6 0.4 0.6 0.35 0.65 0.3 0.7 0.425 0.575 0.375 0.625 0.325 0.675 0.325 0.675 0.275 0.725 0.225 0.775 0.35 0.65 0.3 0.7 0.25 0.75 0.25 0.75 0.2 0.8 0.15 0.85 0.55 0.45 0.5 0.5 0.45 0.55 0.45 0.55 0.4 0.6 0.35 0.65 0.475 0.525 0.425 0.575 0.375 0.625 0.375 0.625 0.325 0.675 0.275 0.725 0.4 0.6 0.35 0.65 0.3 0.7 0.3 0.7 0.25 0.75 0.2 0.8 0.5 0.5 0.45 0.55 0.4 0.6 0.4 0.6 0.35 0.65 0.3 0.7 0.425 0.575 0.375 0.625 0.325 0.675 0.325 0.675 0.275 0.725 0.225 0.775 0.35 0.65 0.3 0.7 0.25 0.75 0.25 0.75 0.2 0.8 0.15 0.85 0.45 0.55 0.4 0.6 0.35 0.65 0.35 0.65 0.3 0.7 0.25 0.75 0.375 0.625 0.325 0.675 0.275 0.725 0.275 0.725 0.225 0.775 0.175 0.825 0.3 0.7 0.25 0.75 0.2 0.8 0.2 0.8 0.15 0.85 0.1 0.9 0.8 0.2 0.75 0.25 0.7 0.3 0.7 0.3 0.65 0.35 0.6 0.4 0.725 0.275 0.675 0.325 0.625 0.375 0.625 0.375 0.575 0.425 0.525 0.475 0.65 0.35 0.6 0.4 0.55 0.45 0.55 0.45 0.5 0.5 0.45 0.55 0.75 0.25 0.7 0.3 0.65 0.35 0.65 0.35 0.6 0.4 0.55 0.45 0.675 0.325 0.625 0.375 0.575 0.425 0.575 0.425 0.525 0.475 0.475 0.525 0.6 0.4 0.55 0.45 0.5 0.5 0.5 0.5 0.45 0.55 0.4 0.6 0.7 0.3 0.65 0.35 0.6 0.4 0.6 0.4 0.55 0.45 0.5 0.5 0.625 0.375 0.575 0.425 0.525 0.475 0.525 0.475 0.475 0.525 0.425 0.575 0.55 0.45 0.5 0.5 0.45 0.55 0.45 0.55 0.4 0.6 0.35 0.65 0.75 0.25 0.7 0.3 0.65 0.35 0.65 0.35 0.6 0.4 0.55 0.45 0.675 0.325 0.625 0.375 0.575 0.425 0.575 0.425 0.525 0.475 0.475 0.525 0.6 0.4 0.55 0.45 0.5 0.5 0.5 0.5 0.45 0.55 0.4 0.6 0.7 0.3 0.65 0.35 0.6 0.4 0.6 0.4 0.55 0.45 0.5 0.5 0.625 0.375 0.575 0.425 0.525 0.475 0.525 0.475 0.475 0.525 0.425 0.575 0.55 0.45 0.5 0.5 0.45 0.55 0.45 0.55 0.4 0.6 0.35 0.65 0.65 0.35 0.6 0.4 0.55 0.45 0.55 0.45 0.5 0.5 0.45 0.55 0.575 0.425 0.525 0.475 0.475 0.525 0.475 0.525 0.425 0.575 0.375 0.625 0.5 0.5 0.45 0.55 0.4 0.6 0.4 0.6 0.35 0.65 0.3 0.7 0.7 0.3 0.65 0.35 0.6 0.4 0.6 0.4 0.55 0.45 0.5 0.5 0.625 0.375 0.575 0.425 0.525 0.475 0.525 0.475 0.475 0.525 0.425 0.575 0.55 0.45 0.5 0.5 0.45 0.55 0.45 0.55 0.4 0.6 0.35 0.65 0.65 0.35 0.6 0.4 0.55 0.45 0.55 0.45 0.5 0.5 0.45 0.55 0.575 0.425 0.525 0.475 0.475 0.525 0.475 0.525 0.425 0.575 0.375 0.625 0.5 0.5 0.45 0.55 0.4 0.6 0.4 0.6 0.35 0.65 0.3 0.7 0.6 0.4 0.55 0.45 0.5 0.5 0.5 0.5 0.45 0.55 0.4 0.6 0.525 0.475 0.475 0.525 0.425 0.575 0.425 0.575 0.375 0.625 0.325 0.675 0.45 0.55 0.4 0.6 0.35 0.65 0.35 0.65 0.3 0.7 0.25 0.75 0.75 0.25 0.7 0.3 0.65 0.35 0.65 0.35 0.6 0.4 0.55 0.45 0.675 0.325 0.625 0.375 0.575 0.425 0.575 0.425 0.525 0.475 0.475 0.525 0.6 0.4 0.55 0.45 0.5 0.5 0.5 0.5 0.45 0.55 0.4 0.6 0.7 0.3 0.65 0.35 0.6 0.4 0.6 0.4 0.55 0.45 0.5 0.5 0.625 0.375 0.575 0.425 0.525 0.475 0.525 0.475 0.475 0.525 0.425 0.575 0.55 0.45 0.5 0.5 0.45 0.55 0.45 0.55 0.4 0.6 0.35 0.65 0.65 0.35 0.6 0.4 0.55 0.45 0.55 0.45 0.5 0.5 0.45 0.55 0.575 0.425 0.525 0.475 0.475 0.525 0.475 0.525 0.425 0.575 0.375 0.625 0.5 0.5 0.45 0.55 0.4 0.6 0.4 0.6 0.35 0.65 0.3 0.7 0.7 0.3 0.65 0.35 0.6 0.4 0.6 0.4 0.55 0.45 0.5 0.5 0.625 0.375 0.575 0.425 0.525 0.475 0.525 0.475 0.475 0.525 0.425 0.575 0.55 0.45 0.5 0.5 0.45 0.55 0.45 0.55 0.4 0.6 0.35 0.65 0.65 0.35 0.6 0.4 0.55 0.45 0.55 0.45 0.5 0.5 0.45 0.55 0.575 0.425 0.525 0.475 0.475 0.525 0.475 0.525 0.425 0.575 0.375 0.625 0.5 0.5 0.45 0.55 0.4 0.6 0.4 0.6 0.35 0.65 0.3 0.7 0.6 0.4 0.55 0.45 0.5 0.5 0.5 0.5 0.45 0.55 0.4 0.6 0.525 0.475 0.475 0.525 0.425 0.575 0.425 0.575 0.375 0.625 0.325 0.675 0.45 0.55 0.4 0.6 0.35 0.65 0.35 0.65 0.3 0.7 0.25 0.75 0.65 0.35 0.6 0.4 0.55 0.45 0.55 0.45 0.5 0.5 0.45 0.55 0.575 0.425 0.525 0.475 0.475 0.525 0.475 0.525 0.425 0.575 0.375 0.625 0.5 0.5 0.45 0.55 0.4 0.6 0.4 0.6 0.35 0.65 0.3 0.7 0.6 0.4 0.55 0.45 0.5 0.5 0.5 0.5 0.45 0.55 0.4 0.6 0.525 0.475 0.475 0.525 0.425 0.575 0.425 0.575 0.375 0.625 0.325 0.675 0.45 0.55 0.4 0.6 0.35 0.65 0.35 0.65 0.3 0.7 0.25 0.75 0.55 0.45 0.5 0.5 0.45 0.55 0.45 0.55 0.4 0.6 0.35 0.65 0.475 0.525 0.425 0.575 0.375 0.625 0.375 0.625 0.325 0.675 0.275 0.725 0.4 0.6 0.35 0.65 0.3 0.7 0.3 0.7 0.25 0.75 0.2 0.8 0.9 0.1 0.85 0.15 0.8 0.2 0.8 0.2 0.75 0.25 0.7 0.3 0.825 0.175 0.775 0.225 0.725 0.275 0.725 0.275 0.675 0.325 0.625 0.375 0.75 0.25 0.7 0.3 0.65 0.35 0.65 0.35 0.6 0.4 0.55 0.45 0.85 0.15 0.8 0.2 0.75 0.25 0.75 0.25 0.7 0.3 0.65 0.35 0.775 0.225 0.725 0.275 0.675 0.325 0.675 0.325 0.625 0.375 0.575 0.425 0.7 0.3 0.65 0.35 0.6 0.4 0.6 0.4 0.55 0.45 0.5 0.5 0.8 0.2 0.75 0.25 0.7 0.3 0.7 0.3 0.65 0.35 0.6 0.4 0.725 0.275 0.675 0.325 0.625 0.375 0.625 0.375 0.575 0.425 0.525 0.475 0.65 0.35 0.6 0.4 0.55 0.45 0.55 0.45 0.5 0.5 0.45 0.55 0.85 0.15 0.8 0.2 0.75 0.25 0.75 0.25 0.7 0.3 0.65 0.35 0.775 0.225 0.725 0.275 0.675 0.325 0.675 0.325 0.625 0.375 0.575 0.425 0.7 0.3 0.65 0.35 0.6 0.4 0.6 0.4 0.55 0.45 0.5 0.5 0.8 0.2 0.75 0.25 0.7 0.3 0.7 0.3 0.65 0.35 0.6 0.4 0.725 0.275 0.675 0.325 0.625 0.375 0.625 0.375 0.575 0.425 0.525 0.475 0.65 0.35 0.6 0.4 0.55 0.45 0.55 0.45 0.5 0.5 0.45 0.55 0.75 0.25 0.7 0.3 0.65 0.35 0.65 0.35 0.6 0.4 0.55 0.45 0.675 0.325 0.625 0.375 0.575 0.425 0.575 0.425 0.525 0.475 0.475 0.525 0.6 0.4 0.55 0.45 0.5 0.5 0.5 0.5 0.45 0.55 0.4 0.6 0.8 0.2 0.75 0.25 0.7 0.3 0.7 0.3 0.65 0.35 0.6 0.4 0.725 0.275 0.675 0.325 0.625 0.375 0.625 0.375 0.575 0.425 0.525 0.475 0.65 0.35 0.6 0.4 0.55 0.45 0.55 0.45 0.5 0.5 0.45 0.55 0.75 0.25 0.7 0.3 0.65 0.35 0.65 0.35 0.6 0.4 0.55 0.45 0.675 0.325 0.625 0.375 0.575 0.425 0.575 0.425 0.525 0.475 0.475 0.525 0.6 0.4 0.55 0.45 0.5 0.5 0.5 0.5 0.45 0.55 0.4 0.6 0.7 0.3 0.65 0.35 0.6 0.4 0.6 0.4 0.55 0.45 0.5 0.5 0.625 0.375 0.575 0.425 0.525 0.475 0.525 0.475 0.475 0.525 0.425 0.575 0.55 0.45 0.5 0.5 0.45 0.55 0.45 0.55 0.4 0.6 0.35 0.65 0.85 0.15 0.8 0.2 0.75 0.25 0.75 0.25 0.7 0.3 0.65 0.35 0.775 0.225 0.725 0.275 0.675 0.325 0.675 0.325 0.625 0.375 0.575 0.425 0.7 0.3 0.65 0.35 0.6 0.4 0.6 0.4 0.55 0.45 0.5 0.5 0.8 0.2 0.75 0.25 0.7 0.3 0.7 0.3 0.65 0.35 0.6 0.4 0.725 0.275 0.675 0.325 0.625 0.375 0.625 0.375 0.575 0.425 0.525 0.475 0.65 0.35 0.6 0.4 0.55 0.45 0.55 0.45 0.5 0.5 0.45 0.55 0.75 0.25 0.7 0.3 0.65 0.35 0.65 0.35 0.6 0.4 0.55 0.45 0.675 0.325 0.625 0.375 0.575 0.425 0.575 0.425 0.525 0.475 0.475 0.525 0.6 0.4 0.55 0.45 0.5 0.5 0.5 0.5 0.45 0.55 0.4 0.6 0.8 0.2 0.75 0.25 0.7 0.3 0.7 0.3 0.65 0.35 0.6 0.4 0.725 0.275 0.675 0.325 0.625 0.375 0.625 0.375 0.575 0.425 0.525 0.475 0.65 0.35 0.6 0.4 0.55 0.45 0.55 0.45 0.5 0.5 0.45 0.55 0.75 0.25 0.7 0.3 0.65 0.35 0.65 0.35 0.6 0.4 0.55 0.45 0.675 0.325 0.625 0.375 0.575 0.425 0.575 0.425 0.525 0.475 0.475 0.525 0.6 0.4 0.55 0.45 0.5 0.5 0.5 0.5 0.45 0.55 0.4 0.6 0.7 0.3 0.65 0.35 0.6 0.4 0.6 0.4 0.55 0.45 0.5 0.5 0.625 0.375 0.575 0.425 0.525 0.475 0.525 0.475 0.475 0.525 0.425 0.575 0.55 0.45 0.5 0.5 0.45 0.55 0.45 0.55 0.4 0.6 0.35 0.65 0.75 0.25 0.7 0.3 0.65 0.35 0.65 0.35 0.6 0.4 0.55 0.45 0.675 0.325 0.625 0.375 0.575 0.425 0.575 0.425 0.525 0.475 0.475 0.525 0.6 0.4 0.55 0.45 0.5 0.5 0.5 0.5 0.45 0.55 0.4 0.6 0.7 0.3 0.65 0.35 0.6 0.4 0.6 0.4 0.55 0.45 0.5 0.5 0.625 0.375 0.575 0.425 0.525 0.475 0.525 0.475 0.475 0.525 0.425 0.575 0.55 0.45 0.5 0.5 0.45 0.55 0.45 0.55 0.4 0.6 0.35 0.65 0.65 0.35 0.6 0.4 0.55 0.45 0.55 0.45 0.5 0.5 0.45 0.55 0.575 0.425 0.525 0.475 0.475 0.525 0.475 0.525 0.425 0.575 0.375 0.625 0.5 0.5 0.45 0.55 0.4 0.6 0.4 0.6 0.35 0.65 0.3 0.7 1 0 0.95 0.05 0.9 0.1 0.9 0.1 0.85 0.15 0.8 0.2 0.925 0.075 0.875 0.125 0.825 0.175 0.825 0.175 0.775 0.225 0.725 0.275 0.85 0.15 0.8 0.2 0.75 0.25 0.75 0.25 0.7 0.3 0.65 0.35 0.95 0.05 0.9 0.1 0.85 0.15 0.85 0.15 0.8 0.2 0.75 0.25 0.875 0.125 0.825 0.175 0.775 0.225 0.775 0.225 0.725 0.275 0.675 0.325 0.8 0.2 0.75 0.25 0.7 0.3 0.7 0.3 0.65 0.35 0.6 0.4 0.9 0.1 0.85 0.15 0.8 0.2 0.8 0.2 0.75 0.25 0.7 0.3 0.825 0.175 0.775 0.225 0.725 0.275 0.725 0.275 0.675 0.325 0.625 0.375 0.75 0.25 0.7 0.3 0.65 0.35 0.65 0.35 0.6 0.4 0.55 0.45 0.95 0.05 0.9 0.1 0.85 0.15 0.85 0.15 0.8 0.2 0.75 0.25 0.875 0.125 0.825 0.175 0.775 0.225 0.775 0.225 0.725 0.275 0.675 0.325 0.8 0.2 0.75 0.25 0.7 0.3 0.7 0.3 0.65 0.35 0.6 0.4 0.9 0.1 0.85 0.15 0.8 0.2 0.8 0.2 0.75 0.25 0.7 0.3 0.825 0.175 0.775 0.225 0.725 0.275 0.725 0.275 0.675 0.325 0.625 0.375 0.75 0.25 0.7 0.3 0.65 0.35 0.65 0.35 0.6 0.4 0.55 0.45 0.85 0.15 0.8 0.2 0.75 0.25 0.75 0.25 0.7 0.3 0.65 0.35 0.775 0.225 0.725 0.275 0.675 0.325 0.675 0.325 0.625 0.375 0.575 0.425 0.7 0.3 0.65 0.35 0.6 0.4 0.6 0.4 0.55 0.45 0.5 0.5 0.9 0.1 0.85 0.15 0.8 0.2 0.8 0.2 0.75 0.25 0.7 0.3 0.825 0.175 0.775 0.225 0.725 0.275 0.725 0.275 0.675 0.325 0.625 0.375 0.75 0.25 0.7 0.3 0.65 0.35 0.65 0.35 0.6 0.4 0.55 0.45 0.85 0.15 0.8 0.2 0.75 0.25 0.75 0.25 0.7 0.3 0.65 0.35 0.775 0.225 0.725 0.275 0.675 0.325 0.675 0.325 0.625 0.375 0.575 0.425 0.7 0.3 0.65 0.35 0.6 0.4 0.6 0.4 0.55 0.45 0.5 0.5 0.8 0.2 0.75 0.25 0.7 0.3 0.7 0.3 0.65 0.35 0.6 0.4 0.725 0.275 0.675 0.325 0.625 0.375 0.625 0.375 0.575 0.425 0.525 0.475 0.65 0.35 0.6 0.4 0.55 0.45 0.55 0.45 0.5 0.5 0.45 0.55 0.55 0.45 0.5 0.5 0.45 0.55 0.45 0.55 0.4 0.6 0.35 0.65 0.475 0.525 0.425 0.575 0.375 0.625 0.375 0.625 0.325 0.675 0.275 0.725 0.4 0.6 0.35 0.65 0.3 0.7 0.3 0.7 0.25 0.75 0.2 0.8 0.5 0.5 0.45 0.55 0.4 0.6 0.4 0.6 0.35 0.65 0.3 0.7 0.425 0.575 0.375 0.625 0.325 0.675 0.325 0.675 0.275 0.725 0.225 0.775 0.35 0.65 0.3 0.7 0.25 0.75 0.25 0.75 0.2 0.8 0.15 0.85 0.45 0.55 0.4 0.6 0.35 0.65 0.35 0.65 0.3 0.7 0.25 0.75 0.375 0.625 0.325 0.675 0.275 0.725 0.275 0.725 0.225 0.775 0.175 0.825 0.3 0.7 0.25 0.75 0.2 0.8 0.2 0.8 0.15 0.85 0.1 0.9 0.5 0.5 0.45 0.55 0.4 0.6 0.4 0.6 0.35 0.65 0.3 0.7 0.425 0.575 0.375 0.625 0.325 0.675 0.325 0.675 0.275 0.725 0.225 0.775 0.35 0.65 0.3 0.7 0.25 0.75 0.25 0.75 0.2 0.8 0.15 0.85 0.45 0.55 0.4 0.6 0.35 0.65 0.35 0.65 0.3 0.7 0.25 0.75 0.375 0.625 0.325 0.675 0.275 0.725 0.275 0.725 0.225 0.775 0.175 0.825 0.3 0.7 0.25 0.75 0.2 0.8 0.2 0.8 0.15 0.85 0.1 0.9 0.4 0.6 0.35 0.65 0.3 0.7 0.3 0.7 0.25 0.75 0.2 0.8 0.325 0.675 0.275 0.725 0.225 0.775 0.225 0.775 0.175 0.825 0.125 0.875 0.25 0.75 0.2 0.8 0.15 0.85 0.15 0.85 0.1 0.9 0.05 0.95 0.45 0.55 0.4 0.6 0.35 0.65 0.35 0.65 0.3 0.7 0.25 0.75 0.375 0.625 0.325 0.675 0.275 0.725 0.275 0.725 0.225 0.775 0.175 0.825 0.3 0.7 0.25 0.75 0.2 0.8 0.2 0.8 0.15 0.85 0.1 0.9 0.4 0.6 0.35 0.65 0.3 0.7 0.3 0.7 0.25 0.75 0.2 0.8 0.325 0.675 0.275 0.725 0.225 0.775 0.225 0.775 0.175 0.825 0.125 0.875 0.25 0.75 0.2 0.8 0.15 0.85 0.15 0.85 0.1 0.9 0.05 0.95 0.35 0.65 0.3 0.7 0.25 0.75 0.25 0.75 0.2 0.8 0.15 0.85 0.275 0.725 0.225 0.775 0.175 0.825 0.175 0.825 0.125 0.875 0.075 0.925 0.2 0.8 0.15 0.85 0.1 0.9 0.1 0.9 0.05 0.95 0 1 0.7 0.3 0.65 0.35 0.6 0.4 0.6 0.4 0.55 0.45 0.5 0.5 0.625 0.375 0.575 0.425 0.525 0.475 0.525 0.475 0.475 0.525 0.425 0.575 0.55 0.45 0.5 0.5 0.45 0.55 0.45 0.55 0.4 0.6 0.35 0.65 0.65 0.35 0.6 0.4 0.55 0.45 0.55 0.45 0.5 0.5 0.45 0.55 0.575 0.425 0.525 0.475 0.475 0.525 0.475 0.525 0.425 0.575 0.375 0.625 0.5 0.5 0.45 0.55 0.4 0.6 0.4 0.6 0.35 0.65 0.3 0.7 0.6 0.4 0.55 0.45 0.5 0.5 0.5 0.5 0.45 0.55 0.4 0.6 0.525 0.475 0.475 0.525 0.425 0.575 0.425 0.575 0.375 0.625 0.325 0.675 0.45 0.55 0.4 0.6 0.35 0.65 0.35 0.65 0.3 0.7 0.25 0.75 0.65 0.35 0.6 0.4 0.55 0.45 0.55 0.45 0.5 0.5 0.45 0.55 0.575 0.425 0.525 0.475 0.475 0.525 0.475 0.525 0.425 0.575 0.375 0.625 0.5 0.5 0.45 0.55 0.4 0.6 0.4 0.6 0.35 0.65 0.3 0.7 0.6 0.4 0.55 0.45 0.5 0.5 0.5 0.5 0.45 0.55 0.4 0.6 0.525 0.475 0.475 0.525 0.425 0.575 0.425 0.575 0.375 0.625 0.325 0.675 0.45 0.55 0.4 0.6 0.35 0.65 0.35 0.65 0.3 0.7 0.25 0.75 0.55 0.45 0.5 0.5 0.45 0.55 0.45 0.55 0.4 0.6 0.35 0.65 0.475 0.525 0.425 0.575 0.375 0.625 0.375 0.625 0.325 0.675 0.275 0.725 0.4 0.6 0.35 0.65 0.3 0.7 0.3 0.7 0.25 0.75 0.2 0.8 0.6 0.4 0.55 0.45 0.5 0.5 0.5 0.5 0.45 0.55 0.4 0.6 0.525 0.475 0.475 0.525 0.425 0.575 0.425 0.575 0.375 0.625 0.325 0.675 0.45 0.55 0.4 0.6 0.35 0.65 0.35 0.65 0.3 0.7 0.25 0.75 0.55 0.45 0.5 0.5 0.45 0.55 0.45 0.55 0.4 0.6 0.35 0.65 0.475 0.525 0.425 0.575 0.375 0.625 0.375 0.625 0.325 0.675 0.275 0.725 0.4 0.6 0.35 0.65 0.3 0.7 0.3 0.7 0.25 0.75 0.2 0.8 0.5 0.5 0.45 0.55 0.4 0.6 0.4 0.6 0.35 0.65 0.3 0.7 0.425 0.575 0.375 0.625 0.325 0.675 0.325 0.675 0.275 0.725 0.225 0.775 0.35 0.65 0.3 0.7 0.25 0.75 0.25 0.75 0.2 0.8 0.15 0.85 0.65 0.35 0.6 0.4 0.55 0.45 0.55 0.45 0.5 0.5 0.45 0.55 0.575 0.425 0.525 0.475 0.475 0.525 0.475 0.525 0.425 0.575 0.375 0.625 0.5 0.5 0.45 0.55 0.4 0.6 0.4 0.6 0.35 0.65 0.3 0.7 0.6 0.4 0.55 0.45 0.5 0.5 0.5 0.5 0.45 0.55 0.4 0.6 0.525 0.475 0.475 0.525 0.425 0.575 0.425 0.575 0.375 0.625 0.325 0.675 0.45 0.55 0.4 0.6 0.35 0.65 0.35 0.65 0.3 0.7 0.25 0.75 0.55 0.45 0.5 0.5 0.45 0.55 0.45 0.55 0.4 0.6 0.35 0.65 0.475 0.525 0.425 0.575 0.375 0.625 0.375 0.625 0.325 0.675 0.275 0.725 0.4 0.6 0.35 0.65 0.3 0.7 0.3 0.7 0.25 0.75 0.2 0.8 0.6 0.4 0.55 0.45 0.5 0.5 0.5 0.5 0.45 0.55 0.4 0.6 0.525 0.475 0.475 0.525 0.425 0.575 0.425 0.575 0.375 0.625 0.325 0.675 0.45 0.55 0.4 0.6 0.35 0.65 0.35 0.65 0.3 0.7 0.25 0.75 0.55 0.45 0.5 0.5 0.45 0.55 0.45 0.55 0.4 0.6 0.35 0.65 0.475 0.525 0.425 0.575 0.375 0.625 0.375 0.625 0.325 0.675 0.275 0.725 0.4 0.6 0.35 0.65 0.3 0.7 0.3 0.7 0.25 0.75 0.2 0.8 0.5 0.5 0.45 0.55 0.4 0.6 0.4 0.6 0.35 0.65 0.3 0.7 0.425 0.575 0.375 0.625 0.325 0.675 0.325 0.675 0.275 0.725 0.225 0.775 0.35 0.65 0.3 0.7 0.25 0.75 0.25 0.75 0.2 0.8 0.15 0.85 0.55 0.45 0.5 0.5 0.45 0.55 0.45 0.55 0.4 0.6 0.35 0.65 0.475 0.525 0.425 0.575 0.375 0.625 0.375 0.625 0.325 0.675 0.275 0.725 0.4 0.6 0.35 0.65 0.3 0.7 0.3 0.7 0.25 0.75 0.2 0.8 0.5 0.5 0.45 0.55 0.4 0.6 0.4 0.6 0.35 0.65 0.3 0.7 0.425 0.575 0.375 0.625 0.325 0.675 0.325 0.675 0.275 0.725 0.225 0.775 0.35 0.65 0.3 0.7 0.25 0.75 0.25 0.75 0.2 0.8 0.15 0.85 0.45 0.55 0.4 0.6 0.35 0.65 0.35 0.65 0.3 0.7 0.25 0.75 0.375 0.625 0.325 0.675 0.275 0.725 0.275 0.725 0.225 0.775 0.175 0.825 0.3 0.7 0.25 0.75 0.2 0.8 0.2 0.8 0.15 0.85 0.1 0.9 0.8 0.2 0.75 0.25 0.7 0.3 0.7 0.3 0.65 0.35 0.6 0.4 0.725 0.275 0.675 0.325 0.625 0.375 0.625 0.375 0.575 0.425 0.525 0.475 0.65 0.35 0.6 0.4 0.55 0.45 0.55 0.45 0.5 0.5 0.45 0.55 0.75 0.25 0.7 0.3 0.65 0.35 0.65 0.35 0.6 0.4 0.55 0.45 0.675 0.325 0.625 0.375 0.575 0.425 0.575 0.425 0.525 0.475 0.475 0.525 0.6 0.4 0.55 0.45 0.5 0.5 0.5 0.5 0.45 0.55 0.4 0.6 0.7 0.3 0.65 0.35 0.6 0.4 0.6 0.4 0.55 0.45 0.5 0.5 0.625 0.375 0.575 0.425 0.525 0.475 0.525 0.475 0.475 0.525 0.425 0.575 0.55 0.45 0.5 0.5 0.45 0.55 0.45 0.55 0.4 0.6 0.35 0.65 0.75 0.25 0.7 0.3 0.65 0.35 0.65 0.35 0.6 0.4 0.55 0.45 0.675 0.325 0.625 0.375 0.575 0.425 0.575 0.425 0.525 0.475 0.475 0.525 0.6 0.4 0.55 0.45 0.5 0.5 0.5 0.5 0.45 0.55 0.4 0.6 0.7 0.3 0.65 0.35 0.6 0.4 0.6 0.4 0.55 0.45 0.5 0.5 0.625 0.375 0.575 0.425 0.525 0.475 0.525 0.475 0.475 0.525 0.425 0.575 0.55 0.45 0.5 0.5 0.45 0.55 0.45 0.55 0.4 0.6 0.35 0.65 0.65 0.35 0.6 0.4 0.55 0.45 0.55 0.45 0.5 0.5 0.45 0.55 0.575 0.425 0.525 0.475 0.475 0.525 0.475 0.525 0.425 0.575 0.375 0.625 0.5 0.5 0.45 0.55 0.4 0.6 0.4 0.6 0.35 0.65 0.3 0.7 0.7 0.3 0.65 0.35 0.6 0.4 0.6 0.4 0.55 0.45 0.5 0.5 0.625 0.375 0.575 0.425 0.525 0.475 0.525 0.475 0.475 0.525 0.425 0.575 0.55 0.45 0.5 0.5 0.45 0.55 0.45 0.55 0.4 0.6 0.35 0.65 0.65 0.35 0.6 0.4 0.55 0.45 0.55 0.45 0.5 0.5 0.45 0.55 0.575 0.425 0.525 0.475 0.475 0.525 0.475 0.525 0.425 0.575 0.375 0.625 0.5 0.5 0.45 0.55 0.4 0.6 0.4 0.6 0.35 0.65 0.3 0.7 0.6 0.4 0.55 0.45 0.5 0.5 0.5 0.5 0.45 0.55 0.4 0.6 0.525 0.475 0.475 0.525 0.425 0.575 0.425 0.575 0.375 0.625 0.325 0.675 0.45 0.55 0.4 0.6 0.35 0.65 0.35 0.65 0.3 0.7 0.25 0.75 0.75 0.25 0.7 0.3 0.65 0.35 0.65 0.35 0.6 0.4 0.55 0.45 0.675 0.325 0.625 0.375 0.575 0.425 0.575 0.425 0.525 0.475 0.475 0.525 0.6 0.4 0.55 0.45 0.5 0.5 0.5 0.5 0.45 0.55 0.4 0.6 0.7 0.3 0.65 0.35 0.6 0.4 0.6 0.4 0.55 0.45 0.5 0.5 0.625 0.375 0.575 0.425 0.525 0.475 0.525 0.475 0.475 0.525 0.425 0.575 0.55 0.45 0.5 0.5 0.45 0.55 0.45 0.55 0.4 0.6 0.35 0.65 0.65 0.35 0.6 0.4 0.55 0.45 0.55 0.45 0.5 0.5 0.45 0.55 0.575 0.425 0.525 0.475 0.475 0.525 0.475 0.525 0.425 0.575 0.375 0.625 0.5 0.5 0.45 0.55 0.4 0.6 0.4 0.6 0.35 0.65 0.3 0.7 0.7 0.3 0.65 0.35 0.6 0.4 0.6 0.4 0.55 0.45 0.5 0.5 0.625 0.375 0.575 0.425 0.525 0.475 0.525 0.475 0.475 0.525 0.425 0.575 0.55 0.45 0.5 0.5 0.45 0.55 0.45 0.55 0.4 0.6 0.35 0.65 0.65 0.35 0.6 0.4 0.55 0.45 0.55 0.45 0.5 0.5 0.45 0.55 0.575 0.425 0.525 0.475 0.475 0.525 0.475 0.525 0.425 0.575 0.375 0.625 0.5 0.5 0.45 0.55 0.4 0.6 0.4 0.6 0.35 0.65 0.3 0.7 0.6 0.4 0.55 0.45 0.5 0.5 0.5 0.5 0.45 0.55 0.4 0.6 0.525 0.475 0.475 0.525 0.425 0.575 0.425 0.575 0.375 0.625 0.325 0.675 0.45 0.55 0.4 0.6 0.35 0.65 0.35 0.65 0.3 0.7 0.25 0.75 0.65 0.35 0.6 0.4 0.55 0.45 0.55 0.45 0.5 0.5 0.45 0.55 0.575 0.425 0.525 0.475 0.475 0.525 0.475 0.525 0.425 0.575 0.375 0.625 0.5 0.5 0.45 0.55 0.4 0.6 0.4 0.6 0.35 0.65 0.3 0.7 0.6 0.4 0.55 0.45 0.5 0.5 0.5 0.5 0.45 0.55 0.4 0.6 0.525 0.475 0.475 0.525 0.425 0.575 0.425 0.575 0.375 0.625 0.325 0.675 0.45 0.55 0.4 0.6 0.35 0.65 0.35 0.65 0.3 0.7 0.25 0.75 0.55 0.45 0.5 0.5 0.45 0.55 0.45 0.55 0.4 0.6 0.35 0.65 0.475 0.525 0.425 0.575 0.375 0.625 0.375 0.625 0.325 0.675 0.275 0.725 0.4 0.6 0.35 0.65 0.3 0.7 0.3 0.7 0.25 0.75 0.2 0.8 0.9 0.1 0.85 0.15 0.8 0.2 0.8 0.2 0.75 0.25 0.7 0.3 0.825 0.175 0.775 0.225 0.725 0.275 0.725 0.275 0.675 0.325 0.625 0.375 0.75 0.25 0.7 0.3 0.65 0.35 0.65 0.35 0.6 0.4 0.55 0.45 0.85 0.15 0.8 0.2 0.75 0.25 0.75 0.25 0.7 0.3 0.65 0.35 0.775 0.225 0.725 0.275 0.675 0.325 0.675 0.325 0.625 0.375 0.575 0.425 0.7 0.3 0.65 0.35 0.6 0.4 0.6 0.4 0.55 0.45 0.5 0.5 0.8 0.2 0.75 0.25 0.7 0.3 0.7 0.3 0.65 0.35 0.6 0.4 0.725 0.275 0.675 0.325 0.625 0.375 0.625 0.375 0.575 0.425 0.525 0.475 0.65 0.35 0.6 0.4 0.55 0.45 0.55 0.45 0.5 0.5 0.45 0.55 0.85 0.15 0.8 0.2 0.75 0.25 0.75 0.25 0.7 0.3 0.65 0.35 0.775 0.225 0.725 0.275 0.675 0.325 0.675 0.325 0.625 0.375 0.575 0.425 0.7 0.3 0.65 0.35 0.6 0.4 0.6 0.4 0.55 0.45 0.5 0.5 0.8 0.2 0.75 0.25 0.7 0.3 0.7 0.3 0.65 0.35 0.6 0.4 0.725 0.275 0.675 0.325 0.625 0.375 0.625 0.375 0.575 0.425 0.525 0.475 0.65 0.35 0.6 0.4 0.55 0.45 0.55 0.45 0.5 0.5 0.45 0.55 0.75 0.25 0.7 0.3 0.65 0.35 0.65 0.35 0.6 0.4 0.55 0.45 0.675 0.325 0.625 0.375 0.575 0.425 0.575 0.425 0.525 0.475 0.475 0.525 0.6 0.4 0.55 0.45 0.5 0.5 0.5 0.5 0.45 0.55 0.4 0.6 0.8 0.2 0.75 0.25 0.7 0.3 0.7 0.3 0.65 0.35 0.6 0.4 0.725 0.275 0.675 0.325 0.625 0.375 0.625 0.375 0.575 0.425 0.525 0.475 0.65 0.35 0.6 0.4 0.55 0.45 0.55 0.45 0.5 0.5 0.45 0.55 0.75 0.25 0.7 0.3 0.65 0.35 0.65 0.35 0.6 0.4 0.55 0.45 0.675 0.325 0.625 0.375 0.575 0.425 0.575 0.425 0.525 0.475 0.475 0.525 0.6 0.4 0.55 0.45 0.5 0.5 0.5 0.5 0.45 0.55 0.4 0.6 0.7 0.3 0.65 0.35 0.6 0.4 0.6 0.4 0.55 0.45 0.5 0.5 0.625 0.375 0.575 0.425 0.525 0.475 0.525 0.475 0.475 0.525 0.425 0.575 0.55 0.45 0.5 0.5 0.45 0.55 0.45 0.55 0.4 0.6 0.35 0.65 0.65 0.35 0.6 0.4 0.55 0.45 0.55 0.45 0.5 0.5 0.45 0.55 0.575 0.425 0.525 0.475 0.475 0.525 0.475 0.525 0.425 0.575 0.375 0.625 0.5 0.5 0.45 0.55 0.4 0.6 0.4 0.6 0.35 0.65 0.3 0.7 0.6 0.4 0.55 0.45 0.5 0.5 0.5 0.5 0.45 0.55 0.4 0.6 0.525 0.475 0.475 0.525 0.425 0.575 0.425 0.575 0.375 0.625 0.325 0.675 0.45 0.55 0.4 0.6 0.35 0.65 0.35 0.65 0.3 0.7 0.25 0.75 0.55 0.45 0.5 0.5 0.45 0.55 0.45 0.55 0.4 0.6 0.35 0.65 0.475 0.525 0.425 0.575 0.375 0.625 0.375 0.625 0.325 0.675 0.275 0.725 0.4 0.6 0.35 0.65 0.3 0.7 0.3 0.7 0.25 0.75 0.2 0.8 0.6 0.4 0.55 0.45 0.5 0.5 0.5 0.5 0.45 0.55 0.4 0.6 0.525 0.475 0.475 0.525 0.425 0.575 0.425 0.575 0.375 0.625 0.325 0.675 0.45 0.55 0.4 0.6 0.35 0.65 0.35 0.65 0.3 0.7 0.25 0.75 0.55 0.45 0.5 0.5 0.45 0.55 0.45 0.55 0.4 0.6 0.35 0.65 0.475 0.525 0.425 0.575 0.375 0.625 0.375 0.625 0.325 0.675 0.275 0.725 0.4 0.6 0.35 0.65 0.3 0.7 0.3 0.7 0.25 0.75 0.2 0.8 0.5 0.5 0.45 0.55 0.4 0.6 0.4 0.6 0.35 0.65 0.3 0.7 0.425 0.575 0.375 0.625 0.325 0.675 0.325 0.675 0.275 0.725 0.225 0.775 0.35 0.65 0.3 0.7 0.25 0.75 0.25 0.75 0.2 0.8 0.15 0.85 0.55 0.45 0.5 0.5 0.45 0.55 0.45 0.55 0.4 0.6 0.35 0.65 0.475 0.525 0.425 0.575 0.375 0.625 0.375 0.625 0.325 0.675 0.275 0.725 0.4 0.6 0.35 0.65 0.3 0.7 0.3 0.7 0.25 0.75 0.2 0.8 0.5 0.5 0.45 0.55 0.4 0.6 0.4 0.6 0.35 0.65 0.3 0.7 0.425 0.575 0.375 0.625 0.325 0.675 0.325 0.675 0.275 0.725 0.225 0.775 0.35 0.65 0.3 0.7 0.25 0.75 0.25 0.75 0.2 0.8 0.15 0.85 0.45 0.55 0.4 0.6 0.35 0.65 0.35 0.65 0.3 0.7 0.25 0.75 0.375 0.625 0.325 0.675 0.275 0.725 0.275 0.725 0.225 0.775 0.175 0.825 0.3 0.7 0.25 0.75 0.2 0.8 0.2 0.8 0.15 0.85 0.1 0.9 0.8 0.2 0.75 0.25 0.7 0.3 0.7 0.3 0.65 0.35 0.6 0.4 0.725 0.275 0.675 0.325 0.625 0.375 0.625 0.375 0.575 0.425 0.525 0.475 0.65 0.35 0.6 0.4 0.55 0.45 0.55 0.45 0.5 0.5 0.45 0.55 0.75 0.25 0.7 0.3 0.65 0.35 0.65 0.35 0.6 0.4 0.55 0.45 0.675 0.325 0.625 0.375 0.575 0.425 0.575 0.425 0.525 0.475 0.475 0.525 0.6 0.4 0.55 0.45 0.5 0.5 0.5 0.5 0.45 0.55 0.4 0.6 0.7 0.3 0.65 0.35 0.6 0.4 0.6 0.4 0.55 0.45 0.5 0.5 0.625 0.375 0.575 0.425 0.525 0.475 0.525 0.475 0.475 0.525 0.425 0.575 0.55 0.45 0.5 0.5 0.45 0.55 0.45 0.55 0.4 0.6 0.35 0.65 0.75 0.25 0.7 0.3 0.65 0.35 0.65 0.35 0.6 0.4 0.55 0.45 0.675 0.325 0.625 0.375 0.575 0.425 0.575 0.425 0.525 0.475 0.475 0.525 0.6 0.4 0.55 0.45 0.5 0.5 0.5 0.5 0.45 0.55 0.4 0.6 0.7 0.3 0.65 0.35 0.6 0.4 0.6 0.4 0.55 0.45 0.5 0.5 0.625 0.375 0.575 0.425 0.525 0.475 0.525 0.475 0.475 0.525 0.425 0.575 0.55 0.45 0.5 0.5 0.45 0.55 0.45 0.55 0.4 0.6 0.35 0.65 0.65 0.35 0.6 0.4 0.55 0.45 0.55 0.45 0.5 0.5 0.45 0.55 0.575 0.425 0.525 0.475 0.475 0.525 0.475 0.525 0.425 0.575 0.375 0.625 0.5 0.5 0.45 0.55 0.4 0.6 0.4 0.6 0.35 0.65 0.3 0.7 0.7 0.3 0.65 0.35 0.6 0.4 0.6 0.4 0.55 0.45 0.5 0.5 0.625 0.375 0.575 0.425 0.525 0.475 0.525 0.475 0.475 0.525 0.425 0.575 0.55 0.45 0.5 0.5 0.45 0.55 0.45 0.55 0.4 0.6 0.35 0.65 0.65 0.35 0.6 0.4 0.55 0.45 0.55 0.45 0.5 0.5 0.45 0.55 0.575 0.425 0.525 0.475 0.475 0.525 0.475 0.525 0.425 0.575 0.375 0.625 0.5 0.5 0.45 0.55 0.4 0.6 0.4 0.6 0.35 0.65 0.3 0.7 0.6 0.4 0.55 0.45 0.5 0.5 0.5 0.5 0.45 0.55 0.4 0.6 0.525 0.475 0.475 0.525 0.425 0.575 0.425 0.575 0.375 0.625 0.325 0.675 0.45 0.55 0.4 0.6 0.35 0.65 0.35 0.65 0.3 0.7 0.25 0.75 0.75 0.25 0.7 0.3 0.65 0.35 0.65 0.35 0.6 0.4 0.55 0.45 0.675 0.325 0.625 0.375 0.575 0.425 0.575 0.425 0.525 0.475 0.475 0.525 0.6 0.4 0.55 0.45 0.5 0.5 0.5 0.5 0.45 0.55 0.4 0.6 0.7 0.3 0.65 0.35 0.6 0.4 0.6 0.4 0.55 0.45 0.5 0.5 0.625 0.375 0.575 0.425 0.525 0.475 0.525 0.475 0.475 0.525 0.425 0.575 0.55 0.45 0.5 0.5 0.45 0.55 0.45 0.55 0.4 0.6 0.35 0.65 0.65 0.35 0.6 0.4 0.55 0.45 0.55 0.45 0.5 0.5 0.45 0.55 0.575 0.425 0.525 0.475 0.475 0.525 0.475 0.525 0.425 0.575 0.375 0.625 0.5 0.5 0.45 0.55 0.4 0.6 0.4 0.6 0.35 0.65 0.3 0.7 0.7 0.3 0.65 0.35 0.6 0.4 0.6 0.4 0.55 0.45 0.5 0.5 0.625 0.375 0.575 0.425 0.525 0.475 0.525 0.475 0.475 0.525 0.425 0.575 0.55 0.45 0.5 0.5 0.45 0.55 0.45 0.55 0.4 0.6 0.35 0.65 0.65 0.35 0.6 0.4 0.55 0.45 0.55 0.45 0.5 0.5 0.45 0.55 0.575 0.425 0.525 0.475 0.475 0.525 0.475 0.525 0.425 0.575 0.375 0.625 0.5 0.5 0.45 0.55 0.4 0.6 0.4 0.6 0.35 0.65 0.3 0.7 0.6 0.4 0.55 0.45 0.5 0.5 0.5 0.5 0.45 0.55 0.4 0.6 0.525 0.475 0.475 0.525 0.425 0.575 0.425 0.575 0.375 0.625 0.325 0.675 0.45 0.55 0.4 0.6 0.35 0.65 0.35 0.65 0.3 0.7 0.25 0.75 0.65 0.35 0.6 0.4 0.55 0.45 0.55 0.45 0.5 0.5 0.45 0.55 0.575 0.425 0.525 0.475 0.475 0.525 0.475 0.525 0.425 0.575 0.375 0.625 0.5 0.5 0.45 0.55 0.4 0.6 0.4 0.6 0.35 0.65 0.3 0.7 0.6 0.4 0.55 0.45 0.5 0.5 0.5 0.5 0.45 0.55 0.4 0.6 0.525 0.475 0.475 0.525 0.425 0.575 0.425 0.575 0.375 0.625 0.325 0.675 0.45 0.55 0.4 0.6 0.35 0.65 0.35 0.65 0.3 0.7 0.25 0.75 0.55 0.45 0.5 0.5 0.45 0.55 0.45 0.55 0.4 0.6 0.35 0.65 0.475 0.525 0.425 0.575 0.375 0.625 0.375 0.625 0.325 0.675 0.275 0.725 0.4 0.6 0.35 0.65 0.3 0.7 0.3 0.7 0.25 0.75 0.2 0.8 0.9 0.1 0.85 0.15 0.8 0.2 0.8 0.2 0.75 0.25 0.7 0.3 0.825 0.175 0.775 0.225 0.725 0.275 0.725 0.275 0.675 0.325 0.625 0.375 0.75 0.25 0.7 0.3 0.65 0.35 0.65 0.35 0.6 0.4 0.55 0.45 0.85 0.15 0.8 0.2 0.75 0.25 0.75 0.25 0.7 0.3 0.65 0.35 0.775 0.225 0.725 0.275 0.675 0.325 0.675 0.325 0.625 0.375 0.575 0.425 0.7 0.3 0.65 0.35 0.6 0.4 0.6 0.4 0.55 0.45 0.5 0.5 0.8 0.2 0.75 0.25 0.7 0.3 0.7 0.3 0.65 0.35 0.6 0.4 0.725 0.275 0.675 0.325 0.625 0.375 0.625 0.375 0.575 0.425 0.525 0.475 0.65 0.35 0.6 0.4 0.55 0.45 0.55 0.45 0.5 0.5 0.45 0.55 0.85 0.15 0.8 0.2 0.75 0.25 0.75 0.25 0.7 0.3 0.65 0.35 0.775 0.225 0.725 0.275 0.675 0.325 0.675 0.325 0.625 0.375 0.575 0.425 0.7 0.3 0.65 0.35 0.6 0.4 0.6 0.4 0.55 0.45 0.5 0.5 0.8 0.2 0.75 0.25 0.7 0.3 0.7 0.3 0.65 0.35 0.6 0.4 0.725 0.275 0.675 0.325 0.625 0.375 0.625 0.375 0.575 0.425 0.525 0.475 0.65 0.35 0.6 0.4 0.55 0.45 0.55 0.45 0.5 0.5 0.45 0.55 0.75 0.25 0.7 0.3 0.65 0.35 0.65 0.35 0.6 0.4 0.55 0.45 0.675 0.325 0.625 0.375 0.575 0.425 0.575 0.425 0.525 0.475 0.475 0.525 0.6 0.4 0.55 0.45 0.5 0.5 0.5 0.5 0.45 0.55 0.4 0.6 0.8 0.2 0.75 0.25 0.7 0.3 0.7 0.3 0.65 0.35 0.6 0.4 0.725 0.275 0.675 0.325 0.625 0.375 0.625 0.375 0.575 0.425 0.525 0.475 0.65 0.35 0.6 0.4 0.55 0.45 0.55 0.45 0.5 0.5 0.45 0.55 0.75 0.25 0.7 0.3 0.65 0.35 0.65 0.35 0.6 0.4 0.55 0.45 0.675 0.325 0.625 0.375 0.575 0.425 0.575 0.425 0.525 0.475 0.475 0.525 0.6 0.4 0.55 0.45 0.5 0.5 0.5 0.5 0.45 0.55 0.4 0.6 0.7 0.3 0.65 0.35 0.6 0.4 0.6 0.4 0.55 0.45 0.5 0.5 0.625 0.375 0.575 0.425 0.525 0.475 0.525 0.475 0.475 0.525 0.425 0.575 0.55 0.45 0.5 0.5 0.45 0.55 0.45 0.55 0.4 0.6 0.35 0.65 0.85 0.15 0.8 0.2 0.75 0.25 0.75 0.25 0.7 0.3 0.65 0.35 0.775 0.225 0.725 0.275 0.675 0.325 0.675 0.325 0.625 0.375 0.575 0.425 0.7 0.3 0.65 0.35 0.6 0.4 0.6 0.4 0.55 0.45 0.5 0.5 0.8 0.2 0.75 0.25 0.7 0.3 0.7 0.3 0.65 0.35 0.6 0.4 0.725 0.275 0.675 0.325 0.625 0.375 0.625 0.375 0.575 0.425 0.525 0.475 0.65 0.35 0.6 0.4 0.55 0.45 0.55 0.45 0.5 0.5 0.45 0.55 0.75 0.25 0.7 0.3 0.65 0.35 0.65 0.35 0.6 0.4 0.55 0.45 0.675 0.325 0.625 0.375 0.575 0.425 0.575 0.425 0.525 0.475 0.475 0.525 0.6 0.4 0.55 0.45 0.5 0.5 0.5 0.5 0.45 0.55 0.4 0.6 0.8 0.2 0.75 0.25 0.7 0.3 0.7 0.3 0.65 0.35 0.6 0.4 0.725 0.275 0.675 0.325 0.625 0.375 0.625 0.375 0.575 0.425 0.525 0.475 0.65 0.35 0.6 0.4 0.55 0.45 0.55 0.45 0.5 0.5 0.45 0.55 0.75 0.25 0.7 0.3 0.65 0.35 0.65 0.35 0.6 0.4 0.55 0.45 0.675 0.325 0.625 0.375 0.575 0.425 0.575 0.425 0.525 0.475 0.475 0.525 0.6 0.4 0.55 0.45 0.5 0.5 0.5 0.5 0.45 0.55 0.4 0.6 0.7 0.3 0.65 0.35 0.6 0.4 0.6 0.4 0.55 0.45 0.5 0.5 0.625 0.375 0.575 0.425 0.525 0.475 0.525 0.475 0.475 0.525 0.425 0.575 0.55 0.45 0.5 0.5 0.45 0.55 0.45 0.55 0.4 0.6 0.35 0.65 0.75 0.25 0.7 0.3 0.65 0.35 0.65 0.35 0.6 0.4 0.55 0.45 0.675 0.325 0.625 0.375 0.575 0.425 0.575 0.425 0.525 0.475 0.475 0.525 0.6 0.4 0.55 0.45 0.5 0.5 0.5 0.5 0.45 0.55 0.4 0.6 0.7 0.3 0.65 0.35 0.6 0.4 0.6 0.4 0.55 0.45 0.5 0.5 0.625 0.375 0.575 0.425 0.525 0.475 0.525 0.475 0.475 0.525 0.425 0.575 0.55 0.45 0.5 0.5 0.45 0.55 0.45 0.55 0.4 0.6 0.35 0.65 0.65 0.35 0.6 0.4 0.55 0.45 0.55 0.45 0.5 0.5 0.45 0.55 0.575 0.425 0.525 0.475 0.475 0.525 0.475 0.525 0.425 0.575 0.375 0.625 0.5 0.5 0.45 0.55 0.4 0.6 0.4 0.6 0.35 0.65 0.3 0.7 1 0 0.95 0.05 0.9 0.1 0.9 0.1 0.85 0.15 0.8 0.2 0.925 0.075 0.875 0.125 0.825 0.175 0.825 0.175 0.775 0.225 0.725 0.275 0.85 0.15 0.8 0.2 0.75 0.25 0.75 0.25 0.7 0.3 0.65 0.35 0.95 0.05 0.9 0.1 0.85 0.15 0.85 0.15 0.8 0.2 0.75 0.25 0.875 0.125 0.825 0.175 0.775 0.225 0.775 0.225 0.725 0.275 0.675 0.325 0.8 0.2 0.75 0.25 0.7 0.3 0.7 0.3 0.65 0.35 0.6 0.4 0.9 0.1 0.85 0.15 0.8 0.2 0.8 0.2 0.75 0.25 0.7 0.3 0.825 0.175 0.775 0.225 0.725 0.275 0.725 0.275 0.675 0.325 0.625 0.375 0.75 0.25 0.7 0.3 0.65 0.35 0.65 0.35 0.6 0.4 0.55 0.45 0.95 0.05 0.9 0.1 0.85 0.15 0.85 0.15 0.8 0.2 0.75 0.25 0.875 0.125 0.825 0.175 0.775 0.225 0.775 0.225 0.725 0.275 0.675 0.325 0.8 0.2 0.75 0.25 0.7 0.3 0.7 0.3 0.65 0.35 0.6 0.4 0.9 0.1 0.85 0.15 0.8 0.2 0.8 0.2 0.75 0.25 0.7 0.3 0.825 0.175 0.775 0.225 0.725 0.275 0.725 0.275 0.675 0.325 0.625 0.375 0.75 0.25 0.7 0.3 0.65 0.35 0.65 0.35 0.6 0.4 0.55 0.45 0.85 0.15 0.8 0.2 0.75 0.25 0.75 0.25 0.7 0.3 0.65 0.35 0.775 0.225 0.725 0.275 0.675 0.325 0.675 0.325 0.625 0.375 0.575 0.425 0.7 0.3 0.65 0.35 0.6 0.4 0.6 0.4 0.55 0.45 0.5 0.5 0.9 0.1 0.85 0.15 0.8 0.2 0.8 0.2 0.75 0.25 0.7 0.3 0.825 0.175 0.775 0.225 0.725 0.275 0.725 0.275 0.675 0.325 0.625 0.375 0.75 0.25 0.7 0.3 0.65 0.35 0.65 0.35 0.6 0.4 0.55 0.45 0.85 0.15 0.8 0.2 0.75 0.25 0.75 0.25 0.7 0.3 0.65 0.35 0.775 0.225 0.725 0.275 0.675 0.325 0.675 0.325 0.625 0.375 0.575 0.425 0.7 0.3 0.65 0.35 0.6 0.4 0.6 0.4 0.55 0.45 0.5 0.5 0.8 0.2 0.75 0.25 0.7 0.3 0.7 0.3 0.65 0.35 0.6 0.4 0.725 0.275 0.675 0.325 0.625 0.375 0.625 0.375 0.575 0.425 0.525 0.475 0.65 0.35 0.6 0.4 0.55 0.45 0.55 0.45 0.5 0.5 0.45 0.55</probabilities>
			<property id="Order">Topo, Nat, prot, frag, dis, inv</property>
			<property id="Imp">2, 4, 3, 2, 4, 4</property>
			<property id="Dir">1, 1, 1, 0, 0, 0</property>
		</cpt>
		<cpt id="Slope_Mig_Zone">
			<state id="Small" />
			<state id="Medium" />
			<state id="Large" />
			<probabilities>0.3333 0.3333 0.3334</probabilities>
		</cpt>
		<cpt id="Aspect_Mig_Zone">
			<state id="Small" />
			<state id="Medium" />
			<state id="Large" />
			<probabilities>0.3333 0.3333 0.3334</probabilities>
		</cpt>
		<cpt id="Topo_divesity_Mig">
			<state id="Small" />
			<state id="Large" />
			<parents>Slope_Mig_Zone Aspect_Mig_Zone</parents>
			<probabilities>1 0 0.833333333 0.166666667 0.666666667 0.333333333 0.666666667 0.333333333 0.5 0.5 0.333333333 0.666666667 0.333333333 0.666666667 0.166666667 0.833333333 0 1</probabilities>
		</cpt>
		<cpt id="Native_cover_in_Mig_zone">
			<state id="Small" />
			<state id="Medium" />
			<state id="Large" />
			<probabilities>0.3333 0.3333 0.3334</probabilities>
		</cpt>
		<cpt id="Change_Mig_Zone_under_protection">
			<state id="Decrease" />
			<state id="Stasis" />
			<state id="Increase" />
			<probabilities>0.3333 0.3333 0.3334</probabilities>
		</cpt>
		<cpt id="Mig_Zone_in_Active_management">
			<state id="Small" />
			<state id="Medium" />
			<state id="Large" />
			<probabilities>0.3333 0.3333 0.3334</probabilities>
		</cpt>
		<cpt id="Mig_Zone_under_Protective_designation">
			<state id="Small" />
			<state id="Medium" />
			<state id="Large" />
			<probabilities>0.3333 0.3333 0.3334</probabilities>
		</cpt>
		<cpt id="x_Mig_Zone_in_ungulate_free_areas">
			<state id="Small" />
			<state id="Medium" />
			<state id="Large" />
			<probabilities>0.3333 0.3333 0.3334</probabilities>
		</cpt>
		<cpt id="x_protected_areas_in_Mig_Zone">
			<state id="Small" />
			<state id="Large" />
			<parents>Change_Mig_Zone_under_protection Mig_Zone_in_Active_management Mig_Zone_under_Protective_designation x_Mig_Zone_in_ungulate_free_areas</parents>
			<probabilities>1 0 0.875 0.125 0.75 0.25 0.833333333 0.166666667 0.708333333 0.291666667 0.583333333 0.416666667 0.666666667 0.333333333 0.541666667 0.458333333 0.416666667 0.583333333 0.916666667 0.083333333 0.791666667 0.208333333 0.666666667 0.333333333 0.75 0.25 0.625 0.375 0.5 0.5 0.583333333 0.416666667 0.458333333 0.541666667 0.333333333 0.666666667 0.833333333 0.166666667 0.708333333 0.291666667 0.583333333 0.416666667 0.666666667 0.333333333 0.541666667 0.458333333 0.416666667 0.583333333 0.5 0.5 0.375 0.625 0.25 0.75 0.875 0.125 0.75 0.25 0.625 0.375 0.708333333 0.291666667 0.583333333 0.416666667 0.458333333 0.541666667 0.541666667 0.458333333 0.416666667 0.583333333 0.291666667 0.708333333 0.791666667 0.208333333 0.666666667 0.333333333 0.541666667 0.458333333 0.625 0.375 0.5 0.5 0.375 0.625 0.458333333 0.541666667 0.333333333 0.666666667 0.208333333 0.791666667 0.708333333 0.291666667 0.583333333 0.416666667 0.458333333 0.541666667 0.541666667 0.458333333 0.416666667 0.583333333 0.291666667 0.708333333 0.375 0.625 0.25 0.75 0.125 0.875 0.75 0.25 0.625 0.375 0.5 0.5 0.583333333 0.416666667 0.458333333 0.541666667 0.333333333 0.666666667 0.416666667 0.583333333 0.291666667 0.708333333 0.166666667 0.833333333 0.666666667 0.333333333 0.541666667 0.458333333 0.416666667 0.583333333 0.5 0.5 0.375 0.625 0.25 0.75 0.333333333 0.666666667 0.208333333 0.791666667 0.083333333 0.916666667 0.583333333 0.416666667 0.458333333 0.541666667 0.333333333 0.666666667 0.416666667 0.583333333 0.291666667 0.708333333 0.166666667 0.833333333 0.25 0.75 0.125 0.875 0 1</probabilities>
		</cpt>
		<cpt id="Habitat_degrade_by_disease_in_Mig_Zone">
			<state id="Small" />
			<state id="Medium" />
			<state id="Large" />
			<probabilities>0.3333 0.3333 0.3334</probabilities>
		</cpt>
		<cpt id="x_Mig_Zone_overlap_with_key_detrimental_invasive">
			<state id="Small" />
			<state id="Medium" />
			<state id="Large" />
			<probabilities>0.3333 0.3333 0.3334</probabilities>
		</cpt>
		<cpt id="x_Mig_Zone_near_TWI">
			<state id="Small" />
			<state id="Medium" />
			<state id="Large" />
			<probabilities>0.3333 0.3333 0.3334</probabilities>
		</cpt>
		<cpt id="x_Mig_Zone_near_cloud_base_elevation">
			<state id="Small" />
			<state id="Medium" />
			<state id="Large" />
			<probabilities>0.3333 0.3333 0.3334</probabilities>
		</cpt>
		<cpt id="x_of_Mig_Zone_in_ecotone_areas">
			<state id="Small" />
			<state id="Medium" />
			<state id="Large" />
			<probabilities>0.3333 0.3333 0.3334</probabilities>
		</cpt>
		<cpt id="Mig_Zone_Transition_zones">
			<state id="Small" />
			<state id="Large" />
			<parents>x_Mig_Zone_near_TWI x_Mig_Zone_near_cloud_base_elevation x_of_Mig_Zone_in_ecotone_areas</parents>
			<probabilities>0.5 0.5 0.5 0.5 0.5 0.5 0.5 0.5 0.5 0.5 0.5 0.5 0.5 0.5 0.5 0.5 0.5 0.5 0.5 0.5 0.5 0.5 0.5 0.5 0.5 0.5 0.5 0.5 0.5 0.5 0.5 0.5 0.5 0.5 0.5 0.5 0.5 0.5 0.5 0.5 0.5 0.5 0.5 0.5 0.5 0.5 0.5 0.5 0.5 0.5 0.5 0.5 0.5 0.5</probabilities>
		</cpt>
		<cpt id="x_Mig_in_novel_lost_climate">
			<state id="Small" />
			<state id="Medium" />
			<state id="Large" />
			<probabilities>0.3333 0.3333 0.3334</probabilities>
		</cpt>
		<cpt id="Average_slope_within_MG">
			<state id="Low" />
			<state id="Medium" />
			<state id="High" />
			<probabilities>0.33333 0.33333 0.33334</probabilities>
		</cpt>
		<cpt id="Average_ppt_gradient_within_MG">
			<state id="Low" />
			<state id="Medium" />
			<state id="High" />
			<probabilities>0.33333 0.33333 0.33334</probabilities>
		</cpt>
		<cpt id="Climate_change_velocity_in_MG">
			<state id="Low" />
			<state id="High" />
			<parents>Average_slope_within_MG Average_ppt_gradient_within_MG</parents>
			<probabilities>1 0 0.75 0.25 0.5 0.5 0.75 0.25 0.5 0.5 0.25 0.75 0.5 0.5 0.25 0.75 0 1</probabilities>
		</cpt>
		<cpt id="Mig_Zone_Habitat_qual">
			<state id="Favorable" />
			<state id="Unfavorable" />
			<parents>Persistence_in_invaded_landscape Topo_divesity_Mig Native_cover_in_Mig_zone x_protected_areas_in_Mig_Zone Mig_fragmentation Habitat_degrade_by_disease_in_Mig_Zone x_Mig_Zone_overlap_with_key_detrimental_invasive Mig_Zone_Transition_zones x_Mig_in_novel_lost_climate Climate_change_velocity_in_MG</parents>
			<probabilities>0.5217391300000001 0.47826087 0.608695652 0.391304348 0.47826087 0.5217391300000001 0.565217391 0.434782609 0.434782609 0.565217391 0.5217391300000001 0.47826087 0.434782609 0.565217391 0.5217391300000001 0.47826087 0.391304348 0.608695652 0.47826087 0.5217391300000001 0.347826087 0.6521739130000001 0.434782609 0.565217391 0.456521739 0.543478261 0.543478261 0.456521739 0.413043478 0.586956522 0.5 0.5 0.369565217 0.630434783 0.456521739 0.543478261 0.369565217 0.630434783 0.456521739 0.543478261 0.326086957 0.673913043 0.413043478 0.586956522 0.282608696 0.717391304 0.369565217 0.630434783 0.391304348 0.608695652 0.47826087 0.5217391300000001 0.347826087 0.6521739130000001 0.434782609 0.565217391 0.304347826 0.695652174 0.391304348 0.608695652 0.304347826 0.695652174 0.391304348 0.608695652 0.260869565 0.739130435 0.347826087 0.6521739130000001 0.217391304 0.7826086960000001 0.304347826 0.695652174 0.47826087 0.5217391300000001 0.565217391 0.434782609 0.434782609 0.565217391 0.5217391300000001 0.47826087 0.391304348 0.608695652 0.47826087 0.5217391300000001 0.391304348 0.608695652 0.47826087 0.5217391300000001 0.347826087 0.6521739130000001 0.434782609 0.565217391 0.304347826 0.695652174 0.391304348 0.608695652 0.413043478 0.586956522 0.5 0.5 0.369565217 0.630434783 0.456521739 0.543478261 0.326086957 0.673913043 0.413043478 0.586956522 0.326086957 0.673913043 0.413043478 0.586956522 0.282608696 0.717391304 0.369565217 0.630434783 0.239130435 0.760869565 0.326086957 0.673913043 0.347826087 0.6521739130000001 0.434782609 0.565217391 0.304347826 0.695652174 0.391304348 0.608695652 0.260869565 0.739130435 0.347826087 0.6521739130000001 0.260869565 0.739130435 0.347826087 0.6521739130000001 0.217391304 0.7826086960000001 0.304347826 0.695652174 0.173913043 0.826086957 0.260869565 0.739130435 0.434782609 0.565217391 0.5217391300000001 0.47826087 0.391304348 0.608695652 0.47826087 0.5217391300000001 0.347826087 0.6521739130000001 0.434782609 0.565217391 0.347826087 0.6521739130000001 0.434782609 0.565217391 0.304347826 0.695652174 0.391304348 0.608695652 0.260869565 0.739130435 0.347826087 0.6521739130000001 0.369565217 0.630434783 0.456521739 0.543478261 0.326086957 0.673913043 0.413043478 0.586956522 0.282608696 0.717391304 0.369565217 0.630434783 0.282608696 0.717391304 0.369565217 0.630434783 0.239130435 0.760869565 0.326086957 0.673913043 0.195652174 0.804347826 0.282608696 0.717391304 0.304347826 0.695652174 0.391304348 0.608695652 0.260869565 0.739130435 0.347826087 0.6521739130000001 0.217391304 0.7826086960000001 0.304347826 0.695652174 0.217391304 0.7826086960000001 0.304347826 0.695652174 0.173913043 0.826086957 0.260869565 0.739130435 0.130434783 0.869565217 0.217391304 0.7826086960000001 0.456521739 0.543478261 0.543478261 0.456521739 0.413043478 0.586956522 0.5 0.5 0.369565217 0.630434783 0.456521739 0.543478261 0.369565217 0.630434783 0.456521739 0.543478261 0.326086957 0.673913043 0.413043478 0.586956522 0.282608696 0.717391304 0.369565217 0.630434783 0.391304348 0.608695652 0.47826087 0.5217391300000001 0.347826087 0.6521739130000001 0.434782609 0.565217391 0.304347826 0.695652174 0.391304348 0.608695652 0.304347826 0.695652174 0.391304348 0.608695652 0.260869565 0.739130435 0.347826087 0.6521739130000001 0.217391304 0.7826086960000001 0.304347826 0.695652174 0.326086957 0.673913043 0.413043478 0.586956522 0.282608696 0.717391304 0.369565217 0.630434783 0.239130435 0.760869565 0.326086957 0.673913043 0.239130435 0.760869565 0.326086957 0.673913043 0.195652174 0.804347826 0.282608696 0.717391304 0.152173913 0.847826087 0.239130435 0.760869565 0.413043478 0.586956522 0.5 0.5 0.369565217 0.630434783 0.456521739 0.543478261 0.326086957 0.673913043 0.413043478 0.586956522 0.326086957 0.673913043 0.413043478 0.586956522 0.282608696 0.717391304 0.369565217 0.630434783 0.239130435 0.760869565 0.326086957 0.673913043 0.347826087 0.6521739130000001 0.434782609 0.565217391 0.304347826 0.695652174 0.391304348 0.608695652 0.260869565 0.739130435 0.347826087 0.6521739130000001 0.260869565 0.739130435 0.347826087 0.6521739130000001 0.217391304 0.7826086960000001 0.304347826 0.695652174 0.173913043 0.826086957 0.260869565 0.739130435 0.282608696 0.717391304 0.369565217 0.630434783 0.239130435 0.760869565 0.326086957 0.673913043 0.195652174 0.804347826 0.282608696 0.717391304 0.195652174 0.804347826 0.282608696 0.717391304 0.152173913 0.847826087 0.239130435 0.760869565 0.108695652 0.891304348 0.195652174 0.804347826 0.369565217 0.630434783 0.456521739 0.543478261 0.326086957 0.673913043 0.413043478 0.586956522 0.282608696 0.717391304 0.369565217 0.630434783 0.282608696 0.717391304 0.369565217 0.630434783 0.239130435 0.760869565 0.326086957 0.673913043 0.195652174 0.804347826 0.282608696 0.717391304 0.304347826 0.695652174 0.391304348 0.608695652 0.260869565 0.739130435 0.347826087 0.6521739130000001 0.217391304 0.7826086960000001 0.304347826 0.695652174 0.217391304 0.7826086960000001 0.304347826 0.695652174 0.173913043 0.826086957 0.260869565 0.739130435 0.130434783 0.869565217 0.217391304 0.7826086960000001 0.239130435 0.760869565 0.326086957 0.673913043 0.195652174 0.804347826 0.282608696 0.717391304 0.152173913 0.847826087 0.239130435 0.760869565 0.152173913 0.847826087 0.239130435 0.760869565 0.108695652 0.891304348 0.195652174 0.804347826 0.065217391 0.934782609 0.152173913 0.847826087 0.391304348 0.608695652 0.47826087 0.5217391300000001 0.347826087 0.6521739130000001 0.434782609 0.565217391 0.304347826 0.695652174 0.391304348 0.608695652 0.304347826 0.695652174 0.391304348 0.608695652 0.260869565 0.739130435 0.347826087 0.6521739130000001 0.217391304 0.7826086960000001 0.304347826 0.695652174 0.326086957 0.673913043 0.413043478 0.586956522 0.282608696 0.717391304 0.369565217 0.630434783 0.239130435 0.760869565 0.326086957 0.673913043 0.239130435 0.760869565 0.326086957 0.673913043 0.195652174 0.804347826 0.282608696 0.717391304 0.152173913 0.847826087 0.239130435 0.760869565 0.260869565 0.739130435 0.347826087 0.6521739130000001 0.217391304 0.7826086960000001 0.304347826 0.695652174 0.173913043 0.826086957 0.260869565 0.739130435 0.173913043 0.826086957 0.260869565 0.739130435 0.130434783 0.869565217 0.217391304 0.7826086960000001 0.08695652199999999 0.913043478 0.173913043 0.826086957 0.347826087 0.6521739130000001 0.434782609 0.565217391 0.304347826 0.695652174 0.391304348 0.608695652 0.260869565 0.739130435 0.347826087 0.6521739130000001 0.260869565 0.739130435 0.347826087 0.6521739130000001 0.217391304 0.7826086960000001 0.304347826 0.695652174 0.173913043 0.826086957 0.260869565 0.739130435 0.282608696 0.717391304 0.369565217 0.630434783 0.239130435 0.760869565 0.326086957 0.673913043 0.195652174 0.804347826 0.282608696 0.717391304 0.195652174 0.804347826 0.282608696 0.717391304 0.152173913 0.847826087 0.239130435 0.760869565 0.108695652 0.891304348 0.195652174 0.804347826 0.217391304 0.7826086960000001 0.304347826 0.695652174 0.173913043 0.826086957 0.260869565 0.739130435 0.130434783 0.869565217 0.217391304 0.7826086960000001 0.130434783 0.869565217 0.217391304 0.7826086960000001 0.08695652199999999 0.913043478 0.173913043 0.826086957 0.043478261 0.956521739 0.130434783 0.869565217 0.304347826 0.695652174 0.391304348 0.608695652 0.260869565 0.739130435 0.347826087 0.6521739130000001 0.217391304 0.7826086960000001 0.304347826 0.695652174 0.217391304 0.7826086960000001 0.304347826 0.695652174 0.173913043 0.826086957 0.260869565 0.739130435 0.130434783 0.869565217 0.217391304 0.7826086960000001 0.239130435 0.760869565 0.326086957 0.673913043 0.195652174 0.804347826 0.282608696 0.717391304 0.152173913 0.847826087 0.239130435 0.760869565 0.152173913 0.847826087 0.239130435 0.760869565 0.108695652 0.891304348 0.195652174 0.804347826 0.065217391 0.934782609 0.152173913 0.847826087 0.173913043 0.826086957 0.260869565 0.739130435 0.130434783 0.869565217 0.217391304 0.7826086960000001 0.08695652199999999 0.913043478 0.173913043 0.826086957 0.08695652199999999 0.913043478 0.173913043 0.826086957 0.043478261 0.956521739 0.130434783 0.869565217 0 1 0.08695652199999999 0.913043478 0.6521739130000001 0.347826087 0.739130435 0.260869565 0.608695652 0.391304348 0.695652174 0.304347826 0.565217391 0.434782609 0.6521739130000001 0.347826087 0.565217391 0.434782609 0.6521739130000001 0.347826087 0.5217391300000001 0.47826087 0.608695652 0.391304348 0.47826087 0.5217391300000001 0.565217391 0.434782609 0.586956522 0.413043478 0.673913043 0.326086957 0.543478261 0.456521739 0.630434783 0.369565217 0.5 0.5 0.586956522 0.413043478 0.5 0.5 0.586956522 0.413043478 0.456521739 0.543478261 0.543478261 0.456521739 0.413043478 0.586956522 0.5 0.5 0.5217391300000001 0.47826087 0.608695652 0.391304348 0.47826087 0.5217391300000001 0.565217391 0.434782609 0.434782609 0.565217391 0.5217391300000001 0.47826087 0.434782609 0.565217391 0.5217391300000001 0.47826087 0.391304348 0.608695652 0.47826087 0.5217391300000001 0.347826087 0.6521739130000001 0.434782609 0.565217391 0.608695652 0.391304348 0.695652174 0.304347826 0.565217391 0.434782609 0.6521739130000001 0.347826087 0.5217391300000001 0.47826087 0.608695652 0.391304348 0.5217391300000001 0.47826087 0.608695652 0.391304348 0.47826087 0.5217391300000001 0.565217391 0.434782609 0.434782609 0.565217391 0.5217391300000001 0.47826087 0.543478261 0.456521739 0.630434783 0.369565217 0.5 0.5 0.586956522 0.413043478 0.456521739 0.543478261 0.543478261 0.456521739 0.456521739 0.543478261 0.543478261 0.456521739 0.413043478 0.586956522 0.5 0.5 0.369565217 0.630434783 0.456521739 0.543478261 0.47826087 0.5217391300000001 0.565217391 0.434782609 0.434782609 0.565217391 0.5217391300000001 0.47826087 0.391304348 0.608695652 0.47826087 0.5217391300000001 0.391304348 0.608695652 0.47826087 0.5217391300000001 0.347826087 0.6521739130000001 0.434782609 0.565217391 0.304347826 0.695652174 0.391304348 0.608695652 0.565217391 0.434782609 0.6521739130000001 0.347826087 0.5217391300000001 0.47826087 0.608695652 0.391304348 0.47826087 0.5217391300000001 0.565217391 0.434782609 0.47826087 0.5217391300000001 0.565217391 0.434782609 0.434782609 0.565217391 0.5217391300000001 0.47826087 0.391304348 0.608695652 0.47826087 0.5217391300000001 0.5 0.5 0.586956522 0.413043478 0.456521739 0.543478261 0.543478261 0.456521739 0.413043478 0.586956522 0.5 0.5 0.413043478 0.586956522 0.5 0.5 0.369565217 0.630434783 0.456521739 0.543478261 0.326086957 0.673913043 0.413043478 0.586956522 0.434782609 0.565217391 0.5217391300000001 0.47826087 0.391304348 0.608695652 0.47826087 0.5217391300000001 0.347826087 0.6521739130000001 0.434782609 0.565217391 0.347826087 0.6521739130000001 0.434782609 0.565217391 0.304347826 0.695652174 0.391304348 0.608695652 0.260869565 0.739130435 0.347826087 0.6521739130000001 0.586956522 0.413043478 0.673913043 0.326086957 0.543478261 0.456521739 0.630434783 0.369565217 0.5 0.5 0.586956522 0.413043478 0.5 0.5 0.586956522 0.413043478 0.456521739 0.543478261 0.543478261 0.456521739 0.413043478 0.586956522 0.5 0.5 0.5217391300000001 0.47826087 0.608695652 0.391304348 0.47826087 0.5217391300000001 0.565217391 0.434782609 0.434782609 0.565217391 0.5217391300000001 0.47826087 0.434782609 0.565217391 0.5217391300000001 0.47826087 0.391304348 0.608695652 0.47826087 0.5217391300000001 0.347826087 0.6521739130000001 0.434782609 0.565217391 0.456521739 0.543478261 0.543478261 0.456521739 0.413043478 0.586956522 0.5 0.5 0.369565217 0.630434783 0.456521739 0.543478261 0.369565217 0.630434783 0.456521739 0.543478261 0.326086957 0.673913043 0.413043478 0.586956522 0.282608696 0.717391304 0.369565217 0.630434783 0.543478261 0.456521739 0.630434783 0.369565217 0.5 0.5 0.586956522 0.413043478 0.456521739 0.543478261 0.543478261 0.456521739 0.456521739 0.543478261 0.543478261 0.456521739 0.413043478 0.586956522 0.5 0.5 0.369565217 0.630434783 0.456521739 0.543478261 0.47826087 0.5217391300000001 0.565217391 0.434782609 0.434782609 0.565217391 0.5217391300000001 0.47826087 0.391304348 0.608695652 0.47826087 0.5217391300000001 0.391304348 0.608695652 0.47826087 0.5217391300000001 0.347826087 0.6521739130000001 0.434782609 0.565217391 0.304347826 0.695652174 0.391304348 0.608695652 0.413043478 0.586956522 0.5 0.5 0.369565217 0.630434783 0.456521739 0.543478261 0.326086957 0.673913043 0.413043478 0.586956522 0.326086957 0.673913043 0.413043478 0.586956522 0.282608696 0.717391304 0.369565217 0.630434783 0.239130435 0.760869565 0.326086957 0.673913043 0.5 0.5 0.586956522 0.413043478 0.456521739 0.543478261 0.543478261 0.456521739 0.413043478 0.586956522 0.5 0.5 0.413043478 0.586956522 0.5 0.5 0.369565217 0.630434783 0.456521739 0.543478261 0.326086957 0.673913043 0.413043478 0.586956522 0.434782609 0.565217391 0.5217391300000001 0.47826087 0.391304348 0.608695652 0.47826087 0.5217391300000001 0.347826087 0.6521739130000001 0.434782609 0.565217391 0.347826087 0.6521739130000001 0.434782609 0.565217391 0.304347826 0.695652174 0.391304348 0.608695652 0.260869565 0.739130435 0.347826087 0.6521739130000001 0.369565217 0.630434783 0.456521739 0.543478261 0.326086957 0.673913043 0.413043478 0.586956522 0.282608696 0.717391304 0.369565217 0.630434783 0.282608696 0.717391304 0.369565217 0.630434783 0.239130435 0.760869565 0.326086957 0.673913043 0.195652174 0.804347826 0.282608696 0.717391304 0.5217391300000001 0.47826087 0.608695652 0.391304348 0.47826087 0.5217391300000001 0.565217391 0.434782609 0.434782609 0.565217391 0.5217391300000001 0.47826087 0.434782609 0.565217391 0.5217391300000001 0.47826087 0.391304348 0.608695652 0.47826087 0.5217391300000001 0.347826087 0.6521739130000001 0.434782609 0.565217391 0.456521739 0.543478261 0.543478261 0.456521739 0.413043478 0.586956522 0.5 0.5 0.369565217 0.630434783 0.456521739 0.543478261 0.369565217 0.630434783 0.456521739 0.543478261 0.326086957 0.673913043 0.413043478 0.586956522 0.282608696 0.717391304 0.369565217 0.630434783 0.391304348 0.608695652 0.47826087 0.5217391300000001 0.347826087 0.6521739130000001 0.434782609 0.565217391 0.304347826 0.695652174 0.391304348 0.608695652 0.304347826 0.695652174 0.391304348 0.608695652 0.260869565 0.739130435 0.347826087 0.6521739130000001 0.217391304 0.7826086960000001 0.304347826 0.695652174 0.47826087 0.5217391300000001 0.565217391 0.434782609 0.434782609 0.565217391 0.5217391300000001 0.47826087 0.391304348 0.608695652 0.47826087 0.5217391300000001 0.391304348 0.608695652 0.47826087 0.5217391300000001 0.347826087 0.6521739130000001 0.434782609 0.565217391 0.304347826 0.695652174 0.391304348 0.608695652 0.413043478 0.586956522 0.5 0.5 0.369565217 0.630434783 0.456521739 0.543478261 0.326086957 0.673913043 0.413043478 0.586956522 0.326086957 0.673913043 0.413043478 0.586956522 0.282608696 0.717391304 0.369565217 0.630434783 0.239130435 0.760869565 0.326086957 0.673913043 0.347826087 0.6521739130000001 0.434782609 0.565217391 0.304347826 0.695652174 0.391304348 0.608695652 0.260869565 0.739130435 0.347826087 0.6521739130000001 0.260869565 0.739130435 0.347826087 0.6521739130000001 0.217391304 0.7826086960000001 0.304347826 0.695652174 0.173913043 0.826086957 0.260869565 0.739130435 0.434782609 0.565217391 0.5217391300000001 0.47826087 0.391304348 0.608695652 0.47826087 0.5217391300000001 0.347826087 0.6521739130000001 0.434782609 0.565217391 0.347826087 0.6521739130000001 0.434782609 0.565217391 0.304347826 0.695652174 0.391304348 0.608695652 0.260869565 0.739130435 0.347826087 0.6521739130000001 0.369565217 0.630434783 0.456521739 0.543478261 0.326086957 0.673913043 0.413043478 0.586956522 0.282608696 0.717391304 0.369565217 0.630434783 0.282608696 0.717391304 0.369565217 0.630434783 0.239130435 0.760869565 0.326086957 0.673913043 0.195652174 0.804347826 0.282608696 0.717391304 0.304347826 0.695652174 0.391304348 0.608695652 0.260869565 0.739130435 0.347826087 0.6521739130000001 0.217391304 0.7826086960000001 0.304347826 0.695652174 0.217391304 0.7826086960000001 0.304347826 0.695652174 0.173913043 0.826086957 0.260869565 0.739130435 0.130434783 0.869565217 0.217391304 0.7826086960000001 0.608695652 0.391304348 0.695652174 0.304347826 0.565217391 0.434782609 0.6521739130000001 0.347826087 0.5217391300000001 0.47826087 0.608695652 0.391304348 0.5217391300000001 0.47826087 0.608695652 0.391304348 0.47826087 0.5217391300000001 0.565217391 0.434782609 0.434782609 0.565217391 0.5217391300000001 0.47826087 0.543478261 0.456521739 0.630434783 0.369565217 0.5 0.5 0.586956522 0.413043478 0.456521739 0.543478261 0.543478261 0.456521739 0.456521739 0.543478261 0.543478261 0.456521739 0.413043478 0.586956522 0.5 0.5 0.369565217 0.630434783 0.456521739 0.543478261 0.47826087 0.5217391300000001 0.565217391 0.434782609 0.434782609 0.565217391 0.5217391300000001 0.47826087 0.391304348 0.608695652 0.47826087 0.5217391300000001 0.391304348 0.608695652 0.47826087 0.5217391300000001 0.347826087 0.6521739130000001 0.434782609 0.565217391 0.304347826 0.695652174 0.391304348 0.608695652 0.565217391 0.434782609 0.6521739130000001 0.347826087 0.5217391300000001 0.47826087 0.608695652 0.391304348 0.47826087 0.5217391300000001 0.565217391 0.434782609 0.47826087 0.5217391300000001 0.565217391 0.434782609 0.434782609 0.565217391 0.5217391300000001 0.47826087 0.391304348 0.608695652 0.47826087 0.5217391300000001 0.5 0.5 0.586956522 0.413043478 0.456521739 0.543478261 0.543478261 0.456521739 0.413043478 0.586956522 0.5 0.5 0.413043478 0.586956522 0.5 0.5 0.369565217 0.630434783 0.456521739 0.543478261 0.326086957 0.673913043 0.413043478 0.586956522 0.434782609 0.565217391 0.5217391300000001 0.47826087 0.391304348 0.608695652 0.47826087 0.5217391300000001 0.347826087 0.6521739130000001 0.434782609 0.565217391 0.347826087 0.6521739130000001 0.434782609 0.565217391 0.304347826 0.695652174 0.391304348 0.608695652 0.260869565 0.739130435 0.347826087 0.6521739130000001 0.5217391300000001 0.47826087 0.608695652 0.391304348 0.47826087 0.5217391300000001 0.565217391 0.434782609 0.434782609 0.565217391 0.5217391300000001 0.47826087 0.434782609 0.565217391 0.5217391300000001 0.47826087 0.391304348 0.608695652 0.47826087 0.5217391300000001 0.347826087 0.6521739130000001 0.434782609 0.565217391 0.456521739 0.543478261 0.543478261 0.456521739 0.413043478 0.586956522 0.5 0.5 0.369565217 0.630434783 0.456521739 0.543478261 0.369565217 0.630434783 0.456521739 0.543478261 0.326086957 0.673913043 0.413043478 0.586956522 0.282608696 0.717391304 0.369565217 0.630434783 0.391304348 0.608695652 0.47826087 0.5217391300000001 0.347826087 0.6521739130000001 0.434782609 0.565217391 0.304347826 0.695652174 0.391304348 0.608695652 0.304347826 0.695652174 0.391304348 0.608695652 0.260869565 0.739130435 0.347826087 0.6521739130000001 0.217391304 0.7826086960000001 0.304347826 0.695652174 0.543478261 0.456521739 0.630434783 0.369565217 0.5 0.5 0.586956522 0.413043478 0.456521739 0.543478261 0.543478261 0.456521739 0.456521739 0.543478261 0.543478261 0.456521739 0.413043478 0.586956522 0.5 0.5 0.369565217 0.630434783 0.456521739 0.543478261 0.47826087 0.5217391300000001 0.565217391 0.434782609 0.434782609 0.565217391 0.5217391300000001 0.47826087 0.391304348 0.608695652 0.47826087 0.5217391300000001 0.391304348 0.608695652 0.47826087 0.5217391300000001 0.347826087 0.6521739130000001 0.434782609 0.565217391 0.304347826 0.695652174 0.391304348 0.608695652 0.413043478 0.586956522 0.5 0.5 0.369565217 0.630434783 0.456521739 0.543478261 0.326086957 0.673913043 0.413043478 0.586956522 0.326086957 0.673913043 0.413043478 0.586956522 0.282608696 0.717391304 0.369565217 0.630434783 0.239130435 0.760869565 0.326086957 0.673913043 0.5 0.5 0.586956522 0.413043478 0.456521739 0.543478261 0.543478261 0.456521739 0.413043478 0.586956522 0.5 0.5 0.413043478 0.586956522 0.5 0.5 0.369565217 0.630434783 0.456521739 0.543478261 0.326086957 0.673913043 0.413043478 0.586956522 0.434782609 0.565217391 0.5217391300000001 0.47826087 0.391304348 0.608695652 0.47826087 0.5217391300000001 0.347826087 0.6521739130000001 0.434782609 0.565217391 0.347826087 0.6521739130000001 0.434782609 0.565217391 0.304347826 0.695652174 0.391304348 0.608695652 0.260869565 0.739130435 0.347826087 0.6521739130000001 0.369565217 0.630434783 0.456521739 0.543478261 0.326086957 0.673913043 0.413043478 0.586956522 0.282608696 0.717391304 0.369565217 0.630434783 0.282608696 0.717391304 0.369565217 0.630434783 0.239130435 0.760869565 0.326086957 0.673913043 0.195652174 0.804347826 0.282608696 0.717391304 0.456521739 0.543478261 0.543478261 0.456521739 0.413043478 0.586956522 0.5 0.5 0.369565217 0.630434783 0.456521739 0.543478261 0.369565217 0.630434783 0.456521739 0.543478261 0.326086957 0.673913043 0.413043478 0.586956522 0.282608696 0.717391304 0.369565217 0.630434783 0.391304348 0.608695652 0.47826087 0.5217391300000001 0.347826087 0.6521739130000001 0.434782609 0.565217391 0.304347826 0.695652174 0.391304348 0.608695652 0.304347826 0.695652174 0.391304348 0.608695652 0.260869565 0.739130435 0.347826087 0.6521739130000001 0.217391304 0.7826086960000001 0.304347826 0.695652174 0.326086957 0.673913043 0.413043478 0.586956522 0.282608696 0.717391304 0.369565217 0.630434783 0.239130435 0.760869565 0.326086957 0.673913043 0.239130435 0.760869565 0.326086957 0.673913043 0.195652174 0.804347826 0.282608696 0.717391304 0.152173913 0.847826087 0.239130435 0.760869565 0.47826087 0.5217391300000001 0.565217391 0.434782609 0.434782609 0.565217391 0.5217391300000001 0.47826087 0.391304348 0.608695652 0.47826087 0.5217391300000001 0.391304348 0.608695652 0.47826087 0.5217391300000001 0.347826087 0.6521739130000001 0.434782609 0.565217391 0.304347826 0.695652174 0.391304348 0.608695652 0.413043478 0.586956522 0.5 0.5 0.369565217 0.630434783 0.456521739 0.543478261 0.326086957 0.673913043 0.413043478 0.586956522 0.326086957 0.673913043 0.413043478 0.586956522 0.282608696 0.717391304 0.369565217 0.630434783 0.239130435 0.760869565 0.326086957 0.673913043 0.347826087 0.6521739130000001 0.434782609 0.565217391 0.304347826 0.695652174 0.391304348 0.608695652 0.260869565 0.739130435 0.347826087 0.6521739130000001 0.260869565 0.739130435 0.347826087 0.6521739130000001 0.217391304 0.7826086960000001 0.304347826 0.695652174 0.173913043 0.826086957 0.260869565 0.739130435 0.434782609 0.565217391 0.5217391300000001 0.47826087 0.391304348 0.608695652 0.47826087 0.5217391300000001 0.347826087 0.6521739130000001 0.434782609 0.565217391 0.347826087 0.6521739130000001 0.434782609 0.565217391 0.304347826 0.695652174 0.391304348 0.608695652 0.260869565 0.739130435 0.347826087 0.6521739130000001 0.369565217 0.630434783 0.456521739 0.543478261 0.326086957 0.673913043 0.413043478 0.586956522 0.282608696 0.717391304 0.369565217 0.630434783 0.282608696 0.717391304 0.369565217 0.630434783 0.239130435 0.760869565 0.326086957 0.673913043 0.195652174 0.804347826 0.282608696 0.717391304 0.304347826 0.695652174 0.391304348 0.608695652 0.260869565 0.739130435 0.347826087 0.6521739130000001 0.217391304 0.7826086960000001 0.304347826 0.695652174 0.217391304 0.7826086960000001 0.304347826 0.695652174 0.173913043 0.826086957 0.260869565 0.739130435 0.130434783 0.869565217 0.217391304 0.7826086960000001 0.391304348 0.608695652 0.47826087 0.5217391300000001 0.347826087 0.6521739130000001 0.434782609 0.565217391 0.304347826 0.695652174 0.391304348 0.608695652 0.304347826 0.695652174 0.391304348 0.608695652 0.260869565 0.739130435 0.347826087 0.6521739130000001 0.217391304 0.7826086960000001 0.304347826 0.695652174 0.326086957 0.673913043 0.413043478 0.586956522 0.282608696 0.717391304 0.369565217 0.630434783 0.239130435 0.760869565 0.326086957 0.673913043 0.239130435 0.760869565 0.326086957 0.673913043 0.195652174 0.804347826 0.282608696 0.717391304 0.152173913 0.847826087 0.239130435 0.760869565 0.260869565 0.739130435 0.347826087 0.6521739130000001 0.217391304 0.7826086960000001 0.304347826 0.695652174 0.173913043 0.826086957 0.260869565 0.739130435 0.173913043 0.826086957 0.260869565 0.739130435 0.130434783 0.869565217 0.217391304 0.7826086960000001 0.08695652199999999 0.913043478 0.173913043 0.826086957 0.739130435 0.260869565 0.826086957 0.173913043 0.695652174 0.304347826 0.7826086960000001 0.217391304 0.6521739130000001 0.347826087 0.739130435 0.260869565 0.6521739130000001 0.347826087 0.739130435 0.260869565 0.608695652 0.391304348 0.695652174 0.304347826 0.565217391 0.434782609 0.6521739130000001 0.347826087 0.673913043 0.326086957 0.760869565 0.239130435 0.630434783 0.369565217 0.717391304 0.282608696 0.586956522 0.413043478 0.673913043 0.326086957 0.586956522 0.413043478 0.673913043 0.326086957 0.543478261 0.456521739 0.630434783 0.369565217 0.5 0.5 0.586956522 0.413043478 0.608695652 0.391304348 0.695652174 0.304347826 0.565217391 0.434782609 0.6521739130000001 0.347826087 0.5217391300000001 0.47826087 0.608695652 0.391304348 0.5217391300000001 0.47826087 0.608695652 0.391304348 0.47826087 0.5217391300000001 0.565217391 0.434782609 0.434782609 0.565217391 0.5217391300000001 0.47826087 0.695652174 0.304347826 0.7826086960000001 0.217391304 0.6521739130000001 0.347826087 0.739130435 0.260869565 0.608695652 0.391304348 0.695652174 0.304347826 0.608695652 0.391304348 0.695652174 0.304347826 0.565217391 0.434782609 0.6521739130000001 0.347826087 0.5217391300000001 0.47826087 0.608695652 0.391304348 0.630434783 0.369565217 0.717391304 0.282608696 0.586956522 0.413043478 0.673913043 0.326086957 0.543478261 0.456521739 0.630434783 0.369565217 0.543478261 0.456521739 0.630434783 0.369565217 0.5 0.5 0.586956522 0.413043478 0.456521739 0.543478261 0.543478261 0.456521739 0.565217391 0.434782609 0.6521739130000001 0.347826087 0.5217391300000001 0.47826087 0.608695652 0.391304348 0.47826087 0.5217391300000001 0.565217391 0.434782609 0.47826087 0.5217391300000001 0.565217391 0.434782609 0.434782609 0.565217391 0.5217391300000001 0.47826087 0.391304348 0.608695652 0.47826087 0.5217391300000001 0.6521739130000001 0.347826087 0.739130435 0.260869565 0.608695652 0.391304348 0.695652174 0.304347826 0.565217391 0.434782609 0.6521739130000001 0.347826087 0.565217391 0.434782609 0.6521739130000001 0.347826087 0.5217391300000001 0.47826087 0.608695652 0.391304348 0.47826087 0.5217391300000001 0.565217391 0.434782609 0.586956522 0.413043478 0.673913043 0.326086957 0.543478261 0.456521739 0.630434783 0.369565217 0.5 0.5 0.586956522 0.413043478 0.5 0.5 0.586956522 0.413043478 0.456521739 0.543478261 0.543478261 0.456521739 0.413043478 0.586956522 0.5 0.5 0.5217391300000001 0.47826087 0.608695652 0.391304348 0.47826087 0.5217391300000001 0.565217391 0.434782609 0.434782609 0.565217391 0.5217391300000001 0.47826087 0.434782609 0.565217391 0.5217391300000001 0.47826087 0.391304348 0.608695652 0.47826087 0.5217391300000001 0.347826087 0.6521739130000001 0.434782609 0.565217391 0.673913043 0.326086957 0.760869565 0.239130435 0.630434783 0.369565217 0.717391304 0.282608696 0.586956522 0.413043478 0.673913043 0.326086957 0.586956522 0.413043478 0.673913043 0.326086957 0.543478261 0.456521739 0.630434783 0.369565217 0.5 0.5 0.586956522 0.413043478 0.608695652 0.391304348 0.695652174 0.304347826 0.565217391 0.434782609 0.6521739130000001 0.347826087 0.5217391300000001 0.47826087 0.608695652 0.391304348 0.5217391300000001 0.47826087 0.608695652 0.391304348 0.47826087 0.5217391300000001 0.565217391 0.434782609 0.434782609 0.565217391 0.5217391300000001 0.47826087 0.543478261 0.456521739 0.630434783 0.369565217 0.5 0.5 0.586956522 0.413043478 0.456521739 0.543478261 0.543478261 0.456521739 0.456521739 0.543478261 0.543478261 0.456521739 0.413043478 0.586956522 0.5 0.5 0.369565217 0.630434783 0.456521739 0.543478261 0.630434783 0.369565217 0.717391304 0.282608696 0.586956522 0.413043478 0.673913043 0.326086957 0.543478261 0.456521739 0.630434783 0.369565217 0.543478261 0.456521739 0.630434783 0.369565217 0.5 0.5 0.586956522 0.413043478 0.456521739 0.543478261 0.543478261 0.456521739 0.565217391 0.434782609 0.6521739130000001 0.347826087 0.5217391300000001 0.47826087 0.608695652 0.391304348 0.47826087 0.5217391300000001 0.565217391 0.434782609 0.47826087 0.5217391300000001 0.565217391 0.434782609 0.434782609 0.565217391 0.5217391300000001 0.47826087 0.391304348 0.608695652 0.47826087 0.5217391300000001 0.5 0.5 0.586956522 0.413043478 0.456521739 0.543478261 0.543478261 0.456521739 0.413043478 0.586956522 0.5 0.5 0.413043478 0.586956522 0.5 0.5 0.369565217 0.630434783 0.456521739 0.543478261 0.326086957 0.673913043 0.413043478 0.586956522 0.586956522 0.413043478 0.673913043 0.326086957 0.543478261 0.456521739 0.630434783 0.369565217 0.5 0.5 0.586956522 0.413043478 0.5 0.5 0.586956522 0.413043478 0.456521739 0.543478261 0.543478261 0.456521739 0.413043478 0.586956522 0.5 0.5 0.5217391300000001 0.47826087 0.608695652 0.391304348 0.47826087 0.5217391300000001 0.565217391 0.434782609 0.434782609 0.565217391 0.5217391300000001 0.47826087 0.434782609 0.565217391 0.5217391300000001 0.47826087 0.391304348 0.608695652 0.47826087 0.5217391300000001 0.347826087 0.6521739130000001 0.434782609 0.565217391 0.456521739 0.543478261 0.543478261 0.456521739 0.413043478 0.586956522 0.5 0.5 0.369565217 0.630434783 0.456521739 0.543478261 0.369565217 0.630434783 0.456521739 0.543478261 0.326086957 0.673913043 0.413043478 0.586956522 0.282608696 0.717391304 0.369565217 0.630434783 0.608695652 0.391304348 0.695652174 0.304347826 0.565217391 0.434782609 0.6521739130000001 0.347826087 0.5217391300000001 0.47826087 0.608695652 0.391304348 0.5217391300000001 0.47826087 0.608695652 0.391304348 0.47826087 0.5217391300000001 0.565217391 0.434782609 0.434782609 0.565217391 0.5217391300000001 0.47826087 0.543478261 0.456521739 0.630434783 0.369565217 0.5 0.5 0.586956522 0.413043478 0.456521739 0.543478261 0.543478261 0.456521739 0.456521739 0.543478261 0.543478261 0.456521739 0.413043478 0.586956522 0.5 0.5 0.369565217 0.630434783 0.456521739 0.543478261 0.47826087 0.5217391300000001 0.565217391 0.434782609 0.434782609 0.565217391 0.5217391300000001 0.47826087 0.391304348 0.608695652 0.47826087 0.5217391300000001 0.391304348 0.608695652 0.47826087 0.5217391300000001 0.347826087 0.6521739130000001 0.434782609 0.565217391 0.304347826 0.695652174 0.391304348 0.608695652 0.565217391 0.434782609 0.6521739130000001 0.347826087 0.5217391300000001 0.47826087 0.608695652 0.391304348 0.47826087 0.5217391300000001 0.565217391 0.434782609 0.47826087 0.5217391300000001 0.565217391 0.434782609 0.434782609 0.565217391 0.5217391300000001 0.47826087 0.391304348 0.608695652 0.47826087 0.5217391300000001 0.5 0.5 0.586956522 0.413043478 0.456521739 0.543478261 0.543478261 0.456521739 0.413043478 0.586956522 0.5 0.5 0.413043478 0.586956522 0.5 0.5 0.369565217 0.630434783 0.456521739 0.543478261 0.326086957 0.673913043 0.413043478 0.586956522 0.434782609 0.565217391 0.5217391300000001 0.47826087 0.391304348 0.608695652 0.47826087 0.5217391300000001 0.347826087 0.6521739130000001 0.434782609 0.565217391 0.347826087 0.6521739130000001 0.434782609 0.565217391 0.304347826 0.695652174 0.391304348 0.608695652 0.260869565 0.739130435 0.347826087 0.6521739130000001 0.5217391300000001 0.47826087 0.608695652 0.391304348 0.47826087 0.5217391300000001 0.565217391 0.434782609 0.434782609 0.565217391 0.5217391300000001 0.47826087 0.434782609 0.565217391 0.5217391300000001 0.47826087 0.391304348 0.608695652 0.47826087 0.5217391300000001 0.347826087 0.6521739130000001 0.434782609 0.565217391 0.456521739 0.543478261 0.543478261 0.456521739 0.413043478 0.586956522 0.5 0.5 0.369565217 0.630434783 0.456521739 0.543478261 0.369565217 0.630434783 0.456521739 0.543478261 0.326086957 0.673913043 0.413043478 0.586956522 0.282608696 0.717391304 0.369565217 0.630434783 0.391304348 0.608695652 0.47826087 0.5217391300000001 0.347826087 0.6521739130000001 0.434782609 0.565217391 0.304347826 0.695652174 0.391304348 0.608695652 0.304347826 0.695652174 0.391304348 0.608695652 0.260869565 0.739130435 0.347826087 0.6521739130000001 0.217391304 0.7826086960000001 0.304347826 0.695652174 0.695652174 0.304347826 0.7826086960000001 0.217391304 0.6521739130000001 0.347826087 0.739130435 0.260869565 0.608695652 0.391304348 0.695652174 0.304347826 0.608695652 0.391304348 0.695652174 0.304347826 0.565217391 0.434782609 0.6521739130000001 0.347826087 0.5217391300000001 0.47826087 0.608695652 0.391304348 0.630434783 0.369565217 0.717391304 0.282608696 0.586956522 0.413043478 0.673913043 0.326086957 0.543478261 0.456521739 0.630434783 0.369565217 0.543478261 0.456521739 0.630434783 0.369565217 0.5 0.5 0.586956522 0.413043478 0.456521739 0.543478261 0.543478261 0.456521739 0.565217391 0.434782609 0.6521739130000001 0.347826087 0.5217391300000001 0.47826087 0.608695652 0.391304348 0.47826087 0.5217391300000001 0.565217391 0.434782609 0.47826087 0.5217391300000001 0.565217391 0.434782609 0.434782609 0.565217391 0.5217391300000001 0.47826087 0.391304348 0.608695652 0.47826087 0.5217391300000001 0.6521739130000001 0.347826087 0.739130435 0.260869565 0.608695652 0.391304348 0.695652174 0.304347826 0.565217391 0.434782609 0.6521739130000001 0.347826087 0.565217391 0.434782609 0.6521739130000001 0.347826087 0.5217391300000001 0.47826087 0.608695652 0.391304348 0.47826087 0.5217391300000001 0.565217391 0.434782609 0.586956522 0.413043478 0.673913043 0.326086957 0.543478261 0.456521739 0.630434783 0.369565217 0.5 0.5 0.586956522 0.413043478 0.5 0.5 0.586956522 0.413043478 0.456521739 0.543478261 0.543478261 0.456521739 0.413043478 0.586956522 0.5 0.5 0.5217391300000001 0.47826087 0.608695652 0.391304348 0.47826087 0.5217391300000001 0.565217391 0.434782609 0.434782609 0.565217391 0.5217391300000001 0.47826087 0.434782609 0.565217391 0.5217391300000001 0.47826087 0.391304348 0.608695652 0.47826087 0.5217391300000001 0.347826087 0.6521739130000001 0.434782609 0.565217391 0.608695652 0.391304348 0.695652174 0.304347826 0.565217391 0.434782609 0.6521739130000001 0.347826087 0.5217391300000001 0.47826087 0.608695652 0.391304348 0.5217391300000001 0.47826087 0.608695652 0.391304348 0.47826087 0.5217391300000001 0.565217391 0.434782609 0.434782609 0.565217391 0.5217391300000001 0.47826087 0.543478261 0.456521739 0.630434783 0.369565217 0.5 0.5 0.586956522 0.413043478 0.456521739 0.543478261 0.543478261 0.456521739 0.456521739 0.543478261 0.543478261 0.456521739 0.413043478 0.586956522 0.5 0.5 0.369565217 0.630434783 0.456521739 0.543478261 0.47826087 0.5217391300000001 0.565217391 0.434782609 0.434782609 0.565217391 0.5217391300000001 0.47826087 0.391304348 0.608695652 0.47826087 0.5217391300000001 0.391304348 0.608695652 0.47826087 0.5217391300000001 0.347826087 0.6521739130000001 0.434782609 0.565217391 0.304347826 0.695652174 0.391304348 0.608695652 0.630434783 0.369565217 0.717391304 0.282608696 0.586956522 0.413043478 0.673913043 0.326086957 0.543478261 0.456521739 0.630434783 0.369565217 0.543478261 0.456521739 0.630434783 0.369565217 0.5 0.5 0.586956522 0.413043478 0.456521739 0.543478261 0.543478261 0.456521739 0.565217391 0.434782609 0.6521739130000001 0.347826087 0.5217391300000001 0.47826087 0.608695652 0.391304348 0.47826087 0.5217391300000001 0.565217391 0.434782609 0.47826087 0.5217391300000001 0.565217391 0.434782609 0.434782609 0.565217391 0.5217391300000001 0.47826087 0.391304348 0.608695652 0.47826087 0.5217391300000001 0.5 0.5 0.586956522 0.413043478 0.456521739 0.543478261 0.543478261 0.456521739 0.413043478 0.586956522 0.5 0.5 0.413043478 0.586956522 0.5 0.5 0.369565217 0.630434783 0.456521739 0.543478261 0.326086957 0.673913043 0.413043478 0.586956522 0.586956522 0.413043478 0.673913043 0.326086957 0.543478261 0.456521739 0.630434783 0.369565217 0.5 0.5 0.586956522 0.413043478 0.5 0.5 0.586956522 0.413043478 0.456521739 0.543478261 0.543478261 0.456521739 0.413043478 0.586956522 0.5 0.5 0.5217391300000001 0.47826087 0.608695652 0.391304348 0.47826087 0.5217391300000001 0.565217391 0.434782609 0.434782609 0.565217391 0.5217391300000001 0.47826087 0.434782609 0.565217391 0.5217391300000001 0.47826087 0.391304348 0.608695652 0.47826087 0.5217391300000001 0.347826087 0.6521739130000001 0.434782609 0.565217391 0.456521739 0.543478261 0.543478261 0.456521739 0.413043478 0.586956522 0.5 0.5 0.369565217 0.630434783 0.456521739 0.543478261 0.369565217 0.630434783 0.456521739 0.543478261 0.326086957 0.673913043 0.413043478 0.586956522 0.282608696 0.717391304 0.369565217 0.630434783 0.543478261 0.456521739 0.630434783 0.369565217 0.5 0.5 0.586956522 0.413043478 0.456521739 0.543478261 0.543478261 0.456521739 0.456521739 0.543478261 0.543478261 0.456521739 0.413043478 0.586956522 0.5 0.5 0.369565217 0.630434783 0.456521739 0.543478261 0.47826087 0.5217391300000001 0.565217391 0.434782609 0.434782609 0.565217391 0.5217391300000001 0.47826087 0.391304348 0.608695652 0.47826087 0.5217391300000001 0.391304348 0.608695652 0.47826087 0.5217391300000001 0.347826087 0.6521739130000001 0.434782609 0.565217391 0.304347826 0.695652174 0.391304348 0.608695652 0.413043478 0.586956522 0.5 0.5 0.369565217 0.630434783 0.456521739 0.543478261 0.326086957 0.673913043 0.413043478 0.586956522 0.326086957 0.673913043 0.413043478 0.586956522 0.282608696 0.717391304 0.369565217 0.630434783 0.239130435 0.760869565 0.326086957 0.673913043 0.565217391 0.434782609 0.6521739130000001 0.347826087 0.5217391300000001 0.47826087 0.608695652 0.391304348 0.47826087 0.5217391300000001 0.565217391 0.434782609 0.47826087 0.5217391300000001 0.565217391 0.434782609 0.434782609 0.565217391 0.5217391300000001 0.47826087 0.391304348 0.608695652 0.47826087 0.5217391300000001 0.5 0.5 0.586956522 0.413043478 0.456521739 0.543478261 0.543478261 0.456521739 0.413043478 0.586956522 0.5 0.5 0.413043478 0.586956522 0.5 0.5 0.369565217 0.630434783 0.456521739 0.543478261 0.326086957 0.673913043 0.413043478 0.586956522 0.434782609 0.565217391 0.5217391300000001 0.47826087 0.391304348 0.608695652 0.47826087 0.5217391300000001 0.347826087 0.6521739130000001 0.434782609 0.565217391 0.347826087 0.6521739130000001 0.434782609 0.565217391 0.304347826 0.695652174 0.391304348 0.608695652 0.260869565 0.739130435 0.347826087 0.6521739130000001 0.5217391300000001 0.47826087 0.608695652 0.391304348 0.47826087 0.5217391300000001 0.565217391 0.434782609 0.434782609 0.565217391 0.5217391300000001 0.47826087 0.434782609 0.565217391 0.5217391300000001 0.47826087 0.391304348 0.608695652 0.47826087 0.5217391300000001 0.347826087 0.6521739130000001 0.434782609 0.565217391 0.456521739 0.543478261 0.543478261 0.456521739 0.413043478 0.586956522 0.5 0.5 0.369565217 0.630434783 0.456521739 0.543478261 0.369565217 0.630434783 0.456521739 0.543478261 0.326086957 0.673913043 0.413043478 0.586956522 0.282608696 0.717391304 0.369565217 0.630434783 0.391304348 0.608695652 0.47826087 0.5217391300000001 0.347826087 0.6521739130000001 0.434782609 0.565217391 0.304347826 0.695652174 0.391304348 0.608695652 0.304347826 0.695652174 0.391304348 0.608695652 0.260869565 0.739130435 0.347826087 0.6521739130000001 0.217391304 0.7826086960000001 0.304347826 0.695652174 0.47826087 0.5217391300000001 0.565217391 0.434782609 0.434782609 0.565217391 0.5217391300000001 0.47826087 0.391304348 0.608695652 0.47826087 0.5217391300000001 0.391304348 0.608695652 0.47826087 0.5217391300000001 0.347826087 0.6521739130000001 0.434782609 0.565217391 0.304347826 0.695652174 0.391304348 0.608695652 0.413043478 0.586956522 0.5 0.5 0.369565217 0.630434783 0.456521739 0.543478261 0.326086957 0.673913043 0.413043478 0.586956522 0.326086957 0.673913043 0.413043478 0.586956522 0.282608696 0.717391304 0.369565217 0.630434783 0.239130435 0.760869565 0.326086957 0.673913043 0.347826087 0.6521739130000001 0.434782609 0.565217391 0.304347826 0.695652174 0.391304348 0.608695652 0.260869565 0.739130435 0.347826087 0.6521739130000001 0.260869565 0.739130435 0.347826087 0.6521739130000001 0.217391304 0.7826086960000001 0.304347826 0.695652174 0.173913043 0.826086957 0.260869565 0.739130435 0.826086957 0.173913043 0.913043478 0.08695652199999999 0.7826086960000001 0.217391304 0.869565217 0.130434783 0.739130435 0.260869565 0.826086957 0.173913043 0.739130435 0.260869565 0.826086957 0.173913043 0.695652174 0.304347826 0.7826086960000001 0.217391304 0.6521739130000001 0.347826087 0.739130435 0.260869565 0.760869565 0.239130435 0.847826087 0.152173913 0.717391304 0.282608696 0.804347826 0.195652174 0.673913043 0.326086957 0.760869565 0.239130435 0.673913043 0.326086957 0.760869565 0.239130435 0.630434783 0.369565217 0.717391304 0.282608696 0.586956522 0.413043478 0.673913043 0.326086957 0.695652174 0.304347826 0.7826086960000001 0.217391304 0.6521739130000001 0.347826087 0.739130435 0.260869565 0.608695652 0.391304348 0.695652174 0.304347826 0.608695652 0.391304348 0.695652174 0.304347826 0.565217391 0.434782609 0.6521739130000001 0.347826087 0.5217391300000001 0.47826087 0.608695652 0.391304348 