<?xml version="1.0" encoding="ISO-8859-1"?>
<smile version="1.0" id="SpeciesVA" numsamples="1000" discsamples="10000">
	<nodes>
		<cpt id="Number_of_future_compatible_bioregions">
			<state id="Few" />
			<state id="Many" />
			<probabilities>0.531 0.469</probabilities>
		</cpt>
		<cpt id="Pioneer_species">
			<state id="No" />
			<state id="Yes" />
			<probabilities>0.911 0.08899999999999997</probabilities>
		</cpt>
		<cpt id="Occupancy">
			<state id="widespread" />
			<state id="Limited" />
			<probabilities>0 1</probabilities>
		</cpt>
		<cpt id="Fraction_of_Tol_pts">
			<state id="Small" />
			<state id="Medium" />
			<state id="Large" />
			<probabilities>0.33 0.335 0.335</probabilities>
		</cpt>
		<cpt id="Degree_of_point_dispersion">
			<state id="Clustered" />
			<state id="Widespread" />
			<probabilities>0.5 0.5</probabilities>
		</cpt>
		<cpt id="MRF_fragmentation">
			<state id="Small" />
			<state id="Medium" />
			<state id="Large" />
			<probabilities>0.194 0.191 0.615</probabilities>
		</cpt>
		<cpt id="Mig_fragmentation">
			<state id="Small" />
			<state id="Medium" />
			<state id="Large" />
			<probabilities>0.5660000000000001 0.242 0.192</probabilities>
		</cpt>
		<cpt id="Tol_fragmentation">
			<state id="Small" />
			<state id="Medium" />
			<state id="Large" />
			<probabilities>0.3333 0.3333 0.3334</probabilities>
		</cpt>
		<cpt id="Landscape_connectivity">
			<state id="Low" />
			<state id="High" />
			<probabilities>0.5 0.5</probabilities>
		</cpt>
		<cpt id="Projected_change_in_CE_area">
			<state id="Large_decrease" />
			<state id="Medium_decrease" />
			<state id="Small_decr_or_inc" />
			<probabilities>0.331 0.33 0.339</probabilities>
		</cpt>
		<cpt id="Overlap_between_current_and_future_suitable_range">
			<state id="Small" />
			<state id="Medium" />
			<state id="Large" />
			<probabilities>0.3333 0.3333 0.3334</probabilities>
		</cpt>
		<cpt id="Distance_between_current_and_future_suitable_range">
			<state id="Small" />
			<state id="Medium" />
			<state id="Large" />
			<probabilities>0.3299999999999999 0.33 0.34</probabilities>
		</cpt>
		<cpt id="Required_migration_distance">
			<state id="Small" />
			<state id="Large" />
			<probabilities>0.5 0.5</probabilities>
		</cpt>
		<cpt id="Proximity_to_max_height_of_Mtn">
			<state id="Close" />
			<state id="Far" />
			<probabilities>0.16 0.84</probabilities>
		</cpt>
		<cpt id="Current_occupancy_pattern">
			<state id="Clustered" />
			<state id="Widespread" />
			<probabilities>0.531 0.469</probabilities>
		</cpt>
		<cpt id="Dispersion">
			<state id="Favorable" />
			<state id="Unfavorable" />
			<parents>Number_of_future_compatible_bioregions Projected_change_in_CE_area Proximity_to_max_height_of_Mtn Current_occupancy_pattern</parents>
			<probabilities>1e-04 0.9999 0.25 0.75 0.25 0.75 0.5 0.5 0.125 0.875 0.375 0.625 0.375 0.625 0.625 0.375 0.25 0.75 0.5 0.5 0.5 0.5 0.75 0.25 0.25 0.75 0.5 0.5 0.5 0.5 0.75 0.25 0.375 0.625 0.625 0.375 0.625 0.375 0.875 0.125 0.5 0.5 0.75 0.25 0.75 0.25 0.9999 1e-04</probabilities>
		</cpt>
		<cpt id="eff_zone_areaMR">
			<state id="Very_small" />
			<state id="Small" />
			<state id="Medium" />
			<state id="Large" />
			<state id="Very_large" />
			<probabilities>0.2 0.2 0.2 0.2 0.2</probabilities>
		</cpt>
		<cpt id="x_MRF_uninhabitalble_by_lava_flows">
			<state id="Small" />
			<state id="Medium" />
			<state id="Large" />
			<probabilities>0.3333333 0.3333333 0.3333334</probabilities>
		</cpt>
		<cpt id="x_MRF_uninhabitable">
			<state id="Small" />
			<state id="Medium" />
			<state id="Large" />
			<probabilities>0.3230000000000001 0.205 0.472</probabilities>
		</cpt>
		<cpt id="Change_RF_area_under_protection">
			<state id="Decrease" />
			<state id="Stasis" />
			<state id="Increase" />
			<probabilities>0.3333 0.3333 0.3334</probabilities>
		</cpt>
		<cpt id="x_MRF_irreversably_destroyed_by_CC">
			<state id="Small" />
			<state id="Medium" />
			<state id="Large" />
			<probabilities>0.848 0 0.152</probabilities>
		</cpt>
		<cpt id="eff_pioneer_zone_areaMR">
			<state id="Very_small" />
			<state id="Small" />
			<state id="Medium" />
			<state id="Large" />
			<state id="Very_large" />
			<probabilities>0.2 0.2 0.2 0.2 0.2</probabilities>
		</cpt>
		<cpt id="Effective_MRF_area">
			<state id="Favorable" />
			<state id="Unfavorable" />
			<parents>Pioneer_species eff_zone_areaMR eff_pioneer_zone_areaMR</parents>
			<probabilities>0.0001 0.9999 0.0001 0.9999 0.0001 0.9999 0.0001 0.9999 0.0001 0.9999 0.25 0.75 0.25 0.75 0.25 0.75 0.25 0.75 0.25 0.75 0.5 0.5 0.5 0.5 0.5 0.5 0.5 0.5 0.5 0.5 0.75 0.25 0.75 0.25 0.75 0.25 0.75 0.25 0.75 0.25 0.9999 9.999999999998899e-005 0.9999 9.999999999998899e-005 0.9999 9.999999999998899e-005 0.9999 9.999999999998899e-005 0.9999 9.999999999998899e-005 9.999999999998899e-005 0.9999 0.25 0.75 0.5 0.5 0.75 0.25 0.9999 9.999999999998899e-005 9.999999999998899e-005 0.9999 0.25 0.75 0.5 0.5 0.75 0.25 0.9999 9.999999999998899e-005 9.999999999998899e-005 0.9999 0.25 0.75 0.5 0.5 0.75 0.25 0.9999 9.999999999998899e-005 9.999999999998899e-005 0.9999 0.25 0.75 0.5 0.5 0.75 0.25 0.9999 9.999999999998899e-005 9.999999999998899e-005 0.9999 0.25 0.75 0.5 0.5 0.75 0.25 0.9999 9.999999999998899e-005</probabilities>
		</cpt>
		<cpt id="Change_Tol_Zone_under_protection">
			<state id="Decrease" />
			<state id="Stasis" />
			<state id="Increase" />
			<probabilities>0.3333 0.3333 0.3334</probabilities>
		</cpt>
		<cpt id="Slope_Tol_Zone">
			<state id="Small" />
			<state id="Medium" />
			<state id="Large" />
			<probabilities>0.3333 0.3333 0.3334</probabilities>
		</cpt>
		<cpt id="Aspect_Tol_Zone">
			<state id="Small" />
			<state id="Medium" />
			<state id="Large" />
			<probabilities>0.3333 0.3333 0.3334</probabilities>
		</cpt>
		<cpt id="Topo_divesity_Tol">
			<state id="Small" />
			<state id="Large" />
			<parents>Slope_Tol_Zone Aspect_Tol_Zone</parents>
			<probabilities>1 0 0.833333333 0.166666667 0.666666667 0.333333333 0.666666667 0.333333333 0.5 0.5 0.333333333 0.666666667 0.333333333 0.666666667 0.166666667 0.833333333 0 1</probabilities>
		</cpt>
		<cpt id="Native_cover_in_Tol_zone">
			<state id="Small" />
			<state id="Medium" />
			<state id="Large" />
			<probabilities>0.4410000000000001 0.315 0.244</probabilities>
		</cpt>
		<cpt id="Tol_Zone_in_Active_management">
			<state id="Small" />
			<state id="Medium" />
			<state id="Large" />
			<probabilities>0.3333 0.3333 0.3334</probabilities>
		</cpt>
		<cpt id="Tol_Zone_under_Protective_designation">
			<state id="Small" />
			<state id="Medium" />
			<state id="Large" />
			<probabilities>0.2389999999999999 0.31 0.451</probabilities>
		</cpt>
		<cpt id="x_Tol_Zone_in_ungulate_free_areas">
			<state id="Small" />
			<state id="Medium" />
			<state id="Large" />
			<probabilities>0.2410000000000001 0.325 0.434</probabilities>
		</cpt>
		<cpt id="x_protected_areas_in_Tol_Zone">
			<state id="Small" />
			<state id="Large" />
			<parents>Tol_Zone_under_Protective_designation x_Tol_Zone_in_ungulate_free_areas</parents>
			<probabilities>0.9999 1e-04 0.75 0.25 0.5 0.5 0.75 0.25 0.5 0.5 0.25 0.75 0.5 0.5 0.25 0.75 1e-04 0.9999</probabilities>
		</cpt>
		<cpt id="x_Tol_Zone_overlap_with_key_detrimental_invasive">
			<state id="Small" />
			<state id="Medium" />
			<state id="Large" />
			<probabilities>0.399 0.279 0.322</probabilities>
		</cpt>
		<cpt id="x_Tol_zone_in_novel_lost_climate">
			<state id="Small" />
			<state id="Medium" />
			<state id="Large" />
			<probabilities>0.3333 0.3333 0.3334</probabilities>
		</cpt>
		<cpt id="Persistence_in_invaded_landscape">
			<state id="No" />
			<state id="Yes" />
			<probabilities>0.789 0.211</probabilities>
		</cpt>
		<cpt id="Winkout">
			<state id="No" />
			<state id="Yes" />
			<probabilities>0.95 0.05</probabilities>
		</cpt>
		<cpt id="CE_overlap">
			<state id="No" />
			<state id="Yes" />
			<probabilities>0.15 0.85</probabilities>
		</cpt>
		<cpt id="Tol_Zone_Habitat_qual">
			<state id="Favorable" />
			<state id="Unfavorable" />
			<parents>CE_overlap Winkout Persistence_in_invaded_landscape Native_cover_in_Tol_zone x_protected_areas_in_Tol_Zone Tol_fragmentation x_Tol_Zone_overlap_with_key_detrimental_invasive Fraction_of_Tol_pts</parents>
			<probabilities>1e-04 0.9999 1e-04 0.9999 1e-04 0.9999 1e-04 0.9999 1e-04 0.9999 1e-04 0.9999 1e-04 0.9999 1e-04 0.9999 1e-04 0.9999 1e-04 0.9999 1e-04 0.9999 1e-04 0.9999 1e-04 0.9999 1e-04 0.9999 1e-04 0.9999 1e-04 0.9999 1e-04 0.9999 1e-04 0.9999 1e-04 0.9999 1e-04 0.9999 1e-04 0.9999 1e-04 0.9999 1e-04 0.9999 1e-04 0.9999 1e-04 0.9999 1e-04 0.9999 1e-04 0.9999 1e-04 0.9999 1e-04 0.9999 1e-04 0.9999 1e-04 0.9999 1e-04 0.9999 1e-04 0.9999 1e-04 0.9999 1e-04 0.9999 1e-04 0.9999 1e-04 0.9999 1e-04 0.9999 1e-04 0.9999 1e-04 0.9999 1e-04 0.9999 1e-04 0.9999 1e-04 0.9999 1e-04 0.9999 1e-04 0.9999 1e-04 0.9999 1e-04 0.9999 1e-04 0.9999 1e-04 0.9999 1e-04 0.9999 1e-04 0.9999 1e-04 0.9999 1e-04 0.9999 1e-04 0.9999 1e-04 0.9999 1e-04 0.9999 1e-04 0.9999 1e-04 0.9999 1e-04 0.9999 1e-04 0.9999 1e-04 0.9999 1e-04 0.9999 1e-04 0.9999 1e-04 0.9999 1e-04 0.9999 1e-04 0.9999 1e-04 0.9999 1e-04 0.9999 1e-04 0.9999 1e-04 0.9999 1e-04 0.9999 1e-04 0.9999 1e-04 0.9999 1e-04 0.9999 1e-04 0.9999 1e-04 0.9999 1e-04 0.9999 1e-04 0.9999 1e-04 0.9999 1e-04 0.9999 1e-04 0.9999 1e-04 0.9999 1e-04 0.9999 1e-04 0.9999 1e-04 0.9999 1e-04 0.9999 1e-04 0.9999 1e-04 0.9999 1e-04 0.9999 1e-04 0.9999 1e-04 0.9999 1e-04 0.9999 1e-04 0.9999 1e-04 0.9999 1e-04 0.9999 1e-04 0.9999 1e-04 0.9999 1e-04 0.9999 1e-04 0.9999 1e-04 0.9999 1e-04 0.9999 1e-04 0.9999 1e-04 0.9999 1e-04 0.9999 1e-04 0.9999 1e-04 0.9999 1e-04 0.9999 1e-04 0.9999 1e-04 0.9999 1e-04 0.9999 1e-04 0.9999 1e-04 0.9999 1e-04 0.9999 1e-04 0.9999 1e-04 0.9999 1e-04 0.9999 1e-04 0.9999 1e-04 0.9999 1e-04 0.9999 1e-04 0.9999 1e-04 0.9999 1e-04 0.9999 1e-04 0.9999 1e-04 0.9999 1e-04 0.9999 1e-04 0.9999 1e-04 0.9999 1e-04 0.9999 1e-04 0.9999 1e-04 0.9999 1e-04 0.9999 1e-04 0.9999 1e-04 0.9999 1e-04 0.9999 1e-04 0.9999 1e-04 0.9999 1e-04 0.9999 1e-04 0.9999 1e-04 0.9999 1e-04 0.9999 1e-04 0.9999 1e-04 0.9999 1e-04 0.9999 1e-04 0.9999 1e-04 0.9999 1e-04 0.9999 1e-04 0.9999 1e-04 0.9999 1e-04 0.9999 1e-04 0.9999 1e-04 0.9999 1e-04 0.9999 1e-04 0.9999 1e-04 0.9999 1e-04 0.9999 1e-04 0.9999 1e-04 0.9999 1e-04 0.9999 1e-04 0.9999 1e-04 0.9999 1e-04 0.9999 1e-04 0.9999 1e-04 0.9999 1e-04 0.9999 1e-04 0.9999 1e-04 0.9999 1e-04 0.9999 1e-04 0.9999 1e-04 0.9999 1e-04 0.9999 1e-04 0.9999 1e-04 0.9999 1e-04 0.9999 1e-04 0.9999 1e-04 0.9999 1e-04 0.9999 1e-04 0.9999 1e-04 0.9999 1e-04 0.9999 1e-04 0.9999 1e-04 0.9999 1e-04 0.9999 1e-04 0.9999 1e-04 0.9999 1e-04 0.9999 1e-04 0.9999 1e-04 0.9999 1e-04 0.9999 1e-04 0.9999 1e-04 0.9999 1e-04 0.9999 1e-04 0.9999 1e-04 0.9999 1e-04 0.9999 1e-04 0.9999 1e-04 0.9999 1e-04 0.9999 1e-04 0.9999 1e-04 0.9999 1e-04 0.9999 1e-04 0.9999 1e-04 0.9999 1e-04 0.9999 1e-04 0.9999 1e-04 0.9999 1e-04 0.9999 1e-04 0.9999 1e-04 0.9999 1e-04 0.9999 1e-04 0.9999 1e-04 0.9999 1e-04 0.9999 1e-04 0.9999 1e-04 0.9999 1e-04 0.9999 1e-04 0.9999 1e-04 0.9999 1e-04 0.9999 1e-04 0.9999 1e-04 0.9999 1e-04 0.9999 1e-04 0.9999 1e-04 0.9999 1e-04 0.9999 1e-04 0.9999 1e-04 0.9999 1e-04 0.9999 1e-04 0.9999 1e-04 0.9999 1e-04 0.9999 1e-04 0.9999 1e-04 0.9999 1e-04 0.9999 1e-04 0.9999 1e-04 0.9999 1e-04 0.9999 1e-04 0.9999 1e-04 0.9999 1e-04 0.9999 1e-04 0.9999 1e-04 0.9999 1e-04 0.9999 1e-04 0.9999 1e-04 0.9999 1e-04 0.9999 1e-04 0.9999 1e-04 0.9999 1e-04 0.9999 1e-04 0.9999 1e-04 0.9999 1e-04 0.9999 1e-04 0.9999 1e-04 0.9999 1e-04 0.9999 1e-04 0.9999 1e-04 0.9999 1e-04 0.9999 1e-04 0.9999 1e-04 0.9999 1e-04 0.9999 1e-04 0.9999 1e-04 0.9999 1e-04 0.9999 1e-04 0.9999 1e-04 0.9999 1e-04 0.9999 1e-04 0.9999 1e-04 0.9999 1e-04 0.9999 1e-04 0.9999 1e-04 0.9999 1e-04 0.9999 1e-04 0.9999 1e-04 0.9999 1e-04 0.9999 1e-04 0.9999 1e-04 0.9999 1e-04 0.9999 1e-04 0.9999 1e-04 0.9999 1e-04 0.9999 1e-04 0.9999 1e-04 0.9999 1e-04 0.9999 1e-04 0.9999 1e-04 0.9999 1e-04 0.9999 1e-04 0.9999 1e-04 0.9999 1e-04 0.9999 1e-04 0.9999 1e-04 0.9999 1e-04 0.9999 1e-04 0.9999 1e-04 0.9999 1e-04 0.9999 1e-04 0.9999 1e-04 0.9999 1e-04 0.9999 1e-04 0.9999 1e-04 0.9999 1e-04 0.9999 1e-04 0.9999 1e-04 0.9999 1e-04 0.9999 1e-04 0.9999 1e-04 0.9999 1e-04 0.9999 1e-04 0.9999 1e-04 0.9999 1e-04 0.9999 1e-04 0.9999 1e-04 0.9999 1e-04 0.9999 1e-04 0.9999 1e-04 0.9999 1e-04 0.9999 1e-04 0.9999 1e-04 0.9999 1e-04 0.9999 1e-04 0.9999 1e-04 0.9999 1e-04 0.9999 1e-04 0.9999 1e-04 0.9999 1e-04 0.9999 1e-04 0.9999 1e-04 0.9999 1e-04 0.9999 1e-04 0.9999 1e-04 0.9999 1e-04 0.9999 1e-04 0.9999 1e-04 0.9999 1e-04 0.9999 1e-04 0.9999 1e-04 0.9999 1e-04 0.9999 1e-04 0.9999 1e-04 0.9999 1e-04 0.9999 1e-04 0.9999 1e-04 0.9999 1e-04 0.9999 1e-04 0.9999 1e-04 0.9999 1e-04 0.9999 1e-04 0.9999 1e-04 0.9999 1e-04 0.9999 1e-04 0.9999 1e-04 0.9999 1e-04 0.9999 1e-04 0.9999 1e-04 0.9999 1e-04 0.9999 1e-04 0.9999 1e-04 0.9999 1e-04 0.9999 1e-04 0.9999 1e-04 0.9999 1e-04 0.9999 1e-04 0.9999 1e-04 0.9999 1e-04 0.9999 1e-04 0.9999 1e-04 0.9999 1e-04 0.9999 1e-04 0.9999 1e-04 0.9999 1e-04 0.9999 1e-04 0.9999 1e-04 0.9999 1e-04 0.9999 1e-04 0.9999 1e-04 0.9999 1e-04 0.9999 1e-04 0.9999 1e-04 0.9999 1e-04 0.9999 1e-04 0.9999 1e-04 0.9999 1e-04 0.9999 1e-04 0.9999 1e-04 0.9999 1e-04 0.9999 1e-04 0.9999 1e-04 0.9999 1e-04 0.9999 1e-04 0.9999 1e-04 0.9999 1e-04 0.9999 1e-04 0.9999 1e-04 0.9999 1e-04 0.9999 1e-04 0.9999 1e-04 0.9999 1e-04 0.9999 1e-04 0.9999 1e-04 0.9999 1e-04 0.9999 1e-04 0.9999 1e-04 0.9999 1e-04 0.9999 1e-04 0.9999 1e-04 0.9999 1e-04 0.9999 1e-04 0.9999 1e-04 0.9999 1e-04 0.9999 1e-04 0.9999 1e-04 0.9999 1e-04 0.9999 1e-04 0.9999 1e-04 0.9999 1e-04 0.9999 1e-04 0.9999 1e-04 0.9999 1e-04 0.9999 1e-04 0.9999 1e-04 0.9999 1e-04 0.9999 1e-04 0.9999 1e-04 0.9999 1e-04 0.9999 1e-04 0.9999 1e-04 0.9999 1e-04 0.9999 1e-04 0.9999 1e-04 0.9999 1e-04 0.9999 1e-04 0.9999 1e-04 0.9999 1e-04 0.9999 1e-04 0.9999 1e-04 0.9999 1e-04 0.9999 1e-04 0.9999 1e-04 0.9999 1e-04 0.9999 1e-04 0.9999 1e-04 0.9999 1e-04 0.9999 1e-04 0.9999 1e-04 0.9999 1e-04 0.9999 1e-04 0.9999 1e-04 0.9999 1e-04 0.9999 1e-04 0.9999 1e-04 0.9999 1e-04 0.9999 1e-04 0.9999 1e-04 0.9999 1e-04 0.9999 1e-04 0.9999 1e-04 0.9999 1e-04 0.9999 1e-04 0.9999 1e-04 0.9999 1e-04 0.9999 1e-04 0.9999 1e-04 0.9999 1e-04 0.9999 1e-04 0.9999 1e-04 0.9999 1e-04 0.9999 1e-04 0.9999 1e-04 0.9999 1e-04 0.9999 1e-04 0.9999 1e-04 0.9999 1e-04 0.9999 1e-04 0.9999 1e-04 0.9999 1e-04 0.9999 1e-04 0.9999 1e-04 0.9999 1e-04 0.9999 1e-04 0.9999 1e-04 0.9999 1e-04 0.9999 1e-04 0.9999 1e-04 0.9999 1e-04 0.9999 1e-04 0.9999 1e-04 0.9999 1e-04 0.9999 1e-04 0.9999 1e-04 0.9999 1e-04 0.9999 1e-04 0.9999 1e-04 0.9999 1e-04 0.9999 1e-04 0.9999 1e-04 0.9999 1e-04 0.9999 1e-04 0.9999 1e-04 0.9999 1e-04 0.9999 1e-04 0.9999 1e-04 0.9999 1e-04 0.9999 1e-04 0.9999 1e-04 0.9999 1e-04 0.9999 1e-04 0.9999 1e-04 0.9999 1e-04 0.9999 1e-04 0.9999 1e-04 0.9999 1e-04 0.9999 1e-04 0.9999 1e-04 0.9999 1e-04 0.9999 1e-04 0.9999 1e-04 0.9999 1e-04 0.9999 1e-04 0.9999 1e-04 0.9999 1e-04 0.9999 1e-04 0.9999 1e-04 0.9999 1e-04 0.9999 1e-04 0.9999 1e-04 0.9999 1e-04 0.9999 1e-04 0.9999 1e-04 0.9999 1e-04 0.9999 1e-04 0.9999 1e-04 0.9999 1e-04 0.9999 1e-04 0.9999 1e-04 0.9999 1e-04 0.9999 1e-04 0.9999 1e-04 0.9999 1e-04 0.9999 1e-04 0.9999 1e-04 0.9999 1e-04 0.9999 1e-04 0.9999 1e-04 0.9999 1e-04 0.9999 1e-04 0.9999 1e-04 0.9999 1e-04 0.9999 1e-04 0.9999 1e-04 0.9999 1e-04 0.9999 1e-04 0.9999 1e-04 0.9999 1e-04 0.9999 1e-04 0.9999 1e-04 0.9999 1e-04 0.9999 1e-04 0.9999 1e-04 0.9999 1e-04 0.9999 1e-04 0.9999 1e-04 0.9999 1e-04 0.9999 1e-04 0.9999 1e-04 0.9999 1e-04 0.9999 1e-04 0.9999 1e-04 0.9999 1e-04 0.9999 1e-04 0.9999 1e-04 0.9999 1e-04 0.9999 1e-04 0.9999 1e-04 0.9999 1e-04 0.9999 1e-04 0.9999 1e-04 0.9999 1e-04 0.9999 1e-04 0.9999 1e-04 0.9999 1e-04 0.9999 1e-04 0.9999 1e-04 0.9999 1e-04 0.9999 1e-04 0.9999 1e-04 0.9999 1e-04 0.9999 1e-04 0.9999 1e-04 0.9999 1e-04 0.9999 1e-04 0.9999 1e-04 0.9999 1e-04 0.9999 1e-04 0.9999 1e-04 0.9999 1e-04 0.9999 1e-04 0.9999 1e-04 0.9999 1e-04 0.9999 1e-04 0.9999 1e-04 0.9999 1e-04 0.9999 1e-04 0.9999 1e-04 0.9999 1e-04 0.9999 1e-04 0.9999 1e-04 0.9999 1e-04 0.9999 1e-04 0.9999 1e-04 0.9999 1e-04 0.9999 1e-04 0.9999 1e-04 0.9999 1e-04 0.9999 1e-04 0.9999 1e-04 0.9999 1e-04 0.9999 1e-04 0.9999 1e-04 0.9999 1e-04 0.9999 1e-04 0.9999 1e-04 0.9999 1e-04 0.9999 1e-04 0.9999 1e-04 0.9999 1e-04 0.9999 1e-04 0.9999 1e-04 0.9999 1e-04 0.9999 1e-04 0.9999 1e-04 0.9999 1e-04 0.9999 1e-04 0.9999 1e-04 0.9999 1e-04 0.9999 1e-04 0.9999 1e-04 0.9999 1e-04 0.9999 1e-04 0.9999 1e-04 0.9999 1e-04 0.9999 1e-04 0.9999 1e-04 0.9999 1e-04 0.9999 1e-04 0.9999 1e-04 0.9999 1e-04 0.9999 1e-04 0.9999 0.333333333333333 0.666666666666667 0.416666666666667 0.583333333333333 0.5 0.5 0.25 0.75 0.333333333333333 0.666666666666667 0.416666666666667 0.583333333333333 0.166666666666667 0.833333333333333 0.25 0.75 0.333333333333333 0.666666666666667 0.25 0.75 0.333333333333333 0.666666666666667 0.416666666666667 0.583333333333333 0.166666666666667 0.833333333333333 0.25 0.75 0.333333333333333 0.666666666666667 0.0833333333333333 0.916666666666667 0.166666666666667 0.833333333333333 0.25 0.75 0.166666666666667 0.833333333333333 0.25 0.75 0.333333333333333 0.666666666666667 0.0833333333333333 0.916666666666667 0.166666666666667 0.833333333333333 0.25 0.75 1e-04 0.9999 0.0833333333333333 0.916666666666667 0.166666666666667 0.833333333333333 0.583333333333333 0.416666666666667 0.666666666666667 0.333333333333333 0.75 0.25 0.5 0.5 0.583333333333333 0.416666666666667 0.666666666666667 0.333333333333333 0.416666666666667 0.583333333333333 0.5 0.5 0.583333333333333 0.416666666666667 0.5 0.5 0.583333333333333 0.416666666666667 0.666666666666667 0.333333333333333 0.416666666666667 0.583333333333333 0.5 0.5 0.583333333333333 0.416666666666667 0.333333333333333 0.666666666666667 0.416666666666667 0.583333333333333 0.5 0.5 0.416666666666667 0.583333333333333 0.5 0.5 0.583333333333333 0.416666666666667 0.333333333333333 0.666666666666667 0.416666666666667 0.583333333333333 0.5 0.5 0.25 0.75 0.333333333333333 0.666666666666667 0.416666666666667 0.583333333333333 0.458333333333333 0.541666666666667 0.541666666666667 0.458333333333333 0.625 0.375 0.375 0.625 0.458333333333333 0.541666666666667 0.541666666666667 0.458333333333333 0.291666666666667 0.708333333333333 0.375 0.625 0.458333333333333 0.541666666666667 0.375 0.625 0.458333333333333 0.541666666666667 0.541666666666667 0.458333333333333 0.291666666666667 0.708333333333333 0.375 0.625 0.458333333333333 0.541666666666667 0.208333333333333 0.791666666666667 0.291666666666667 0.708333333333333 0.375 0.625 0.291666666666667 0.708333333333333 0.375 0.625 0.458333333333333 0.541666666666667 0.208333333333333 0.791666666666667 0.291666666666667 0.708333333333333 0.375 0.625 0.125 0.875 0.208333333333333 0.791666666666667 0.291666666666667 0.708333333333333 0.708333333333333 0.291666666666667 0.791666666666667 0.208333333333333 0.875 0.125 0.625 0.375 0.708333333333333 0.291666666666667 0.791666666666667 0.208333333333333 0.541666666666667 0.458333333333333 0.625 0.375 0.708333333333333 0.291666666666667 0.625 0.375 0.708333333333333 0.291666666666667 0.791666666666667 0.208333333333333 0.541666666666667 0.458333333333333 0.625 0.375 0.708333333333333 0.291666666666667 0.458333333333333 0.541666666666667 0.541666666666667 0.458333333333333 0.625 0.375 0.541666666666667 0.458333333333333 0.625 0.375 0.708333333333333 0.291666666666667 0.458333333333333 0.541666666666667 0.541666666666667 0.458333333333333 0.625 0.375 0.375 0.625 0.458333333333333 0.541666666666667 0.541666666666667 0.458333333333333 0.583333333333333 0.416666666666667 0.666666666666667 0.333333333333333 0.75 0.25 0.5 0.5 0.583333333333333 0.416666666666667 0.666666666666667 0.333333333333333 0.416666666666667 0.583333333333333 0.5 0.5 0.583333333333333 0.416666666666667 0.5 0.5 0.583333333333333 0.416666666666667 0.666666666666667 0.333333333333333 0.416666666666667 0.583333333333333 0.5 0.5 0.583333333333333 0.416666666666667 0.333333333333333 0.666666666666667 0.416666666666667 0.583333333333333 0.5 0.5 0.416666666666667 0.583333333333333 0.5 0.5 0.583333333333333 0.416666666666667 0.333333333333333 0.666666666666667 0.416666666666667 0.583333333333333 0.5 0.5 0.25 0.75 0.333333333333333 0.666666666666667 0.416666666666667 0.583333333333333 0.833333333333333 0.166666666666667 0.916666666666667 0.0833333333333334 0.9999 1e-04 0.75 0.25 0.833333333333333 0.166666666666667 0.916666666666667 0.0833333333333334 0.666666666666667 0.333333333333333 0.75 0.25 0.833333333333333 0.166666666666667 0.75 0.25 0.833333333333333 0.166666666666667 0.916666666666667 0.0833333333333334 0.666666666666667 0.333333333333333 0.75 0.25 0.833333333333333 0.166666666666667 0.583333333333333 0.416666666666667 0.666666666666667 0.333333333333333 0.75 0.25 0.666666666666667 0.333333333333333 0.75 0.25 0.833333333333333 0.166666666666667 0.583333333333333 0.416666666666667 0.666666666666667 0.333333333333333 0.75 0.25 0.5 0.5 0.583333333333333 0.416666666666667 0.666666666666667 0.333333333333333 0.222222222222222 0.777777777777778 0.333333333333333 0.666666666666667 0.444444444444444 0.555555555555556 0.222222222222222 0.777777777777778 0.333333333333333 0.666666666666667 0.444444444444444 0.555555555555556 0.222222222222222 0.777777777777778 0.333333333333333 0.666666666666667 0.444444444444444 0.555555555555556 0.111111111111111 0.888888888888889 0.222222222222222 0.777777777777778 0.333333333333333 0.666666666666667 0.111111111111111 0.888888888888889 0.222222222222222 0.777777777777778 0.333333333333333 0.666666666666667 0.111111111111111 0.888888888888889 0.222222222222222 0.777777777777778 0.333333333333333 0.666666666666667 1e-04 0.9999 0.111111111111111 0.888888888888889 0.222222222222222 0.777777777777778 1e-04 0.9999 0.111111111111111 0.888888888888889 0.222222222222222 0.777777777777778 1e-04 0.9999 0.111111111111111 0.888888888888889 0.222222222222222 0.777777777777778 0.555555555555556 0.444444444444444 0.666666666666667 0.333333333333333 0.777777777777778 0.222222222222222 0.555555555555556 0.444444444444444 0.666666666666667 0.333333333333333 0.777777777777778 0.222222222222222 0.555555555555556 0.444444444444444 0.666666666666667 0.333333333333333 0.777777777777778 0.222222222222222 0.444444444444444 0.555555555555556 0.555555555555556 0.444444444444444 0.666666666666667 0.333333333333333 0.444444444444444 0.555555555555556 0.555555555555556 0.444444444444444 0.666666666666667 0.333333333333333 0.444444444444444 0.555555555555556 0.555555555555556 0.444444444444444 0.666666666666667 0.333333333333333 0.333333333333333 0.666666666666667 0.444444444444444 0.555555555555556 0.555555555555556 0.444444444444444 0.333333333333333 0.666666666666667 0.444444444444444 0.555555555555556 0.555555555555556 0.444444444444444 0.333333333333333 0.666666666666667 0.444444444444444 0.555555555555556 0.555555555555556 0.444444444444444 0.333333333333333 0.666666666666667 0.444444444444444 0.555555555555556 0.555555555555556 0.444444444444444 0.333333333333333 0.666666666666667 0.444444444444444 0.555555555555556 0.555555555555556 0.444444444444444 0.333333333333333 0.666666666666667 0.444444444444444 0.555555555555556 0.555555555555556 0.444444444444444 0.222222222222222 0.777777777777778 0.333333333333333 0.666666666666667 0.444444444444444 0.555555555555556 0.222222222222222 0.777777777777778 0.333333333333333 0.666666666666667 0.444444444444444 0.555555555555556 0.222222222222222 0.777777777777778 0.333333333333333 0.666666666666667 0.444444444444444 0.555555555555556 0.111111111111111 0.888888888888889 0.222222222222222 0.777777777777778 0.333333333333333 0.666666666666667 0.111111111111111 0.888888888888889 0.222222222222222 0.777777777777778 0.333333333333333 0.666666666666667 0.111111111111111 0.888888888888889 0.222222222222222 0.777777777777778 0.333333333333333 0.666666666666667 0.666666666666667 0.333333333333333 0.777777777777778 0.222222222222222 0.888888888888889 0.111111111111111 0.666666666666667 0.333333333333333 0.777777777777778 0.222222222222222 0.888888888888889 0.111111111111111 0.666666666666667 0.333333333333333 0.777777777777778 0.222222222222222 0.888888888888889 0.111111111111111 0.555555555555556 0.444444444444444 0.666666666666667 0.333333333333333 0.777777777777778 0.222222222222222 0.555555555555556 0.444444444444444 0.666666666666667 0.333333333333333 0.777777777777778 0.222222222222222 0.555555555555556 0.444444444444444 0.666666666666667 0.333333333333333 0.777777777777778 0.222222222222222 0.444444444444444 0.555555555555556 0.555555555555556 0.444444444444444 0.666666666666667 0.333333333333333 0.444444444444444 0.555555555555556 0.555555555555556 0.444444444444444 0.666666666666667 0.333333333333333 0.444444444444444 0.555555555555556 0.555555555555556 0.444444444444444 0.666666666666667 0.333333333333333 0.444444444444444 0.555555555555556 0.555555555555556 0.444444444444444 0.666666666666667 0.333333333333333 0.444444444444444 0.555555555555556 0.555555555555556 0.444444444444444 0.666666666666667 0.333333333333333 0.444444444444444 0.555555555555556 0.555555555555556 0.444444444444444 0.666666666666667 0.333333333333333 0.333333333333333 0.666666666666667 0.444444444444444 0.555555555555556 0.555555555555556 0.444444444444444 0.333333333333333 0.666666666666667 0.444444444444444 0.555555555555556 0.555555555555556 0.444444444444444 0.333333333333333 0.666666666666667 0.444444444444444 0.555555555555556 0.555555555555556 0.444444444444444 0.222222222222222 0.777777777777778 0.333333333333333 0.666666666666667 0.444444444444444 0.555555555555556 0.222222222222222 0.777777777777778 0.333333333333333 0.666666666666667 0.444444444444444 0.555555555555556 0.222222222222222 0.777777777777778 0.333333333333333 0.666666666666667 0.444444444444444 0.555555555555556 0.777777777777778 0.222222222222222 0.888888888888889 0.111111111111111 0.9999 1e-04 0.777777777777778 0.222222222222222 0.888888888888889 0.111111111111111 0.9999 1e-04 0.777777777777778 0.222222222222222 0.888888888888889 0.111111111111111 0.9999 1e-04 0.666666666666667 0.333333333333333 0.777777777777778 0.222222222222222 0.888888888888889 0.111111111111111 0.666666666666667 0.333333333333333 0.777777777777778 0.222222222222222 0.888888888888889 0.111111111111111 0.666666666666667 0.333333333333333 0.777777777777778 0.222222222222222 0.888888888888889 0.111111111111111 0.555555555555556 0.444444444444444 0.666666666666667 0.333333333333333 0.777777777777778 0.222222222222222 0.555555555555556 0.444444444444444 0.666666666666667 0.333333333333333 0.777777777777778 0.222222222222222 0.555555555555556 0.444444444444444 0.666666666666667 0.333333333333333 0.777777777777778 0.222222222222222 1e-04 0.9999 1e-04 0.9999 1e-04 0.9999 1e-04 0.9999 1e-04 0.9999 1e-04 0.9999 1e-04 0.9999 1e-04 0.9999 1e-04 0.9999 1e-04 0.9999 1e-04 0.9999 1e-04 0.9999 1e-04 0.9999 1e-04 0.9999 1e-04 0.9999 1e-04 0.9999 1e-04 0.9999 1e-04 0.9999 1e-04 0.9999 1e-04 0.9999 1e-04 0.9999 1e-04 0.9999 1e-04 0.9999 1e-04 0.9999 1e-04 0.9999 1e-04 0.9999 1e-04 0.9999 1e-04 0.9999 1e-04 0.9999 1e-04 0.9999 1e-04 0.9999 1e-04 0.9999 1e-04 0.9999 1e-04 0.9999 1e-04 0.9999 1e-04 0.9999 1e-04 0.9999 1e-04 0.9999 1e-04 0.9999 1e-04 0.9999 1e-04 0.9999 1e-04 0.9999 1e-04 0.9999 1e-04 0.9999 1e-04 0.9999 1e-04 0.9999 1e-04 0.9999 1e-04 0.9999 1e-04 0.9999 1e-04 0.9999 1e-04 0.9999 1e-04 0.9999 1e-04 0.9999 1e-04 0.9999 1e-04 0.9999 1e-04 0.9999 1e-04 0.9999 1e-04 0.9999 1e-04 0.9999 1e-04 0.9999 1e-04 0.9999 1e-04 0.9999 1e-04 0.9999 1e-04 0.9999 1e-04 0.9999 1e-04 0.9999 1e-04 0.9999 1e-04 0.9999 1e-04 0.9999 1e-04 0.9999 1e-04 0.9999 1e-04 0.9999 1e-04 0.9999 1e-04 0.9999 1e-04 0.9999 1e-04 0.9999 1e-04 0.9999 1e-04 0.9999 1e-04 0.9999 1e-04 0.9999 1e-04 0.9999 1e-04 0.9999 1e-04 0.9999 1e-04 0.9999 1e-04 0.9999 1e-04 0.9999 1e-04 0.9999 1e-04 0.9999 1e-04 0.9999 1e-04 0.9999 1e-04 0.9999 1e-04 0.9999 1e-04 0.9999 1e-04 0.9999 1e-04 0.9999 1e-04 0.9999 1e-04 0.9999 1e-04 0.9999 1e-04 0.9999 1e-04 0.9999 1e-04 0.9999 1e-04 0.9999 1e-04 0.9999 1e-04 0.9999 1e-04 0.9999 1e-04 0.9999 1e-04 0.9999 1e-04 0.9999 1e-04 0.9999 1e-04 0.9999 1e-04 0.9999 1e-04 0.9999 1e-04 0.9999 1e-04 0.9999 1e-04 0.9999 1e-04 0.9999 1e-04 0.9999 1e-04 0.9999 1e-04 0.9999 1e-04 0.9999 1e-04 0.9999 1e-04 0.9999 1e-04 0.9999 1e-04 0.9999 1e-04 0.9999 1e-04 0.9999 1e-04 0.9999 1e-04 0.9999 1e-04 0.9999 1e-04 0.9999 1e-04 0.9999 1e-04 0.9999 1e-04 0.9999 1e-04 0.9999 1e-04 0.9999 1e-04 0.9999 1e-04 0.9999 1e-04 0.9999 1e-04 0.9999 1e-04 0.9999 1e-04 0.9999 1e-04 0.9999 1e-04 0.9999 1e-04 0.9999 1e-04 0.9999 1e-04 0.9999 1e-04 0.9999 1e-04 0.9999 1e-04 0.9999 1e-04 0.9999 1e-04 0.9999 1e-04 0.9999 1e-04 0.9999 1e-04 0.9999 1e-04 0.9999 1e-04 0.9999 1e-04 0.9999 1e-04 0.9999 1e-04 0.9999 1e-04 0.9999 1e-04 0.9999 1e-04 0.9999 1e-04 0.9999 1e-04 0.9999 1e-04 0.9999 1e-04 0.9999 1e-04 0.9999 1e-04 0.9999 1e-04 0.9999 1e-04 0.9999 1e-04 0.9999 1e-04 0.9999 1e-04 0.9999 1e-04 0.9999 1e-04 0.9999 1e-04 0.9999 1e-04 0.9999 1e-04 0.9999 1e-04 0.9999 1e-04 0.9999 1e-04 0.9999 1e-04 0.9999 1e-04 0.9999 1e-04 0.9999 1e-04 0.9999 1e-04 0.9999 1e-04 0.9999 1e-04 0.9999 1e-04 0.9999 1e-04 0.9999 1e-04 0.9999 1e-04 0.9999 1e-04 0.9999 1e-04 0.9999 1e-04 0.9999 1e-04 0.9999 1e-04 0.9999 1e-04 0.9999 1e-04 0.9999 1e-04 0.9999 1e-04 0.9999 1e-04 0.9999 1e-04 0.9999 1e-04 0.9999 1e-04 0.9999 1e-04 0.9999 1e-04 0.9999 1e-04 0.9999 1e-04 0.9999 1e-04 0.9999 1e-04 0.9999 1e-04 0.9999 1e-04 0.9999 1e-04 0.9999 1e-04 0.9999 1e-04 0.9999 1e-04 0.9999 1e-04 0.9999 1e-04 0.9999 1e-04 0.9999 1e-04 0.9999 1e-04 0.9999 1e-04 0.9999 1e-04 0.9999 1e-04 0.9999 1e-04 0.9999 1e-04 0.9999 1e-04 0.9999 1e-04 0.9999 1e-04 0.9999 1e-04 0.9999 1e-04 0.9999 1e-04 0.9999 1e-04 0.9999 1e-04 0.9999 1e-04 0.9999 1e-04 0.9999 1e-04 0.9999 1e-04 0.9999 1e-04 0.9999 1e-04 0.9999 1e-04 0.9999 1e-04 0.9999 1e-04 0.9999 1e-04 0.9999 1e-04 0.9999 1e-04 0.9999 1e-04 0.9999 1e-04 0.9999 1e-04 0.9999 1e-04 0.9999 1e-04 0.9999 1e-04 0.9999 1e-04 0.9999 1e-04 0.9999 1e-04 0.9999 1e-04 0.9999 1e-04 0.9999 1e-04 0.9999 1e-04 0.9999 1e-04 0.9999 1e-04 0.9999 1e-04 0.9999 1e-04 0.9999 1e-04 0.9999 1e-04 0.9999 1e-04 0.9999 1e-04 0.9999 1e-04 0.9999 1e-04 0.9999 1e-04 0.9999 1e-04 0.9999 1e-04 0.9999 1e-04 0.9999 1e-04 0.9999 1e-04 0.9999 1e-04 0.9999 1e-04 0.9999 1e-04 0.9999 1e-04 0.9999 1e-04 0.9999 1e-04 0.9999 1e-04 0.9999 1e-04 0.9999 1e-04 0.9999 1e-04 0.9999 1e-04 0.9999 1e-04 0.9999 1e-04 0.9999 1e-04 0.9999 1e-04 0.9999 1e-04 0.9999 1e-04 0.9999 1e-04 0.9999 1e-04 0.9999 1e-04 0.9999 1e-04 0.9999 1e-04 0.9999 1e-04 0.9999 1e-04 0.9999 1e-04 0.9999 1e-04 0.9999 1e-04 0.9999 1e-04 0.9999 1e-04 0.9999 1e-04 0.9999 1e-04 0.9999 1e-04 0.9999 1e-04 0.9999 1e-04 0.9999 1e-04 0.9999 1e-04 0.9999 1e-04 0.9999 1e-04 0.9999 1e-04 0.9999 1e-04 0.9999 1e-04 0.9999 1e-04 0.9999 1e-04 0.9999 1e-04 0.9999 1e-04 0.9999 1e-04 0.9999 1e-04 0.9999 1e-04 0.9999</probabilities>
			<property id="Order">Topo, Nat, prot, frag, dis, inv</property>
			<property id="Imp">2, 4, 3, 2, 4, 4</property>
			<property id="Dir">1, 1, 1, 0, 0, 0</property>
		</cpt>
		<cpt id="Slope_Mig_Zone">
			<state id="Small" />
			<state id="Medium" />
			<state id="Large" />
			<probabilities>0.3333 0.3333 0.3334</probabilities>
		</cpt>
		<cpt id="Aspect_Mig_Zone">
			<state id="Small" />
			<state id="Medium" />
			<state id="Large" />
			<probabilities>0.3333 0.3333 0.3334</probabilities>
		</cpt>
		<cpt id="Average_ppt_gradient_within_MG">
			<state id="Low" />
			<state id="Medium" />
			<state id="High" />
			<probabilities>0.33333 0.33333 0.33334</probabilities>
		</cpt>
		<cpt id="Average_slope_within_MG">
			<state id="Low" />
			<state id="Medium" />
			<state id="High" />
			<probabilities>0.33333 0.33333 0.33334</probabilities>
		</cpt>
		<cpt id="Topo_divesity_Mig">
			<state id="Small" />
			<state id="Large" />
			<parents>Slope_Mig_Zone Aspect_Mig_Zone Average_ppt_gradient_within_MG Average_slope_within_MG</parents>
			<probabilities>1 0 1 0 1 0 1 0 1 0 1 0 1 0 1 0 1 0 0.833333333 0.166666667 0.833333333 0.166666667 0.833333333 0.166666667 0.833333333 0.166666667 0.833333333 0.166666667 0.833333333 0.166666667 0.833333333 0.166666667 0.833333333 0.166666667 0.833333333 0.166666667 0.666666667 0.333333333 0.666666667 0.333333333 0.666666667 0.333333333 0.666666667 0.333333333 0.666666667 0.333333333 0.666666667 0.333333333 0.666666667 0.333333333 0.666666667 0.333333333 0.666666667 0.333333333 0.666666667 0.333333333 0.666666667 0.333333333 0.666666667 0.333333333 0.666666667 0.333333333 0.666666667 0.333333333 0.666666667 0.333333333 0.666666667 0.333333333 0.666666667 0.333333333 0.666666667 0.333333333 0.5 0.5 0.5 0.5 0.5 0.5 0.5 0.5 0.5 0.5 0.5 0.5 0.5 0.5 0.5 0.5 0.5 0.5 0.333333333 0.666666667 0.333333333 0.666666667 0.333333333 0.666666667 0.333333333 0.666666667 0.333333333 0.666666667 0.333333333 0.666666667 0.333333333 0.666666667 0.333333333 0.666666667 0.333333333 0.666666667 0.333333333 0.666666667 0.333333333 0.666666667 0.333333333 0.666666667 0.333333333 0.666666667 0.333333333 0.666666667 0.333333333 0.666666667 0.333333333 0.666666667 0.333333333 0.666666667 0.333333333 0.666666667 0.166666667 0.833333333 0.166666667 0.833333333 0.166666667 0.833333333 0.166666667 0.833333333 0.166666667 0.833333333 0.166666667 0.833333333 0.166666667 0.833333333 0.166666667 0.833333333 0.166666667 0.833333333 0 1 0 1 0 1 0 1 0 1 0 1 0 1 0 1 0 1</probabilities>
		</cpt>
		<cpt id="Native_cover_in_Mig_zone">
			<state id="Small" />
			<state id="Medium" />
			<state id="Large" />
			<probabilities>0.157 0.124 0.719</probabilities>
		</cpt>
		<cpt id="Change_Mig_Zone_under_protection">
			<state id="Decrease" />
			<state id="Stasis" />
			<state id="Increase" />
			<probabilities>0.3333 0.3333 0.3334</probabilities>
		</cpt>
		<cpt id="Mig_Zone_under_Protective_designation">
			<state id="Small" />
			<state id="Medium" />
			<state id="Large" />
			<probabilities>0.199 0.187 0.614</probabilities>
		</cpt>
		<cpt id="Mig_Zone_in_Active_management">
			<state id="Small" />
			<state id="Medium" />
			<state id="Large" />
			<probabilities>0.3333 0.3333 0.3334</probabilities>
		</cpt>
		<cpt id="x_Mig_Zone_in_ungulate_free_areas">
			<state id="Small" />
			<state id="Medium" />
			<state id="Large" />
			<probabilities>0.209 0.121 0.67</probabilities>
		</cpt>
		<cpt id="x_protected_areas_in_Mig_Zone">
			<state id="Small" />
			<state id="Large" />
			<parents>x_Mig_Zone_in_ungulate_free_areas Mig_Zone_under_Protective_designation</parents>
			<probabilities>0.9999 1e-04 0.75 0.25 0.5 0.5 0.75 0.25 0.5 0.5 0.25 0.75 0.5 0.5 0.25 0.75 1e-04 0.9999</probabilities>
		</cpt>
		<cpt id="x_Mig_Zone_overlap_with_key_detrimental_invasive">
			<state id="Small" />
			<state id="Medium" />
			<state id="Large" />
			<probabilities>0.2600000000000001 0.293 0.447</probabilities>
		</cpt>
		<cpt id="x_Mig_in_novel_lost_climate">
			<state id="Small" />
			<state id="Medium" />
			<state id="Large" />
			<probabilities>0.3333 0.3333 0.3334</probabilities>
		</cpt>
		<cpt id="Climate_change_velocity_in_MG">
			<state id="Low" />
			<state id="High" />
			<probabilities>1 0</probabilities>
		</cpt>
		<cpt id="Barriers_to_movement">
			<state id="Small" />
			<state id="Medium" />
			<state id="Large" />
			<probabilities>0.3299999999999999 0.33 0.34</probabilities>
		</cpt>
		<cpt id="Mig_Zone_Habitat_qual">
			<state id="Favorable" />
			<state id="Unfavorable" />
			<parents>Winkout Persistence_in_invaded_landscape Native_cover_in_Mig_zone x_protected_areas_in_Mig_Zone Mig_fragmentation x_Mig_Zone_overlap_with_key_detrimental_invasive Distance_between_current_and_future_suitable_range Barriers_to_movement</parents>
			<probabilities>0.571428571428571 0.428571428571429 0.5 0.5 0.428571428571429 0.571428571428571 0.5 0.5 0.428571428571429 0.571428571428571 0.357142857142857 0.642857142857143 0.428571428571429 0.571428571428571 0.357142857142857 0.642857142857143 0.285714285714286 0.714285714285714 0.5 0.5 0.428571428571429 0.571428571428571 0.357142857142857 0.642857142857143 0.428571428571429 0.571428571428571 0.357142857142857 0.642857142857143 0.285714285714286 0.714285714285714 0.357142857142857 0.642857142857143 0.285714285714286 0.714285714285714 0.214285714285714 0.785714285714286 0.428571428571429 0.571428571428571 0.357142857142857 0.642857142857143 0.285714285714286 0.714285714285714 0.357142857142857 0.642857142857143 0.285714285714286 0.714285714285714 0.214285714285714 0.785714285714286 0.285714285714286 0.714285714285714 0.214285714285714 0.785714285714286 0.142857142857143 0.857142857142857 0.5 0.5 0.428571428571429 0.571428571428571 0.357142857142857 0.642857142857143 0.428571428571429 0.571428571428571 0.357142857142857 0.642857142857143 0.285714285714286 0.714285714285714 0.357142857142857 0.642857142857143 0.285714285714286 0.714285714285714 0.214285714285714 0.785714285714286 0.428571428571429 0.571428571428571 0.357142857142857 0.642857142857143 0.285714285714286 0.714285714285714 0.357142857142857 0.642857142857143 0.285714285714286 0.714285714285714 0.214285714285714 0.785714285714286 0.285714285714286 0.714285714285714 0.214285714285714 0.785714285714286 0.142857142857143 0.857142857142857 0.357142857142857 0.642857142857143 0.285714285714286 0.714285714285714 0.214285714285714 0.785714285714286 0.285714285714286 0.714285714285714 0.214285714285714 0.785714285714286 0.142857142857143 0.857142857142857 0.214285714285714 0.785714285714286 0.142857142857143 0.857142857142857 0.0714285714285714 0.928571428571429 0.428571428571429 0.571428571428571 0.357142857142857 0.642857142857143 0.285714285714286 0.714285714285714 0.357142857142857 0.642857142857143 0.285714285714286 0.714285714285714 0.214285714285714 0.785714285714286 0.285714285714286 0.714285714285714 0.214285714285714 0.785714285714286 0.142857142857143 0.857142857142857 0.357142857142857 0.642857142857143 0.285714285714286 0.714285714285714 0.214285714285714 0.785714285714286 0.285714285714286 0.714285714285714 0.214285714285714 0.785714285714286 0.142857142857143 0.857142857142857 0.214285714285714 0.785714285714286 0.142857142857143 0.857142857142857 0.0714285714285714 0.928571428571429 0.285714285714286 0.714285714285714 0.214285714285714 0.785714285714286 0.142857142857143 0.857142857142857 0.214285714285714 0.785714285714286 0.142857142857143 0.857142857142857 0.0714285714285714 0.928571428571429 0.142857142857143 0.857142857142857 0.0714285714285714 0.928571428571429 1e-04 0.9999 0.785714285714286 0.214285714285714 0.714285714285714 0.285714285714286 0.642857142857143 0.357142857142857 0.714285714285714 0.285714285714286 0.642857142857143 0.357142857142857 0.571428571428571 0.428571428571429 0.642857142857143 0.357142857142857 0.571428571428571 0.428571428571429 0.5 0.5 0.714285714285714 0.285714285714286 0.642857142857143 0.357142857142857 0.571428571428571 0.428571428571429 0.642857142857143 0.357142857142857 0.571428571428571 0.428571428571429 0.5 0.5 0.571428571428571 0.428571428571429 0.5 0.5 0.428571428571429 0.571428571428571 0.642857142857143 0.357142857142857 0.571428571428571 0.428571428571429 0.5 0.5 0.571428571428571 0.428571428571429 0.5 0.5 0.428571428571429 0.571428571428571 0.5 0.5 0.428571428571429 0.571428571428571 0.357142857142857 0.642857142857143 0.714285714285714 0.285714285714286 0.642857142857143 0.357142857142857 0.571428571428571 0.428571428571429 0.642857142857143 0.357142857142857 0.571428571428571 0.428571428571429 0.5 0.5 0.571428571428571 0.428571428571429 0.5 0.5 0.428571428571429 0.571428571428571 0.642857142857143 0.357142857142857 0.571428571428571 0.428571428571429 0.5 0.5 0.571428571428571 0.428571428571429 0.5 0.5 0.428571428571429 0.571428571428571 0.5 0.5 0.428571428571429 0.571428571428571 0.357142857142857 0.642857142857143 0.571428571428571 0.428571428571429 0.5 0.5 0.428571428571429 0.571428571428571 0.5 0.5 0.428571428571429 0.571428571428571 0.357142857142857 0.642857142857143 0.428571428571429 0.571428571428571 0.357142857142857 0.642857142857143 0.285714285714286 0.714285714285714 0.642857142857143 0.357142857142857 0.571428571428571 0.428571428571429 0.5 0.5 0.571428571428571 0.428571428571429 0.5 0.5 0.428571428571429 0.571428571428571 0.5 0.5 0.428571428571429 0.571428571428571 0.357142857142857 0.642857142857143 0.571428571428571 0.428571428571429 0.5 0.5 0.428571428571429 0.571428571428571 0.5 0.5 0.428571428571429 0.571428571428571 0.357142857142857 0.642857142857143 0.428571428571429 0.571428571428571 0.357142857142857 0.642857142857143 0.285714285714286 0.714285714285714 0.5 0.5 0.428571428571429 0.571428571428571 0.357142857142857 0.642857142857143 0.428571428571429 0.571428571428571 0.357142857142857 0.642857142857143 0.285714285714286 0.714285714285714 0.357142857142857 0.642857142857143 0.285714285714286 0.714285714285714 0.214285714285714 0.785714285714286 0.678571428571428 0.321428571428572 0.607142857142857 0.392857142857143 0.535714285714286 0.464285714285714 0.607142857142857 0.392857142857143 0.535714285714286 0.464285714285714 0.464285714285714 0.535714285714286 0.535714285714286 0.464285714285714 0.464285714285714 0.535714285714286 0.392857142857143 0.607142857142857 0.607142857142857 0.392857142857143 0.535714285714286 0.464285714285714 0.464285714285714 0.535714285714286 0.535714285714286 0.464285714285714 0.464285714285714 0.535714285714286 0.392857142857143 0.607142857142857 0.464285714285714 0.535714285714286 0.392857142857143 0.607142857142857 0.321428571428571 0.678571428571429 0.535714285714286 0.464285714285714 0.464285714285714 0.535714285714286 0.392857142857143 0.607142857142857 0.464285714285714 0.535714285714286 0.392857142857143 0.607142857142857 0.321428571428571 0.678571428571429 0.392857142857143 0.607142857142857 0.321428571428571 0.678571428571429 0.25 0.75 0.607142857142857 0.392857142857143 0.535714285714286 0.464285714285714 0.464285714285714 0.535714285714286 0.535714285714286 0.464285714285714 0.464285714285714 0.535714285714286 0.392857142857143 0.607142857142857 0.464285714285714 0.535714285714286 0.392857142857143 0.607142857142857 0.321428571428571 0.678571428571429 0.535714285714286 0.464285714285714 0.464285714285714 0.535714285714286 0.392857142857143 0.607142857142857 0.464285714285714 0.535714285714286 0.392857142857143 0.607142857142857 0.321428571428571 0.678571428571429 0.392857142857143 0.607142857142857 0.321428571428571 0.678571428571429 0.25 0.75 0.464285714285714 0.535714285714286 0.392857142857143 0.607142857142857 0.321428571428571 0.678571428571429 0.392857142857143 0.607142857142857 0.321428571428571 0.678571428571429 0.25 0.75 0.321428571428571 0.678571428571429 0.25 0.75 0.178571428571429 0.821428571428571 0.535714285714286 0.464285714285714 0.464285714285714 0.535714285714286 0.392857142857143 0.607142857142857 0.464285714285714 0.535714285714286 0.392857142857143 0.607142857142857 0.321428571428571 0.678571428571429 0.392857142857143 0.607142857142857 0.321428571428571 0.678571428571429 0.25 0.75 0.464285714285714 0.535714285714286 0.392857142857143 0.607142857142857 0.321428571428571 0.678571428571429 0.392857142857143 0.607142857142857 0.321428571428571 0.678571428571429 0.25 0.75 0.321428571428571 0.678571428571429 0.25 0.75 0.178571428571429 0.821428571428571 0.392857142857143 0.607142857142857 0.321428571428571 0.678571428571429 0.25 0.75 0.321428571428571 0.678571428571429 0.25 0.75 0.178571428571429 0.821428571428571 0.25 0.75 0.178571428571429 0.821428571428571 0.107142857142857 0.892857142857143 0.892857142857143 0.107142857142857 0.821428571428571 0.178571428571429 0.75 0.25 0.821428571428571 0.178571428571429 0.75 0.25 0.678571428571428 0.321428571428572 0.75 0.25 0.678571428571428 0.321428571428572 0.607142857142857 0.392857142857143 0.821428571428571 0.178571428571429 0.75 0.25 0.678571428571428 0.321428571428572 0.75 0.25 0.678571428571428 0.321428571428572 0.607142857142857 0.392857142857143 0.678571428571428 0.321428571428572 0.607142857142857 0.392857142857143 0.535714285714286 0.464285714285714 0.75 0.25 0.678571428571428 0.321428571428572 0.607142857142857 0.392857142857143 0.678571428571428 0.321428571428572 0.607142857142857 0.392857142857143 0.535714285714286 0.464285714285714 0.607142857142857 0.392857142857143 0.535714285714286 0.464285714285714 0.464285714285714 0.535714285714286 0.821428571428571 0.178571428571429 0.75 0.25 0.678571428571428 0.321428571428572 0.75 0.25 0.678571428571428 0.321428571428572 0.607142857142857 0.392857142857143 0.678571428571428 0.321428571428572 0.607142857142857 0.392857142857143 0.535714285714286 0.464285714285714 0.75 0.25 0.678571428571428 0.321428571428572 0.607142857142857 0.392857142857143 0.678571428571428 0.321428571428572 0.607142857142857 0.392857142857143 0.535714285714286 0.464285714285714 0.607142857142857 0.392857142857143 0.535714285714286 0.464285714285714 0.464285714285714 0.535714285714286 0.678571428571428 0.321428571428572 0.607142857142857 0.392857142857143 0.535714285714286 0.464285714285714 0.607142857142857 0.392857142857143 0.535714285714286 0.464285714285714 0.464285714285714 0.535714285714286 0.535714285714286 0.464285714285714 0.464285714285714 0.535714285714286 0.392857142857143 0.607142857142857 0.75 0.25 0.678571428571428 0.321428571428572 0.607142857142857 0.392857142857143 0.678571428571428 0.321428571428572 0.607142857142857 0.392857142857143 0.535714285714286 0.464285714285714 0.607142857142857 0.392857142857143 0.535714285714286 0.464285714285714 0.464285714285714 0.535714285714286 0.678571428571428 0.321428571428572 0.607142857142857 0.392857142857143 0.535714285714286 0.464285714285714 0.607142857142857 0.392857142857143 0.535714285714286 0.464285714285714 0.464285714285714 0.535714285714286 0.535714285714286 0.464285714285714 0.464285714285714 0.535714285714286 0.392857142857143 0.607142857142857 0.607142857142857 0.392857142857143 0.535714285714286 0.464285714285714 0.464285714285714 0.535714285714286 0.535714285714286 0.464285714285714 0.464285714285714 0.535714285714286 0.392857142857143 0.607142857142857 0.464285714285714 0.535714285714286 0.392857142857143 0.607142857142857 0.321428571428571 0.678571428571429 0.785714285714286 0.214285714285714 0.714285714285714 0.285714285714286 0.642857142857143 0.357142857142857 0.714285714285714 0.285714285714286 0.642857142857143 0.357142857142857 0.571428571428571 0.428571428571429 0.642857142857143 0.357142857142857 0.571428571428571 0.428571428571429 0.5 0.5 0.714285714285714 0.285714285714286 0.642857142857143 0.357142857142857 0.571428571428571 0.428571428571429 0.642857142857143 0.357142857142857 0.571428571428571 0.428571428571429 0.5 0.5 0.571428571428571 0.428571428571429 0.5 0.5 0.428571428571429 0.571428571428571 0.642857142857143 0.357142857142857 0.571428571428571 0.428571428571429 0.5 0.5 0.571428571428571 0.428571428571429 0.5 0.5 0.428571428571429 0.571428571428571 0.5 0.5 0.428571428571429 0.571428571428571 0.357142857142857 0.642857142857143 0.714285714285714 0.285714285714286 0.642857142857143 0.357142857142857 0.571428571428571 0.428571428571429 0.642857142857143 0.357142857142857 0.571428571428571 0.428571428571429 0.5 0.5 0.571428571428571 0.428571428571429 0.5 0.5 0.428571428571429 0.571428571428571 0.642857142857143 0.357142857142857 0.571428571428571 0.428571428571429 0.5 0.5 0.571428571428571 0.428571428571429 0.5 0.5 0.428571428571429 0.571428571428571 0.5 0.5 0.428571428571429 0.571428571428571 0.357142857142857 0.642857142857143 0.571428571428571 0.428571428571429 0.5 0.5 0.428571428571429 0.571428571428571 0.5 0.5 0.428571428571429 0.571428571428571 0.357142857142857 0.642857142857143 0.428571428571429 0.571428571428571 0.357142857142857 0.642857142857143 0.285714285714286 0.714285714285714 0.642857142857143 0.357142857142857 0.571428571428571 0.428571428571429 0.5 0.5 0.571428571428571 0.428571428571429 0.5 0.5 0.428571428571429 0.571428571428571 0.5 0.5 0.428571428571429 0.571428571428571 0.357142857142857 0.642857142857143 0.571428571428571 0.428571428571429 0.5 0.5 0.428571428571429 0.571428571428571 0.5 0.5 0.428571428571429 0.571428571428571 0.357142857142857 0.642857142857143 0.428571428571429 0.571428571428571 0.357142857142857 0.642857142857143 0.285714285714286 0.714285714285714 0.5 0.5 0.428571428571429 0.571428571428571 0.357142857142857 0.642857142857143 0.428571428571429 0.571428571428571 0.357142857142857 0.642857142857143 0.285714285714286 0.714285714285714 0.357142857142857 0.642857142857143 0.285714285714286 0.714285714285714 0.214285714285714 0.785714285714286 0.9999 1e-04 0.928571428571428 0.0714285714285715 0.857142857142857 0.142857142857143 0.928571428571428 0.0714285714285715 0.857142857142857 0.142857142857143 0.785714285714286 0.214285714285714 0.857142857142857 0.142857142857143 0.785714285714286 0.214285714285714 0.714285714285714 0.285714285714286 0.928571428571428 0.0714285714285715 0.857142857142857 0.142857142857143 0.785714285714286 0.214285714285714 0.857142857142857 0.142857142857143 0.785714285714286 0.214285714285714 0.714285714285714 0.285714285714286 0.785714285714286 0.214285714285714 0.714285714285714 0.285714285714286 0.642857142857143 0.357142857142857 0.857142857142857 0.142857142857143 0.785714285714286 0.214285714285714 0.714285714285714 0.285714285714286 0.785714285714286 0.214285714285714 0.714285714285714 0.285714285714286 0.642857142857143 0.357142857142857 0.714285714285714 0.285714285714286 0.642857142857143 0.357142857142857 0.571428571428571 0.428571428571429 0.928571428571428 0.0714285714285715 0.857142857142857 0.142857142857143 0.785714285714286 0.214285714285714 0.857142857142857 0.142857142857143 0.785714285714286 0.214285714285714 0.714285714285714 0.285714285714286 0.785714285714286 0.214285714285714 0.714285714285714 0.285714285714286 0.642857142857143 0.357142857142857 0.857142857142857 0.142857142857143 0.785714285714286 0.214285714285714 0.714285714285714 0.285714285714286 0.785714285714286 0.214285714285714 0.714285714285714 0.285714285714286 0.642857142857143 0.357142857142857 0.714285714285714 0.285714285714286 0.642857142857143 0.357142857142857 0.571428571428571 0.428571428571429 0.785714285714286 0.214285714285714 0.714285714285714 0.285714285714286 0.642857142857143 0.357142857142857 0.714285714285714 0.285714285714286 0.642857142857143 0.357142857142857 0.571428571428571 0.428571428571429 0.642857142857143 0.357142857142857 0.571428571428571 0.428571428571429 0.5 0.5 0.857142857142857 0.142857142857143 0.785714285714286 0.214285714285714 0.714285714285714 0.285714285714286 0.785714285714286 0.214285714285714 0.714285714285714 0.285714285714286 0.642857142857143 0.357142857142857 0.714285714285714 0.285714285714286 0.642857142857143 0.357142857142857 0.571428571428571 0.428571428571429 0.785714285714286 0.214285714285714 0.714285714285714 0.285714285714286 0.642857142857143 0.357142857142857 0.714285714285714 0.285714285714286 0.642857142857143 0.357142857142857 0.571428571428571 0.428571428571429 0.642857142857143 0.357142857142857 0.571428571428571 0.428571428571429 0.5 0.5 0.714285714285714 0.285714285714286 0.642857142857143 0.357142857142857 0.571428571428571 0.428571428571429 0.642857142857143 0.357142857142857 0.571428571428571 0.428571428571429 0.5 0.5 0.571428571428571 0.428571428571429 0.5 0.5 0.428571428571429 0.571428571428571 0.545454545454545 0.454545454545455 0.454545454545455 0.545454545454545 0.363636363636364 0.636363636363636 0.454545454545455 0.545454545454545 0.363636363636364 0.636363636363636 0.272727272727273 0.727272727272727 0.363636363636364 0.636363636363636 0.272727272727273 0.727272727272727 0.181818181818182 0.818181818181818 0.545454545454545 0.454545454545455 0.454545454545455 0.545454545454545 0.363636363636364 0.636363636363636 0.454545454545455 0.545454545454545 0.363636363636364 0.636363636363636 0.272727272727273 0.727272727272727 0.363636363636364 0.636363636363636 0.272727272727273 0.727272727272727 0.181818181818182 0.818181818181818 0.545454545454545 0.454545454545455 0.454545454545455 0.545454545454545 0.363636363636364 0.636363636363636 0.454545454545455 0.545454545454545 0.363636363636364 0.636363636363636 0.272727272727273 0.727272727272727 0.363636363636364 0.636363636363636 0.272727272727273 0.727272727272727 0.181818181818182 0.818181818181818 0.454545454545455 0.545454545454545 0.363636363636364 0.636363636363636 0.272727272727273 0.727272727272727 0.363636363636364 0.636363636363636 0.272727272727273 0.727272727272727 0.181818181818182 0.818181818181818 0.272727272727273 0.727272727272727 0.181818181818182 0.818181818181818 0.0909090909090909 0.909090909090909 0.454545454545455 0.545454545454545 0.363636363636364 0.636363636363636 0.272727272727273 0.727272727272727 0.363636363636364 0.636363636363636 0.272727272727273 0.727272727272727 0.181818181818182 0.818181818181818 0.272727272727273 0.727272727272727 0.181818181818182 0.818181818181818 0.0909090909090909 0.909090909090909 0.454545454545455 0.545454545454545 0.363636363636364 0.636363636363636 0.272727272727273 0.727272727272727 0.363636363636364 0.636363636363636 0.272727272727273 0.727272727272727 0.181818181818182 0.818181818181818 0.272727272727273 0.727272727272727 0.181818181818182 0.818181818181818 0.0909090909090909 0.909090909090909 0.363636363636364 0.636363636363636 0.272727272727273 0.727272727272727 0.181818181818182 0.818181818181818 0.272727272727273 0.727272727272727 0.181818181818182 0.818181818181818 0.0909090909090909 0.909090909090909 0.181818181818182 0.818181818181818 0.0909090909090909 0.909090909090909 1e-04 0.9999 0.363636363636364 0.636363636363636 0.272727272727273 0.727272727272727 0.181818181818182 0.818181818181818 0.272727272727273 0.727272727272727 0.181818181818182 0.818181818181818 0.0909090909090909 0.909090909090909 0.181818181818182 0.818181818181818 0.0909090909090909 0.909090909090909 1e-04 0.9999 0.363636363636364 0.636363636363636 0.272727272727273 0.727272727272727 0.181818181818182 0.818181818181818 0.272727272727273 0.727272727272727 0.181818181818182 0.818181818181818 0.0909090909090909 0.909090909090909 0.181818181818182 0.818181818181818 0.0909090909090909 0.909090909090909 1e-04 0.9999 0.818181818181818 0.181818181818182 0.727272727272727 0.272727272727273 0.636363636363636 0.363636363636364 0.727272727272727 0.272727272727273 0.636363636363636 0.363636363636364 0.545454545454545 0.454545454545455 0.636363636363636 0.363636363636364 0.545454545454545 0.454545454545455 0.454545454545455 0.545454545454545 0.818181818181818 0.181818181818182 0.727272727272727 0.272727272727273 0.636363636363636 0.363636363636364 0.727272727272727 0.272727272727273 0.636363636363636 0.363636363636364 0.545454545454545 0.454545454545455 0.636363636363636 0.363636363636364 0.545454545454545 0.454545454545455 0.454545454545455 0.545454545454545 0.818181818181818 0.181818181818182 0.727272727272727 0.272727272727273 0.636363636363636 0.363636363636364 0.727272727272727 0.272727272727273 0.636363636363636 0.363636363636364 0.545454545454545 0.454545454545455 0.636363636363636 0.363636363636364 0.545454545454545 0.454545454545455 0.454545454545455 0.545454545454545 0.727272727272727 0.272727272727273 0.636363636363636 0.363636363636364 0.545454545454545 0.454545454545455 0.636363636363636 0.363636363636364 0.545454545454545 0.454545454545455 0.454545454545455 0.545454545454545 0.545454545454545 0.454545454545455 0.454545454545455 0.545454545454545 0.363636363636364 0.636363636363636 0.727272727272727 0.272727272727273 0.636363636363636 0.363636363636364 0.545454545454545 0.454545454545455 0.636363636363636 0.363636363636364 0.545454545454545 0.454545454545455 0.454545454545455 0.545454545454545 0.545454545454545 0.454545454545455 0.454545454545455 0.545454545454545 0.363636363636364 0.636363636363636 0.727272727272727 0.272727272727273 0.636363636363636 0.363636363636364 0.545454545454545 0.454545454545455 0.636363636363636 0.363636363636364 0.545454545454545 0.454545454545455 0.454545454545455 0.545454545454545 0.545454545454545 0.454545454545455 0.454545454545455 0.545454545454545 0.363636363636364 0.636363636363636 0.636363636363636 0.363636363636364 0.545454545454545 0.454545454545455 0.454545454545455 0.545454545454545 0.545454545454545 0.454545454545455 0.454545454545455 0.545454545454545 0.363636363636364 0.636363636363636 0.454545454545455 0.545454545454545 0.363636363636364 0.636363636363636 0.272727272727273 0.727272727272727 0.636363636363636 0.363636363636364 0.545454545454545 0.454545454545455 0.454545454545455 0.545454545454545 0.545454545454545 0.454545454545455 0.454545454545455 0.545454545454545 0.363636363636364 0.636363636363636 0.454545454545455 0.545454545454545 0.363636363636364 0.636363636363636 0.272727272727273 0.727272727272727 0.636363636363636 0.363636363636364 0.545454545454545 0.454545454545455 0.454545454545455 0.545454545454545 0.545454545454545 0.454545454545455 0.454545454545455 0.545454545454545 0.363636363636364 0.636363636363636 0.454545454545455 0.545454545454545 0.363636363636364 0.636363636363636 0.272727272727273 0.727272727272727 0.636363636363636 0.363636363636364 0.545454545454545 0.454545454545455 0.454545454545455 0.545454545454545 0.545454545454545 0.454545454545455 0.454545454545455 0.545454545454545 0.363636363636364 0.636363636363636 0.454545454545455 0.545454545454545 0.363636363636364 0.636363636363636 0.272727272727273 0.727272727272727 0.636363636363636 0.363636363636364 0.545454545454545 0.454545454545455 0.454545454545455 0.545454545454545 0.545454545454545 0.454545454545455 0.454545454545455 0.545454545454545 0.363636363636364 0.636363636363636 0.454545454545455 0.545454545454545 0.363636363636364 0.636363636363636 0.272727272727273 0.727272727272727 0.636363636363636 0.363636363636364 0.545454545454545 0.454545454545455 0.454545454545455 0.545454545454545 0.545454545454545 0.454545454545455 0.454545454545455 0.545454545454545 0.363636363636364 0.636363636363636 0.454545454545455 0.545454545454545 0.363636363636364 0.636363636363636 0.272727272727273 0.727272727272727 0.545454545454545 0.454545454545455 0.454545454545455 0.545454545454545 0.363636363636364 0.636363636363636 0.454545454545455 0.545454545454545 0.363636363636364 0.636363636363636 0.272727272727273 0.727272727272727 0.363636363636364 0.636363636363636 0.272727272727273 0.727272727272727 0.181818181818182 0.818181818181818 0.545454545454545 0.454545454545455 0.454545454545455 0.545454545454545 0.363636363636364 0.636363636363636 0.454545454545455 0.545454545454545 0.363636363636364 0.636363636363636 0.272727272727273 0.727272727272727 0.363636363636364 0.636363636363636 0.272727272727273 0.727272727272727 0.181818181818182 0.818181818181818 0.545454545454545 0.454545454545455 0.454545454545455 0.545454545454545 0.363636363636364 0.636363636363636 0.454545454545455 0.545454545454545 0.363636363636364 0.636363636363636 0.272727272727273 0.727272727272727 0.363636363636364 0.636363636363636 0.272727272727273 0.727272727272727 0.181818181818182 0.818181818181818 0.454545454545455 0.545454545454545 0.363636363636364 0.636363636363636 0.272727272727273 0.727272727272727 0.363636363636364 0.636363636363636 0.272727272727273 0.727272727272727 0.181818181818182 0.818181818181818 0.272727272727273 0.727272727272727 0.181818181818182 0.818181818181818 0.0909090909090909 0.909090909090909 0.454545454545455 0.545454545454545 0.363636363636364 0.636363636363636 0.272727272727273 0.727272727272727 0.363636363636364 0.636363636363636 0.272727272727273 0.727272727272727 0.181818181818182 0.818181818181818 0.272727272727273 0.727272727272727 0.181818181818182 0.818181818181818 0.0909090909090909 0.909090909090909 0.454545454545455 0.545454545454545 0.363636363636364 0.636363636363636 0.272727272727273 0.727272727272727 0.363636363636364 0.636363636363636 0.272727272727273 0.727272727272727 0.181818181818182 0.818181818181818 0.272727272727273 0.727272727272727 0.181818181818182 0.818181818181818 0.0909090909090909 0.909090909090909 0.909090909090909 0.0909090909090909 0.818181818181818 0.181818181818182 0.727272727272727 0.272727272727273 0.818181818181818 0.181818181818182 0.727272727272727 0.272727272727273 0.636363636363636 0.363636363636364 0.727272727272727 0.272727272727273 0.636363636363636 0.363636363636364 0.545454545454545 0.454545454545455 0.909090909090909 0.0909090909090909 0.818181818181818 0.181818181818182 0.727272727272727 0.272727272727273 0.818181818181818 0.181818181818182 0.727272727272727 0.272727272727273 0.636363636363636 0.363636363636364 0.727272727272727 0.272727272727273 0.636363636363636 0.363636363636364 0.545454545454545 0.454545454545455 0.909090909090909 0.0909090909090909 0.818181818181818 0.181818181818182 0.727272727272727 0.272727272727273 0.818181818181818 0.181818181818182 0.727272727272727 0.272727272727273 0.636363636363636 0.363636363636364 0.727272727272727 0.272727272727273 0.636363636363636 0.363636363636364 0.545454545454545 0.454545454545455 0.818181818181818 0.181818181818182 0.727272727272727 0.272727272727273 0.636363636363636 0.363636363636364 0.727272727272727 0.272727272727273 0.636363636363636 0.363636363636364 0.545454545454545 0.454545454545455 0.636363636363636 0.363636363636364 0.545454545454545 0.454545454545455 0.454545454545455 0.545454545454545 0.818181818181818 0.181818181818182 0.727272727272727 0.272727272727273 0.636363636363636 0.363636363636364 0.727272727272727 0.272727272727273 0.636363636363636 0.363636363636364 0.545454545454545 0.454545454545455 0.636363636363636 0.363636363636364 0.545454545454545 0.454545454545455 0.454545454545455 0.545454545454545 0.818181818181818 0.181818181818182 0.727272727272727 0.272727272727273 0.636363636363636 0.363636363636364 0.727272727272727 0.272727272727273 0.636363636363636 0.363636363636364 0.545454545454545 0.454545454545455 0.636363636363636 0.363636363636364 0.545454545454545 0.454545454545455 0.454545454545455 0.545454545454545 0.727272727272727 0.272727272727273 0.636363636363636 0.363636363636364 0.545454545454545 0.454545454545455 0.636363636363636 0.363636363636364 0.545454545454545 0.454545454545455 0.454545454545455 0.545454545454545 0.545454545454545 0.454545454545455 0.454545454545455 0.545454545454545 0.363636363636364 0.636363636363636 0.727272727272727 0.272727272727273 0.636363636363636 0.363636363636364 0.545454545454545 0.454545454545455 0.636363636363636 0.363636363636364 0.545454545454545 0.454545454545455 0.454545454545455 0.545454545454545 0.545454545454545 0.454545454545455 0.454545454545455 0.545454545454545 0.363636363636364 0.636363636363636 0.727272727272727 0.272727272727273 0.636363636363636 0.363636363636364 0.545454545454545 0.454545454545455 0.636363636363636 0.363636363636364 0.545454545454545 0.454545454545455 0.454545454545455 0.545454545454545 0.545454545454545 0.454545454545455 0.454545454545455 0.545454545454545 0.363636363636364 0.636363636363636 0.727272727272727 0.272727272727273 0.636363636363636 0.363636363636364 0.545454545454545 0.454545454545455 0.636363636363636 0.363636363636364 0.545454545454545 0.454545454545455 0.454545454545455 0.545454545454545 0.545454545454545 0.454545454545455 0.454545454545455 0.545454545454545 0.363636363636364 0.636363636363636 0.727272727272727 0.272727272727273 0.636363636363636 0.363636363636364 0.545454545454545 0.454545454545455 0.636363636363636 0.363636363636364 0.545454545454545 0.454545454545455 0.454545454545455 0.545454545454545 0.545454545454545 0.454545454545455 0.454545454545455 0.545454545454545 0.363636363636364 0.636363636363636 0.727272727272727 0.272727272727273 0.636363636363636 0.363636363636364 0.545454545454545 0.454545454545455 0.636363636363636 0.363636363636364 0.545454545454545 0.454545454545455 0.454545454545455 0.545454545454545 0.545454545454545 0.454545454545455 0.454545454545455 0.545454545454545 0.363636363636364 0.636363636363636 0.636363636363636 0.363636363636364 0.545454545454545 0.454545454545455 0.454545454545455 0.545454545454545 0.545454545454545 0.454545454545455 0.454545454545455 0.545454545454545 0.363636363636364 0.636363636363636 0.454545454545455 0.545454545454545 0.363636363636364 0.636363636363636 0.272727272727273 0.727272727272727 0.636363636363636 0.363636363636364 0.545454545454545 0.454545454545455 0.454545454545455 0.545454545454545 0.545454545454545 0.454545454545455 0.454545454545455 0.545454545454545 0.363636363636364 0.636363636363636 0.454545454545455 0.545454545454545 0.363636363636364 0.636363636363636 0.272727272727273 0.727272727272727 0.636363636363636 0.363636363636364 0.545454545454545 0.454545454545455 0.454545454545455 0.545454545454545 0.545454545454545 0.454545454545455 0.454545454545455 0.545454545454545 0.363636363636364 0.636363636363636 0.454545454545455 0.545454545454545 0.363636363636364 0.636363636363636 0.272727272727273 0.727272727272727 0.545454545454545 0.454545454545455 0.454545454545455 0.545454545454545 0.363636363636364 0.636363636363636 0.454545454545455 0.545454545454545 0.363636363636364 0.636363636363636 0.272727272727273 0.727272727272727 0.363636363636364 0.636363636363636 0.272727272727273 0.727272727272727 0.181818181818182 0.818181818181818 0.545454545454545 0.454545454545455 0.454545454545455 0.545454545454545 0.363636363636364 0.636363636363636 0.454545454545455 0.545454545454545 0.363636363636364 0.636363636363636 0.272727272727273 0.727272727272727 0.363636363636364 0.636363636363636 0.272727272727273 0.727272727272727 0.181818181818182 0.818181818181818 0.545454545454545 0.454545454545455 0.454545454545455 0.545454545454545 0.363636363636364 0.636363636363636 0.454545454545455 0.545454545454545 0.363636363636364 0.636363636363636 0.272727272727273 0.727272727272727 0.363636363636364 0.636363636363636 0.272727272727273 0.727272727272727 0.181818181818182 0.818181818181818 0.9999 1e-04 0.909090909090909 0.0909090909090909 0.818181818181818 0.181818181818182 0.909090909090909 0.0909090909090909 0.818181818181818 0.181818181818182 0.727272727272727 0.272727272727273 0.818181818181818 0.181818181818182 0.727272727272727 0.272727272727273 0.636363636363636 0.363636363636364 0.9999 1e-04 0.909090909090909 0.0909090909090909 0.818181818181818 0.181818181818182 0.909090909090909 0.0909090909090909 0.818181818181818 0.181818181818182 0.727272727272727 0.272727272727273 0.818181818181818 0.181818181818182 0.727272727272727 0.272727272727273 0.636363636363636 0.363636363636364 0.9999 1e-04 0.909090909090909 0.0909090909090909 0.818181818181818 0.181818181818182 0.909090909090909 0.0909090909090909 0.818181818181818 0.181818181818182 0.727272727272727 0.272727272727273 0.818181818181818 0.181818181818182 0.727272727272727 0.272727272727273 0.636363636363636 0.363636363636364 0.909090909090909 0.0909090909090909 0.818181818181818 0.181818181818182 0.727272727272727 0.272727272727273 0.818181818181818 0.181818181818182 0.727272727272727 0.272727272727273 0.636363636363636 0.363636363636364 0.727272727272727 0.272727272727273 0.636363636363636 0.363636363636364 0.545454545454545 0.454545454545455 0.909090909090909 0.0909090909090909 0.818181818181818 0.181818181818182 0.727272727272727 0.272727272727273 0.818181818181818 0.181818181818182 0.727272727272727 0.272727272727273 0.636363636363636 0.363636363636364 0.727272727272727 0.272727272727273 0.636363636363636 0.363636363636364 0.545454545454545 0.454545454545455 0.909090909090909 0.0909090909090909 0.818181818181818 0.181818181818182 0.727272727272727 0.272727272727273 0.818181818181818 0.181818181818182 0.727272727272727 0.272727272727273 0.636363636363636 0.363636363636364 0.727272727272727 0.272727272727273 0.636363636363636 0.363636363636364 0.545454545454545 0.454545454545455 0.818181818181818 0.181818181818182 0.727272727272727 0.272727272727273 0.636363636363636 0.363636363636364 0.727272727272727 0.272727272727273 0.636363636363636 0.363636363636364 0.545454545454545 0.454545454545455 0.636363636363636 0.363636363636364 0.545454545454545 0.454545454545455 0.454545454545455 0.545454545454545 0.818181818181818 0.181818181818182 0.727272727272727 0.272727272727273 0.636363636363636 0.363636363636364 0.727272727272727 0.272727272727273 0.636363636363636 0.363636363636364 0.545454545454545 0.454545454545455 0.636363636363636 0.363636363636364 0.545454545454545 0.454545454545455 0.454545454545455 0.545454545454545 0.818181818181818 0.181818181818182 0.727272727272727 0.272727272727273 0.636363636363636 0.363636363636364 0.727272727272727 0.272727272727273 0.636363636363636 0.363636363636364 0.545454545454545 0.454545454545455 0.636363636363636 0.363636363636364 0.545454545454545 0.454545454545455 0.454545454545455 0.545454545454545 1e-04 0.9999 1e-04 0.9999 1e-04 0.9999 1e-04 0.9999 1e-04 0.9999 1e-04 0.9999 1e-04 0.9999 1e-04 0.9999 1e-04 0.9999 1e-04 0.9999 1e-04 0.9999 1e-04 0.9999 1e-04 0.9999 1e-04 0.9999 1e-04 0.9999 1e-04 0.9999 1e-04 0.9999 1e-04 0.9999 1e-04 0.9999 1e-04 0.9999 1e-04 0.9999 1e-04 0.9999 1e-04 0.9999 1e-04 0.9999 1e-04 0.9999 1e-04 0.9999 1e-04 0.9999 1e-04 0.9999 1e-04 0.9999 1e-04 0.9999 1e-04 0.9999 1e-04 0.9999 1e-04 0.9999 1e-04 0.9999 1e-04 0.9999 1e-04 0.9999 1e-04 0.9999 1e-04 0.9999 1e-04 0.9999 1e-04 0.9999 1e-04 0.9999 1e-04 0.9999 1e-04 0.9999 1e-04 0.9999 1e-04 0.9999 1e-04 0.9999 1e-04 0.9999 1e-04 0.9999 1e-04 0.9999 1e-04 0.9999 1e-04 0.9999 1e-04 0.9999 1e-04 0.9999 1e-04 0.9999 1e-04 0.9999 1e-04 0.9999 1e-04 0.9999 1e-04 0.9999 1e-04 0.9999 1e-04 0.9999 1e-04 0.9999 1e-04 0.9999 1e-04 0.9999 1e-04 0.9999 1e-04 0.9999 1e-04 0.9999 1e-04 0.9999 1e-04 0.9999 1e-04 0.9999 1e-04 0.9999 1e-04 0.9999 1e-04 0.9999 1e-04 0.9999 1e-04 0.9999 1e-04 0.9999 1e-04 0.9999 1e-04 0.9999 1e-04 0.9999 1e-04 0.9999 1e-04 0.9999 1e-04 0.9999 1e-04 0.9999 1e-04 0.9999 1e-04 0.9999 1e-04 0.9999 1e-04 0.9999 1e-04 0.9999 1e-04 0.9999 1e-04 0.9999 1e-04 0.9999 1e-04 0.9999 1e-04 0.9999 1e-04 0.9999 1e-04 0.9999 1e-04 0.9999 1e-04 0.9999 1e-04 0.9999 1e-04 0.9999 1e-04 0.9999 1e-04 0.9999 1e-04 0.9999 1e-04 0.9999 1e-04 0.9999 1e-04 0.9999 1e-04 0.9999 1e-04 0.9999 1e-04 0.9999 1e-04 0.9999 1e-04 0.9999 1e-04 0.9999 1e-04 0.9999 1e-04 0.9999 1e-04 0.9999 1e-04 0.9999 1e-04 0.9999 1e-04 0.9999 1e-04 0.9999 1e-04 0.9999 1e-04 0.9999 1e-04 0.9999 1e-04 0.9999 1e-04 0.9999 1e-04 0.9999 1e-04 0.9999 1e-04 0.9999 1e-04 0.9999 1e-04 0.9999 1e-04 0.9999 1e-04 0.9999 1e-04 0.9999 1e-04 0.9999 1e-04 0.9999 1e-04 0.9999 1e-04 0.9999 1e-04 0.9999 1e-04 0.9999 1e-04 0.9999 1e-04 0.9999 1e-04 0.9999 1e-04 0.9999 1e-04 0.9999 1e-04 0.9999 1e-04 0.9999 1e-04 0.9999 1e-04 0.9999 1e-04 0.9999 1e-04 0.9999 1e-04 0.9999 1e-04 0.9999 1e-04 0.9999 1e-04 0.9999 1e-04 0.9999 1e-04 0.9999 1e-04 0.9999 1e-04 0.9999 1e-04 0.9999 1e-04 0.9999 1e-04 0.9999 1e-04 0.9999 1e-04 0.9999 1e-04 0.9999 1e-04 0.9999 1e-04 0.9999 1e-04 0.9999 1e-04 0.9999 1e-04 0.9999 1e-04 0.9999 1e-04 0.9999 1e-04 0.9999 1e-04 0.9999 1e-04 0.9999 1e-04 0.9999 1e-04 0.9999 1e-04 0.9999 1e-04 0.9999 1e-04 0.9999 1e-04 0.9999 1e-04 0.9999 1e-04 0.9999 1e-04 0.9999 1e-04 0.9999 1e-04 0.9999 1e-04 0.9999 1e-04 0.9999 1e-04 0.9999 1e-04 0.9999 1e-04 0.9999 1e-04 0.9999 1e-04 0.9999 1e-04 0.9999 1e-04 0.9999 1e-04 0.9999 1e-04 0.9999 1e-04 0.9999 1e-04 0.9999 1e-04 0.9999 1e-04 0.9999 1e-04 0.9999 1e-04 0.9999 1e-04 0.9999 1e-04 0.9999 1e-04 0.9999 1e-04 0.9999 1e-04 0.9999 1e-04 0.9999 1e-04 0.9999 1e-04 0.9999 1e-04 0.9999 1e-04 0.9999 1e-04 0.9999 1e-04 0.9999 1e-04 0.9999 1e-04 0.9999 1e-04 0.9999 1e-04 0.9999 1e-04 0.9999 1e-04 0.9999 1e-04 0.9999 1e-04 0.9999 1e-04 0.9999 1e-04 0.9999 1e-04 0.9999 1e-04 0.9999 1e-04 0.9999 1e-04 0.9999 1e-04 0.9999 1e-04 0.9999 1e-04 0.9999 1e-04 0.9999 1e-04 0.9999 1e-04 0.9999 1e-04 0.9999 1e-04 0.9999 1e-04 0.9999 1e-04 0.9999 1e-04 0.9999 1e-04 0.9999 1e-04 0.9999 1e-04 0.9999 1e-04 0.9999 1e-04 0.9999 1e-04 0.9999 1e-04 0.9999 1e-04 0.9999 1e-04 0.9999 1e-04 0.9999 1e-04 0.9999 1e-04 0.9999 1e-04 0.9999 1e-04 0.9999 1e-04 0.9999 1e-04 0.9999 1e-04 0.9999 1e-04 0.9999 1e-04 0.9999 1e-04 0.9999 1e-04 0.9999 1e-04 0.9999 1e-04 0.9999 1e-04 0.9999 1e-04 0.9999 1e-04 0.9999 1e-04 0.9999 1e-04 0.9999 1e-04 0.9999 1e-04 0.9999 1e-04 0.9999 1e-04 0.9999 1e-04 0.9999 1e-04 0.9999 1e-04 0.9999 1e-04 0.9999 1e-04 0.9999 1e-04 0.9999 1e-04 0.9999 1e-04 0.9999 1e-04 0.9999 1e-04 0.9999 1e-04 0.9999 1e-04 0.9999 1e-04 0.9999 1e-04 0.9999 1e-04 0.9999 1e-04 0.9999 1e-04 0.9999 1e-04 0.9999 1e-04 0.9999 1e-04 0.9999 1e-04 0.9999 1e-04 0.9999 1e-04 0.9999 1e-04 0.9999 1e-04 0.9999 1e-04 0.9999 1e-04 0.9999 1e-04 0.9999 1e-04 0.9999 1e-04 0.9999 1e-04 0.9999 1e-04 0.9999 1e-04 0.9999 1e-04 0.9999 1e-04 0.9999 1e-04 0.9999 1e-04 0.9999 1e-04 0.9999 1e-04 0.9999 1e-04 0.9999 1e-04 0.9999 1e-04 0.9999 1e-04 0.9999 1e-04 0.9999 1e-04 0.9999 1e-04 0.9999 1e-04 0.9999 1e-04 0.9999 1e-04 0.9999 1e-04 0.9999 1e-04 0.9999 1e-04 0.9999 1e-04 0.9999 1e-04 0.9999 1e-04 0.9999 1e-04 0.9999 1e-04 0.9999 1e-04 0.9999 1e-04 0.9999 1e-04 0.9999 1e-04 0.9999 1e-04 0.9999 1e-04 0.9999 1e-04 0.9999 1e-04 0.9999 1e-04 0.9999 1e-04 0.9999 1e-04 0.9999 1e-04 0.9999 1e-04 0.9999 1e-04 0.9999 1e-04 0.9999 1e-04 0.9999 1e-04 0.9999 1e-04 0.9999 1e-04 0.9999 1e-04 0.9999 1e-04 0.9999 1e-04 0.9999 1e-04 0.9999 1e-04 0.9999 1e-04 0.9999 1e-04 0.9999 1e-04 0.9999 1e-04 0.9999 1e-04 0.9999 1e-04 0.9999 1e-04 0.9999 1e-04 0.9999 1e-04 0.9999 1e-04 0.9999 1e-04 0.9999 1e-04 0.9999 1e-04 0.9999 1e-04 0.9999 1e-04 0.9999 1e-04 0.9999 1e-04 0.9999 1e-04 0.9999 1e-04 0.9999 1e-04 0.9999 1e-04 0.9999 1e-04 0.9999 1e-04 0.9999 1e-04 0.9999 1e-04 0.9999 1e-04 0.9999 1e-04 0.9999 1e-04 0.9999 1e-04 0.9999 1e-04 0.9999 1e-04 0.9999 1e-04 0.9999 1e-04 0.9999 1e-04 0.9999 1e-04 0.9999 1e-04 0.9999 1e-04 0.9999 1e-04 0.9999 1e-04 0.9999 1e-04 0.9999 1e-04 0.9999 1e-04 0.9999 1e-04 0.9999 1e-04 0.9999 1e-04 0.9999 1e-04 0.9999 1e-04 0.9999 1e-04 0.9999 1e-04 0.9999 1e-04 0.9999 1e-04 0.9999 1e-04 0.9999 1e-04 0.9999 1e-04 0.9999 1e-04 0.9999 1e-04 0.9999 1e-04 0.9999 1e-04 0.9999 1e-04 0.9999 1e-04 0.9999 1e-04 0.9999 1e-04 0.9999 1e-04 0.9999 1e-04 0.9999 1e-04 0.9999 1e-04 0.9999 1e-04 0.9999 1e-04 0.9999 1e-04 0.9999 1e-04 0.9999 1e-04 0.9999 1e-04 0.9999 1e-04 0.9999 1e-04 0.9999 1e-04 0.9999 1e-04 0.9999 1e-04 0.9999 1e-04 0.9999 1e-04 0.9999 1e-04 0.9999 1e-04 0.9999 1e-04 0.9999 1e-04 0.9999 1e-04 0.9999 1e-04 0.9999 1e-04 0.9999 1e-04 0.9999 1e-04 0.9999 1e-04 0.9999 1e-04 0.9999 1e-04 0.9999 1e-04 0.9999 1e-04 0.9999 1e-04 0.9999 1e-04 0.9999 1e-04 0.9999 1e-04 0.9999 1e-04 0.9999 1e-04 0.9999 1e-04 0.9999 1e-04 0.9999 1e-04 0.9999 1e-04 0.9999 1e-04 0.9999 1e-04 0.9999 1e-04 0.9999 1e-04 0.9999 1e-04 0.9999 1e-04 0.9999 1e-04 0.9999 1e-04 0.9999 1e-04 0.9999 1e-04 0.9999 1e-04 0.9999 1e-04 0.9999 1e-04 0.9999 1e-04 0.9999 1e-04 0.9999 1e-04 0.9999 1e-04 0.9999 1e-04 0.9999 1e-04 0.9999 1e-04 0.9999 1e-04 0.9999 1e-04 0.9999 1e-04 0.9999 1e-04 0.9999 1e-04 0.9999 1e-04 0.9999 1e-04 0.9999 1e-04 0.9999 1e-04 0.9999 1e-04 0.9999 1e-04 0.9999 1e-04 0.9999 1e-04 0.9999 1e-04 0.9999 1e-04 0.9999 1e-04 0.9999 1e-04 0.9999 1e-04 0.9999 1e-04 0.9999 1e-04 0.9999 1e-04 0.9999 1e-04 0.9999 1e-04 0.9999 1e-04 0.9999 1e-04 0.9999 1e-04 0.9999 1e-04 0.9999 1e-04 0.9999 1e-04 0.9999 1e-04 0.9999 1e-04 0.9999 1e-04 0.9999 1e-04 0.9999 1e-04 0.9999 1e-04 0.9999 1e-04 0.9999 1e-04 0.9999 1e-04 0.9999 1e-04 0.9999 1e-04 0.9999 1e-04 0.9999 1e-04 0.9999 1e-04 0.9999 1e-04 0.9999 1e-04 0.9999 1e-04 0.9999 1e-04 0.9999 1e-04 0.9999 1e-04 0.9999 1e-04 0.9999 1e-04 0.9999 1e-04 0.9999 1e-04 0.9999 1e-04 0.9999 1e-04 0.9999 1e-04 0.9999 1e-04 0.9999 1e-04 0.9999 1e-04 0.9999 1e-04 0.9999 1e-04 0.9999 1e-04 0.9999 1e-04 0.9999 1e-04 0.9999 1e-04 0.9999 1e-04 0.9999 1e-04 0.9999 1e-04 0.9999 1e-04 0.9999 1e-04 0.9999 1e-04 0.9999 1e-04 0.9999 1e-04 0.9999 1e-04 0.9999 1e-04 0.9999 1e-04 0.9999 1e-04 0.9999 1e-04 0.9999 1e-04 0.9999 1e-04 0.9999 1e-04 0.9999 1e-04 0.9999 1e-04 0.9999 1e-04 0.9999 1e-04 0.9999 1e-04 0.9999 1e-04 0.9999 1e-04 0.9999 1e-04 0.9999 1e-04 0.9999 1e-04 0.9999 1e-04 0.9999 1e-04 0.9999 1e-04 0.9999 1e-04 0.9999 1e-04 0.9999 1e-04 0.9999 1e-04 0.9999 1e-04 0.9999 1e-04 0.9999 1e-04 0.9999 1e-04 0.9999 1e-04 0.9999 1e-04 0.9999 1e-04 0.9999 1e-04 0.9999 1e-04 0.9999 1e-04 0.9999 1e-04 0.9999 1e-04 0.9999 1e-04 0.9999 1e-04 0.9999 1e-04 0.9999 1e-04 0.9999 1e-04 0.9999 1e-04 0.9999 1e-04 0.9999 1e-04 0.9999 1e-04 0.9999 1e-04 0.9999 1e-04 0.9999 1e-04 0.9999 1e-04 0.9999 1e-04 0.9999 1e-04 0.9999 1e-04 0.9999 1e-04 0.9999 1e-04 0.9999 1e-04 0.9999 1e-04 0.9999 1e-04 0.9999 1e-04 0.9999 1e-04 0.9999 1e-04 0.9999 1e-04 0.9999 1e-04 0.9999 1e-04 0.9999 1e-04 0.9999 1e-04 0.9999 1e-04 0.9999 1e-04 0.9999 1e-04 0.9999 1e-04 0.9999 1e-04 0.9999 1e-04 0.9999 1e-04 0.9999 1e-04 0.9999 1e-04 0.9999 1e-04 0.9999 1e-04 0.9999 1e-04 0.9999 1e-04 0.9999 1e-04 0.9999 1e-04 0.9999 1e-04 0.9999 1e-04 0.9999 1e-04 0.9999 1e-04 0.9999 1e-04 0.9999 1e-04 0.9999 1e-04 0.9999 1e-04 0.9999 1e-04 0.9999 1e-04 0.9999 1e-04 0.9999 1e-04 0.9999 1e-04 0.9999 1e-04 0.9999 1e-04 0.9999 1e-04 0.9999 1e-04 0.9999 1e-04 0.9999 1e-04 0.9999 1e-04 0.9999 1e-04 0.9999 1e-04 0.9999 1e-04 0.9999 1e-04 0.9999 1e-04 0.9999 1e-04 0.9999 1e-04 0.9999 1e-04 0.9999 1e-04 0.9999 1e-04 0.9999 1e-04 0.9999 1e-04 0.9999 1e-04 0.9999 1e-04 0.9999 1e-04 0.9999 1e-04 0.9999 1e-04 0.9999 1e-04 0.9999 1e-04 0.9999 1e-04 0.9999 1e-04 0.9999 1e-04 0.9999 1e-04 0.9999 1e-04 0.9999 1e-04 0.9999 1e-04 0.9999 1e-04 0.9999 1e-04 0.9999 1e-04 0.9999 1e-04 0.9999 1e-04 0.9999 1e-04 0.9999 1e-04 0.9999 1e-04 0.9999 1e-04 0.9999 1e-04 0.9999 1e-04 0.9999 1e-04 0.9999 1e-04 0.9999 1e-04 0.9999 1e-04 0.9999 1e-04 0.9999 1e-04 0.9999 1e-04 0.9999 1e-04 0.9999 1e-04 0.9999 1e-04 0.9999 1e-04 0.9999 1e-04 0.9999 1e-04 0.9999 1e-04 0.9999 1e-04 0.9999 1e-04 0.9999 1e-04 0.9999 1e-04 0.9999 1e-04 0.9999 1e-04 0.9999 1e-04 0.9999 1e-04 0.9999 1e-04 0.9999 1e-04 0.9999 1e-04 0.9999 1e-04 0.9999 1e-04 0.9999 1e-04 0.9999 1e-04 0.9999 1e-04 0.9999 1e-04 0.9999 1e-04 0.9999 1e-04 0.9999 1e-04 0.9999 1e-04 0.9999 1e-04 0.9999 1e-04 0.9999 1e-04 0.9999 1e-04 0.9999 1e-04 0.9999 1e-04 0.9999 1e-04 0.9999 1e-04 0.9999 1e-04 0.9999 1e-04 0.9999 1e-04 0.9999 1e-04 0.9999 1e-04 0.9999 1e-04 0.9999 1e-04 0.9999 1e-04 0.9999 1e-04 0.9999 1e-04 0.9999 1e-04 0.9999 1e-04 0.9999 1e-04 0.9999 1e-04 0.9999 1e-04 0.9999 1e-04 0.9999 1e-04 0.9999 1e-04 0.9999 1e-04 0.9999 1e-04 0.9999 1e-04 0.9999 1e-04 0.9999 1e-04 0.9999 1e-04 0.9999 1e-04 0.9999 1e-04 0.9999 1e-04 0.9999 1e-04 0.9999 1e-04 0.9999 1e-04 0.9999 1e-04 0.9999 1e-04 0.9999 1e-04 0.9999 1e-04 0.9999 1e-04 0.9999 1e-04 0.9999 1e-04 0.9999 1e-04 0.9999 1e-04 0.9999 1e-04 0.9999 1e-04 0.9999 1e-04 0.9999 1e-04 0.9999 1e-04 0.9999 1e-04 0.9999 1e-04 0.9999 1e-04 0.9999 1e-04 0.9999 1e-04 0.9999 1e-04 0.9999 1e-04 0.9999 1e-04 0.9999 1e-04 0.9999 1e-04 0.9999 1e-04 0.9999 1e-04 0.9999 1e-04 0.9999 1e-04 0.9999 1e-04 0.9999 1e-04 0.9999 1e-04 0.9999 1e-04 0.9999 1e-04 0.9999 1e-04 0.9999 1e-04 0.9999 1e-04 0.9999 1e-04 0.9999 1e-04 0.9999 1e-04 0.9999 1e-04 0.9999 1e-04 0.9999 1e-04 0.9999 1e-04 0.9999 1e-04 0.9999 1e-04 0.9999 1e-04 0.9999 1e-04 0.9999 1e-04 0.9999 1e-04 0.9999 1e-04 0.9999 1e-04 0.9999 1e-04 0.9999 1e-04 0.9999 1e-04 0.9999 1e-04 0.9999 1e-04 0.9999 1e-04 0.9999 1e-04 0.9999 1e-04 0.9999 1e-04 0.9999 1e-04 0.9999 1e-04 0.9999 1e-04 0.9999 1e-04 0.9999 1e-04 0.9999 1e-04 0.9999 1e-04 0.9999 1e-04 0.9999 1e-04 0.9999 1e-04 0.9999 1e-04 0.9999 1e-04 0.9999 1e-04 0.9999 1e-04 0.9999 1e-04 0.9999 1e-04 0.9999 1e-04 0.9999 1e-04 0.9999 1e-04 0.9999 1e-04 0.9999 1e-04 0.9999 1e-04 0.9999 1e-04 0.9999 1e-04 0.9999 1e-04 0.9999 1e-04 0.9999 1e-04 0.9999 1e-04 0.9999 1e-04 0.9999 1e-04 0.9999 1e-04 0.9999 1e-04 0.9999 1e-04 0.9999 1e-04 0.9999 1e-04 0.9999 1e-04 0.9999 1e-04 0.9999 1e-04 0.9999 1e-04 0.9999 1e-04 0.9999 1e-04 0.9999 1e-04 0.9999 1e-04 0.9999 1e-04 0.9999 1e-04 0.9999 1e-04 0.9999 1e-04 0.9999 1e-04 0.9999 1e-04 0.9999 1e-04 0.9999 1e-04 0.9999 1e-04 0.9999 1e-04 0.9999 1e-04 0.9999 1e-04 0.9999 1e-04 0.9999 1e-04 0.9999 1e-04 0.9999 1e-04 0.9999 1e-04 0.9999 1e-04 0.9999 1e-04 0.9999 1e-04 0.9999 1e-04 0.9999 1e-04 0.9999 1e-04 0.9999 1e-04 0.9999 1e-04 0.9999 1e-04 0.9999 1e-04 0.9999 1e-04 0.9999 1e-04 0.9999 1e-04 0.9999 1e-04 0.9999 1e-04 0.9999 1e-04 0.9999 1e-04 0.9999 1e-04 0.9999 1e-04 0.9999 1e-04 0.9999 1e-04 0.9999 1e-04 0.9999 1e-04 0.9999 1e-04 0.9999 1e-04 0.9999 1e-04 0.9999 1e-04 0.9999 1e-04 0.9999 1e-04 0.9999 1e-04 0.9999 1e-04 0.9999 1e-04 0.9999 1e-04 0.9999 1e-04 0.9999 1e-04 0.9999 1e-04 0.9999 1e-04 0.9999 1e-04 0.9999 1e-04 0.9999 1e-04 0.9999 1e-04 0.9999 1e-04 0.9999 1e-04 0.9999 1e-04 0.9999 1e-04 0.9999 1e-04 0.9999 1e-04 0.9999 1e-04 0.9999 1e-04 0.9999 1e-04 0.9999 1e-04 0.9999 1e-04 0.9999 1e-04 0.9999 1e-04 0.9999 1e-04 0.9999 1e-04 0.9999 1e-04 0.9999 1e-04 0.9999 1e-04 0.9999 1e-04 0.9999 1e-04 0.9999 1e-04 0.9999 1e-04 0.9999 1e-04 0.9999 1e-04 0.9999 1e-04 0.9999 1e-04 0.9999 1e-04 0.9999 1e-04 0.9999 1e-04 0.9999 1e-04 0.9999 1e-04 0.9999 1e-04 0.9999 1e-04 0.9999 1e-04 0.9999 1e-04 0.9999 1e-04 0.9999 1e-04 0.9999 1e-04 0.9999 1e-04 0.9999 1e-04 0.9999 1e-04 0.9999 1e-04 0.9999 1e-04 0.9999 1e-04 0.9999 1e-04 0.9999 1e-04 0.9999 1e-04 0.9999 1e-04 0.9999 1e-04 0.9999 1e-04 0.9999 1e-04 0.9999 1e-04 0.9999 1e-04 0.9999 1e-04 0.9999 1e-04 0.9999</probabilities>
			<property id="Order">Topo, Nat, prot, frag, dis, inv</property>
			<property id="Imp">2, 4, 3, 2, 4, 4</property>
			<property id="Dir">1, 1, 1, 0, 0, 0</property>
		</cpt>
		<cpt id="Tol_total_area">
			<state id="Very_small" />
			<state id="Small" />
			<state id="Medium" />
			<state id="Large" />
			<state id="Very_large" />
			<probabilities>0.2 0.2 0.2 0.2 0.2</probabilities>
		</cpt>
		<cpt id="RF_in_Active_management">
			<state id="Small" />
			<state id="Medium" />
			<state id="Large" />
			<probabilities>0.3333 0.3333 0.3334</probabilities>
		</cpt>
		<cpt id="x_MRF_in_novel_lost_climate">
			<state id="Small" />
			<state id="Medium" />
			<state id="Large" />
			<probabilities>0.3333 0.3333 0.3334</probabilities>
		</cpt>
		<cpt id="RF_under_Protective_designation">
			<state id="Small" />
			<state id="Medium" />
			<state id="Large" />
			<probabilities>0.6179999999999999 0.201 0.181</probabilities>
		</cpt>
		<cpt id="x_RF_in_ungulate_free_areas">
			<state id="Small" />
			<state id="Medium" />
			<state id="Large" />
			<probabilities>0.665 0.162 0.173</probabilities>
		</cpt>
		<cpt id="x_protected_areas_in_RF">
			<state id="Small" />
			<state id="Large" />
			<parents>RF_under_Protective_designation x_RF_in_ungulate_free_areas</parents>
			<probabilities>0.9999 1e-04 0.75 0.25 0.5 0.5 0.75 0.25 0.5 0.5 0.25 0.75 0.5 0.5 0.25 0.75 1e-04 0.9999</probabilities>
		</cpt>
		<cpt id="Native_cover_in_MRF_zone">
			<state id="Small" />
			<state id="Medium" />
			<state id="Large" />
			<probabilities>0.5750000000000001 0.202 0.223</probabilities>
		</cpt>
		<cpt id="Slope_RF">
			<state id="Small" />
			<state id="Medium" />
			<state id="Large" />
			<probabilities>0.323 0.363 0.314</probabilities>
		</cpt>
		<cpt id="Aspect_RF">
			<state id="Small" />
			<state id="Medium" />
			<state id="Large" />
			<probabilities>0.3289999999999999 0.334 0.337</probabilities>
		</cpt>
		<cpt id="Average_ppt_gradient_within_MRF">
			<state id="Low" />
			<state id="Medium" />
			<state id="High" />
			<probabilities>0.367 0.335 0.298</probabilities>
		</cpt>
		<cpt id="Average_slope_within_MRF">
			<state id="Low" />
			<state id="Medium" />
			<state id="High" />
			<probabilities>0.294 0.386 0.32</probabilities>
		</cpt>
		<cpt id="Topo_divesity_RF">
			<state id="Small" />
			<state id="Large" />
			<parents>Slope_RF Aspect_RF Average_ppt_gradient_within_MRF Average_slope_within_MRF</parents>
			<probabilities>1e-04 0.9999 0.125 0.875 0.25 0.75 0.125 0.875 0.25 0.75 0.375 0.625 0.25 0.75 0.375 0.625 0.5 0.5 0.125 0.875 0.25 0.75 0.375 0.625 0.25 0.75 0.375 0.625 0.5 0.5 0.375 0.625 0.5 0.5 0.625 0.375 0.25 0.75 0.375 0.625 0.5 0.5 0.375 0.625 0.5 0.5 0.625 0.375 0.5 0.5 0.625 0.375 0.75 0.25 0.125 0.875 0.25 0.75 0.375 0.625 0.25 0.75 0.375 0.625 0.5 0.5 0.375 0.625 0.5 0.5 0.625 0.375 0.25 0.75 0.375 0.625 0.5 0.5 0.375 0.625 0.5 0.5 0.625 0.375 0.5 0.5 0.625 0.375 0.75 0.25 0.375 0.625 0.5 0.5 0.625 0.375 0.5 0.5 0.625 0.375 0.75 0.25 0.625 0.375 0.75 0.25 0.875 0.125 0.25 0.75 0.375 0.625 0.5 0.5 0.375 0.625 0.5 0.5 0.625 0.375 0.5 0.5 0.625 0.375 0.75 0.25 0.375 0.625 0.5 0.5 0.625 0.375 0.5 0.5 0.625 0.375 0.75 0.25 0.625 0.375 0.75 0.25 0.875 0.125 0.5 0.5 0.625 0.375 0.75 0.25 0.625 0.375 0.75 0.25 0.875 0.125 0.75 0.25 0.875 0.125 0.9999 1e-04</probabilities>
		</cpt>
		<cpt id="x_MRF_overlap_with_key_detrimental_invasive">
			<state id="Small" />
			<state id="Medium" />
			<state id="Large" />
			<probabilities>0.404 0.284 0.312</probabilities>
		</cpt>
		<cpt id="Climate_change_velocity_in_MRF">
			<state id="Low" />
			<state id="High" />
			<probabilities>1 0</probabilities>
		</cpt>
		<cpt id="Habitat_qual_MRF">
			<state id="Favorable" />
			<state id="Unfavorable" />
			<parents>Persistence_in_invaded_landscape Topo_divesity_RF Native_cover_in_MRF_zone x_protected_areas_in_RF MRF_fragmentation x_MRF_overlap_with_key_detrimental_invasive</parents>
			<probabilities>0.333333333333333 0.666666666666667 0.25 0.75 0.166666666666667 0.833333333333333 0.25 0.75 0.166666666666667 0.833333333333333 0.0833333333333333 0.916666666666667 0.166666666666667 0.833333333333333 0.0833333333333333 0.916666666666667 1e-04 0.9999 0.583333333333333 0.416666666666667 0.5 0.5 0.416666666666667 0.583333333333333 0.5 0.5 0.416666666666667 0.583333333333333 0.333333333333333 0.666666666666667 0.416666666666667 0.583333333333333 0.333333333333333 0.666666666666667 0.25 0.75 0.458333333333333 0.541666666666667 0.375 0.625 0.291666666666667 0.708333333333333 0.375 0.625 0.291666666666667 0.708333333333333 0.208333333333333 0.791666666666667 0.291666666666667 0.708333333333333 0.208333333333333 0.791666666666667 0.125 0.875 0.708333333333333 0.291666666666667 0.625 0.375 0.541666666666667 0.458333333333333 0.625 0.375 0.541666666666667 0.458333333333333 0.458333333333333 0.541666666666667 0.541666666666667 0.458333333333333 0.458333333333333 0.541666666666667 0.375 0.625 0.583333333333333 0.416666666666667 0.5 0.5 0.416666666666667 0.583333333333333 0.5 0.5 0.416666666666667 0.583333333333333 0.333333333333333 0.666666666666667 0.416666666666667 0.583333333333333 0.333333333333333 0.666666666666667 0.25 0.75 0.833333333333333 0.166666666666667 0.75 0.25 0.666666666666667 0.333333333333333 0.75 0.25 0.666666666666667 0.333333333333333 0.583333333333333 0.416666666666667 0.666666666666667 0.333333333333333 0.583333333333333 0.416666666666667 0.5 0.5 0.5 0.5 0.416666666666667 0.583333333333333 0.333333333333333 0.666666666666667 0.416666666666667 0.583333333333333 0.333333333333333 0.666666666666667 0.25 0.75 0.333333333333333 0.666666666666667 0.25 0.75 0.166666666666667 0.833333333333333 0.75 0.25 0.666666666666667 0.333333333333333 0.583333333333333 0.416666666666667 0.666666666666667 0.333333333333333 0.583333333333333 0.416666666666667 0.5 0.5 0.583333333333333 0.416666666666667 0.5 0.5 0.416666666666667 0.583333333333333 0.625 0.375 0.541666666666667 0.458333333333333 0.458333333333333 0.541666666666667 0.541666666666667 0.458333333333333 0.458333333333333 0.541666666666667 0.375 0.625 0.458333333333333 0.541666666666667 0.375 0.625 0.291666666666667 0.708333333333333 0.875 0.125 0.791666666666667 0.208333333333333 0.708333333333333 0.291666666666667 0.791666666666667 0.208333333333333 0.708333333333333 0.291666666666667 0.625 0.375 0.708333333333333 0.291666666666667 0.625 0.375 0.541666666666667 0.458333333333333 0.75 0.25 0.666666666666667 0.333333333333333 0.583333333333333 0.416666666666667 0.666666666666667 0.333333333333333 0.583333333333333 0.416666666666667 0.5 0.5 0.583333333333333 0.416666666666667 0.5 0.5 0.416666666666667 0.583333333333333 0.9999 1e-04 0.916666666666667 0.0833333333333334 0.833333333333333 0.166666666666667 0.916666666666667 0.0833333333333334 0.833333333333333 0.166666666666667 0.75 0.25 0.833333333333333 0.166666666666667 0.75 0.25 0.666666666666667 0.333333333333333 0.222222222222222 0.777777777777778 0.222222222222222 0.777777777777778 0.222222222222222 0.777777777777778 0.111111111111111 0.888888888888889 0.111111111111111 0.888888888888889 0.111111111111111 0.888888888888889 1e-04 0.9999 1e-04 0.9999 1e-04 0.9999 0.555555555555556 0.444444444444444 0.555555555555556 0.444444444444444 0.555555555555556 0.444444444444444 0.444444444444444 0.555555555555556 0.444444444444444 0.555555555555556 0.444444444444444 0.555555555555556 0.333333333333333 0.666666666666667 0.333333333333333 0.666666666666667 0.333333333333333 0.666666666666667 0.333333333333333 0.666666666666667 0.333333333333333 0.666666666666667 0.333333333333333 0.666666666666667 0.222222222222222 0.777777777777778 0.222222222222222 0.777777777777778 0.222222222222222 0.777777777777778 0.111111111111111 0.888888888888889 0.111111111111111 0.888888888888889 0.111111111111111 0.888888888888889 0.666666666666667 0.333333333333333 0.666666666666667 0.333333333333333 0.666666666666667 0.333333333333333 0.555555555555556 0.444444444444444 0.555555555555556 0.444444444444444 0.555555555555556 0.444444444444444 0.444444444444444 0.555555555555556 0.444444444444444 0.555555555555556 0.444444444444444 0.555555555555556 0.444444444444444 0.555555555555556 0.444444444444444 0.555555555555556 0.444444444444444 0.555555555555556 0.333333333333333 0.666666666666667 0.333333333333333 0.666666666666667 0.333333333333333 0.666666666666667 0.222222222222222 0.777777777777778 0.222222222222222 0.777777777777778 0.222222222222222 0.777777777777778 0.777777777777778 0.222222222222222 0.777777777777778 0.222222222222222 0.777777777777778 0.222222222222222 0.666666666666667 0.333333333333333 0.666666666666667 0.333333333333333 0.666666666666667 0.333333333333333 0.555555555555556 0.444444444444444 0.555555555555556 0.444444444444444 0.555555555555556 0.444444444444444 0.444444444444444 0.555555555555556 0.444444444444444 0.555555555555556 0.444444444444444 0.555555555555556 0.333333333333333 0.666666666666667 0.333333333333333 0.666666666666667 0.333333333333333 0.666666666666667 0.222222222222222 0.777777777777778 0.222222222222222 0.777777777777778 0.222222222222222 0.777777777777778 0.777777777777778 0.222222222222222 0.777777777777778 0.222222222222222 0.777777777777778 0.222222222222222 0.666666666666667 0.333333333333333 0.666666666666667 0.333333333333333 0.666666666666667 0.333333333333333 0.555555555555556 0.444444444444444 0.555555555555556 0.444444444444444 0.555555555555556 0.444444444444444 0.555555555555556 0.444444444444444 0.555555555555556 0.444444444444444 0.555555555555556 0.444444444444444 0.444444444444444 0.555555555555556 0.444444444444444 0.555555555555556 0.444444444444444 0.555555555555556 0.333333333333333 0.666666666666667 0.333333333333333 0.666666666666667 0.333333333333333 0.666666666666667 0.888888888888889 0.111111111111111 0.888888888888889 0.111111111111111 0.888888888888889 0.111111111111111 0.777777777777778 0.222222222222222 0.777777777777778 0.222222222222222 0.777777777777778 0.222222222222222 0.666666666666667 0.333333333333333 0.666666666666667 0.333333333333333 0.666666666666667 0.333333333333333 0.666666666666667 0.333333333333333 0.666666666666667 0.333333333333333 0.666666666666667 0.333333333333333 0.555555555555556 0.444444444444444 0.555555555555556 0.444444444444444 0.555555555555556 0.444444444444444 0.444444444444444 0.555555555555556 0.444444444444444 0.555555555555556 0.444444444444444 0.555555555555556 0.9999 1e-04 0.9999 1e-04 0.9999 1e-04 0.888888888888889 0.111111111111111 0.888888888888889 0.111111111111111 0.888888888888889 0.111111111111111 0.777777777777778 0.222222222222222 0.777777777777778 0.222222222222222 0.777777777777778 0.222222222222222</probabilities>
			<property id="Order">Topo, Nat, prot, frag, dis, inv</property>
			<property id="Imp">2, 4, 3, 2, 4, 4</property>
			<property id="Dir">1, 1, 1, 0, 0, 0</property>
		</cpt>
		<cpt id="x_Tol_uninhabitalble_by_lava_flows">
			<state id="Small" />
			<state id="Medium" />
			<state id="Large" />
			<probabilities>0.3333 0.3333 0.3334</probabilities>
		</cpt>
		<cpt id="x_Tol_uninhabitable">
			<state id="Small" />
			<state id="Medium" />
			<state id="Large" />
			<probabilities>0.437 0.374 0.189</probabilities>
		</cpt>
		<cpt id="eff_zone_areaTL">
			<state id="Very_small" />
			<state id="Small" />
			<state id="Medium" />
			<state id="Large" />
			<state id="Very_large" />
			<probabilities>0.2 0.2 0.2 0.2 0.2</probabilities>
		</cpt>
		<cpt id="eff_pioneer_zone_areaTL">
			<state id="Very_small" />
			<state id="Small" />
			<state id="Medium" />
			<state id="Large" />
			<state id="Very_large" />
			<probabilities>0.2 0.2 0.2 0.2 0.2</probabilities>
		</cpt>
		<cpt id="Effective_Tol_zone_area">
			<state id="Favorable" />
			<state id="Unfavorable" />
			<parents>Pioneer_species eff_zone_areaTL eff_pioneer_zone_areaTL</parents>
			<probabilities>0.0001 0.9999 0.0001 0.9999 0.0001 0.9999 0.0001 0.9999 0.0001 0.9999 0.25 0.75 0.25 0.75 0.25 0.75 0.25 0.75 0.25 0.75 0.5 0.5 0.5 0.5 0.5 0.5 0.5 0.5 0.5 0.5 0.75 0.25 0.75 0.25 0.75 0.25 0.75 0.25 0.75 0.25 0.9999 9.999999999998899e-005 0.9999 9.999999999998899e-005 0.9999 9.999999999998899e-005 0.9999 9.999999999998899e-005 0.9999 9.999999999998899e-005 9.999999999998899e-005 0.9999 0.25 0.75 0.5 0.5 0.75 0.25 0.9999 9.999999999998899e-005 9.999999999998899e-005 0.9999 0.25 0.75 0.5 0.5 0.75 0.25 0.9999 9.999999999998899e-005 9.999999999998899e-005 0.9999 0.25 0.75 0.5 0.5 0.75 0.25 0.9999 9.999999999998899e-005 9.999999999998899e-005 0.9999 0.25 0.75 0.5 0.5 0.75 0.25 0.9999 9.999999999998899e-005 9.999999999998899e-005 0.9999 0.25 0.75 0.5 0.5 0.75 0.25 0.9999 9.999999999998899e-005</probabilities>
		</cpt>
		<cpt id="Resist">
			<state id="Favorable" />
			<state id="Unfavorable" />
			<parents>Dispersion Effective_Tol_zone_area Tol_Zone_Habitat_qual</parents>
			<probabilities>0.9999 1e-04 0.571428571428571 0.428571428571429 0.571428571428571 0.428571428571429 0.142857142857143 0.857142857142857 0.857142857142857 0.142857142857143 0.428571428571429 0.571428571428571 0.428571428571429 0.571428571428571 1e-04 0.9999</probabilities>
		</cpt>
		<cpt id="Mig_total_area">
			<state id="Very_small" />
			<state id="Small" />
			<state id="Medium" />
			<state id="Large" />
			<state id="Very_large" />
			<probabilities>0.2 0.2 0.2 0.2 0.2</probabilities>
		</cpt>
		<cpt id="x_Mig_uninhabitalble_by_lava_flows">
			<state id="Small" />
			<state id="Medium" />
			<state id="Large" />
			<probabilities>0.3333 0.3333 0.3334</probabilities>
		</cpt>
		<cpt id="x_Mig_uninhabitable">
			<state id="Small" />
			<state id="Medium" />
			<state id="Large" />
			<probabilities>0.73 0.222 0.048</probabilities>
		</cpt>
		<cpt id="eff_zone_areaMG">
			<state id="Very_small" />
			<state id="Small" />
			<state id="Medium" />
			<state id="Large" />
			<state id="Very_large" />
			<probabilities>0.2 0.2 0.2 0.2 0.2</probabilities>
		</cpt>
		<cpt id="eff_pioneer_zone_areaMG">
			<state id="Very_small" />
			<state id="Small" />
			<state id="Medium" />
			<state id="Large" />
			<state id="Very_large" />
			<probabilities>0.2 0.2 0.2 0.2 0.2</probabilities>
		</cpt>
		<cpt id="Effective_Mig_area">
			<state id="Favorable" />
			<state id="Unfavorable" />
			<parents>Pioneer_species eff_zone_areaMG eff_pioneer_zone_areaMG</parents>
			<probabilities>0.0001 0.9999 0.0001 0.9999 0.0001 0.9999 0.0001 0.9999 0.0001 0.9999 0.25 0.75 0.25 0.75 0.25 0.75 0.25 0.75 0.25 0.75 0.5 0.5 0.5 0.5 0.5 0.5 0.5 0.5 0.5 0.5 0.75 0.25 0.75 0.25 0.75 0.25 0.75 0.25 0.75 0.25 0.9999 9.999999999998899e-005 0.9999 9.999999999998899e-005 0.9999 9.999999999998899e-005 0.9999 9.999999999998899e-005 0.9999 9.999999999998899e-005 9.999999999998899e-005 0.9999 0.25 0.75 0.5 0.5 0.75 0.25 0.9999 9.999999999998899e-005 9.999999999998899e-005 0.9999 0.25 0.75 0.5 0.5 0.75 0.25 0.9999 9.999999999998899e-005 9.999999999998899e-005 0.9999 0.25 0.75 0.5 0.5 0.75 0.25 0.9999 9.999999999998899e-005 9.999999999998899e-005 0.9999 0.25 0.75 0.5 0.5 0.75 0.25 0.9999 9.999999999998899e-005 9.999999999998899e-005 0.9999 0.25 0.75 0.5 0.5 0.75 0.25 0.9999 9.999999999998899e-005</probabilities>
		</cpt>
		<cpt id="Migrate">
			<state id="Favorable" />
			<state id="Unfavorable" />
			<parents>Dispersion Effective_Mig_area Mig_Zone_Habitat_qual</parents>
			<probabilities>0.9999 1e-04 0.571428571428571 0.428571428571429 0.571428571428571 0.428571428571429 0.142857142857143 0.857142857142857 0.857142857142857 0.142857142857143 0.428571428571429 0.571428571428571 0.428571428571429 0.571428571428571 1e-04 0.9999</probabilities>
		</cpt>
		<cpt id="Micro_refugia">
			<state id="Favorable" />
			<state id="Unfavorable" />
			<parents>Dispersion Habitat_qual_MRF Effective_MRF_area</parents>
			<probabilities>0.9999 1e-04 0.571428571428571 0.428571428571429 0.571428571428571 0.428571428571429 0.142857142857143 0.857142857142857 0.857142857142857 0.142857142857143 0.428571428571429 0.571428571428571 0.428571428571429 0.571428571428571 1e-04 0.9999</probabilities>
		</cpt>
		<cpt id="MRF_total_area">
			<state id="Very_small" />
			<state id="Small" />
			<state id="Medium" />
			<state id="Large" />
			<state id="Very_large" />
			<probabilities>0.2 0.2 0.2 0.2 0.2</probabilities>
		</cpt>
	</nodes>
	<cases>
		<case name="to_delete">
			<evidence node="Number_of_future_compatible_bioregions" state="Many" />
			<evidence node="Projected_change_in_CE_area" state="Large_decrease" />
			<evidence node="Proximity_to_max_height_of_Mtn" state="Far" />
			<evidence node="Native_cover_in_MRF_zone" state="Medium" />
			<evidence node="MRF_fragmentation" state="Medium" />
			<evidence node="Slope_RF" state="Large" />
			<evidence node="Aspect_RF" state="Medium" />
			<evidence node="x_RF_in_ungulate_free_areas" state="Medium" />
			<evidence node="RF_under_Protective_designation" state="Medium" />
			<evidence node="Average_slope_within_MRF" state="Medium" />
			<evidence node="Average_ppt_gradient_within_MRF" state="Medium" />
			<evidence node="Native_cover_in_Mig_zone" state="Medium" />
			<evidence node="Mig_fragmentation" state="Medium" />
			<evidence node="x_Mig_Zone_in_ungulate_free_areas" state="Medium" />
			<evidence node="Native_cover_in_Tol_zone" state="Medium" />
			<evidence node="Tol_fragmentation" state="Medium" />
			<evidence node="x_Tol_Zone_in_ungulate_free_areas" state="Medium" />
			<evidence node="Tol_Zone_under_Protective_designation" state="Medium" />
			<evidence node="eff_zone_areaMR" state="Medium" />
			<evidence node="x_MRF_uninhabitable" state="Medium" />
			<evidence node="x_MRF_irreversably_destroyed_by_CC" state="Medium" />
			<evidence node="x_MRF_uninhabitalble_by_lava_flows" state="Medium" />
			<evidence node="Mig_total_area" state="Large" />
			<evidence node="x_Mig_uninhabitable" state="Medium" />
			<evidence node="x_Mig_uninhabitalble_by_lava_flows" state="Large" />
			<evidence node="Tol_total_area" state="Medium" />
			<evidence node="x_Tol_uninhabitable" state="Medium" />
			<evidence node="x_Tol_uninhabitalble_by_lava_flows" state="Large" />
			<evidence node="Pioneer_species" state="No" />
			<evidence node="Persistence_in_invaded_landscape" state="No" />
		</case>
	</cases>
	<extensions>
		<genie version="1.0" app="GeNIe 2.0.4497.0" name="SpeciesVA" faultnameformat="nodestate" arcwidth="2">
			<node id="Resist">
				<name>Tolerate</name>
